PUSH1 0.232409709226979 0.23180107741843128 -0.2281048828690752 0.22883621446024208 0.22540338631464965 0.22772222358548322 0.22841948729533892 0.23215511417350382 0.23064856050359844 -0.22547638330637276 0.22919063104508663 0.23060921516416555 0.2308889388111161 0.23015493477579943 -0.22775234189923868 -0.23018432017007479 0.23241722957094693 0.21430218560527164 -0.21991922164876576 -0.22542697210363583 0.22253412429629912 -0.22392222943849788 0.22905602667206013 0.22695335898538485 -0.22480750513467052 0.23230233581197626 0.23138746961652712 -0.219623497905806 -0.2302124064142305 -0.2269496597956468 0.22857397006121286 0.2249632410966728 0.23186535200948805 0.2328697910299097 0.2280240864241441 -0.23142537390323148 -0.22998926273820247 0.2231610292695442 -0.2154249120293931 -0.2247083335389335 -0.22331712358032396 -0.2248405975157756 0.23241391686664903 -0.2300868042273387 0.22509196879818316 -0.22392108405192487 -0.22845809582910004 -0.23159942652597695 -0.23242012349433075 0.23127686115157564 0.22439242356198594 0.23330314280523912 0.21647801990390905 0.22653250499171923 0.22464719441507316 0.22692219945841735 0.22933808787978693 -0.2278502534878418 0.2300941128573697 -0.2332235850187876 0.22475796065947126 -0.22936732554294995 -0.2285597770200525 -0.2244990503943188 0.22128308025946208 0.23017158046720124 -0.22826766712629692 -0.23091663726789483 -0.22621250158627743 -0.2329476341395079 -0.21998500410583108 0.2286502769663118 0.22953285059500475 0.22959790156941132 0.2294492076371039 -0.22196761082621014 0.22597869385730324 0.223978488654956 0.22973800918506676 -0.22799593777459093 -0.22501277968159572 -0.22900901313876398 0.23078612577342947 -0.2280467406395429 0.2293136943884657 0.22280471212165306 0.2278733892183368 0.22718174333940588 0.23176153717108872 -0.22761373191275783 0.21604315516989997 0.22490907355086145 0.22161209585558012 -0.22863456446008562 -0.22706006936496784 -0.230747838353881 -0.22753024365724894 -0.23056982971617088 0.2115491005396214 -0.2307731752296277 -0.2284394211892066 -0.2350430701968786 -0.2310304255281236 0.21956132662976946 0.22270467373843847 0.23078858504164934 0.2250343202779727 0.23089052099420646 -0.2166765752594339 0.22382623725278675 0.22638196191653726 -0.230921024966947 -0.23275272069867597 -0.22917173476791886 0.22426455577168472 -0.23243107461365609 -0.2244427955465801 0.22386333890275537 0.22682595511072776 0.22833790158097092 0.2277853085984385 -0.2314445939707874 0.23367453068433447 0.22561459092554428 -0.2326525152669238 0.22902365759393178 -0.22851117293217948 0.228947501807217 -0.2325453265860082 -0.2329425822117498 0.22181703844597514 -0.2227431482834952 -0.22188079520789053 0.2329090994448846 -0.2320747209714935 0.22716057985449875 -0.22584664604965438 -0.22165135018840984 0.2137447225482892 -0.23029911046274337 -0.22479392283746955 -0.22735304994495917 0.22523161880241654 -0.230334689570393 0.22885127829851326 -0.2284729546056891 -0.22795574381084166 0.2247594468882781 0.23263273740603005 -0.22490490000696003 0.22936961564253733 0.22511720492331563 -0.2222410787387576 0.22971908608416525 0.2278925649904515 0.2298253596416408 -0.22749055052388764 -0.23186292319523175 0.22987748975947625 -0.22429237910688818 -0.21974281764223516 -0.2319815437162334 -0.22150191922056572 0.2293008327233606 0.22007279035949684 0.22747199500182783 -0.22815554636390148 0.22622438192060623 -0.22864851292042004 0.23271586374431139 -0.2309424570218616 0.2281568687120264 0.2319311070927077 0.22658853281780944 0.22178118538849784 0.2330633149852768 -0.22453248439506093 -0.2234473367544227 -0.21956641521944986 0.23221220068596896 
MSTORE 0.19727627911795217 0.19730204568703283 -0.19908044833057184 0.1940753942989913 0.19585877224826 0.20009675354404108 0.19899019997262224 0.19772648533704565 0.19880106656863936 -0.19596891974110278 0.1944903372089754 0.20162769670950698 0.19956806359470772 0.19808768432230492 -0.19701858960999044 -0.19910705141950322 0.2002859678431486 0.1873618763254966 -0.1936153501155822 -0.19850896671318582 0.1939703043530746 -0.1960632812501416 0.19490475483192968 0.19705606944881504 -0.19683202279526907 0.20098356428444322 0.20015003341393284 -0.19282304620005974 -0.20124346842514457 -0.19672203806071367 0.19684430931962626 0.19328517415791505 0.19778284568508891 0.19774662242429386 0.19781214354756002 -0.20205669863370582 -0.1999964413125771 0.1951008517162396 -0.18880929830948462 -0.1911575054703819 -0.1969561836718296 -0.19717132405874446 0.20186975403825438 -0.19819212604313705 0.19220814607212208 -0.19510781586663037 -0.19916457076825114 -0.20139433866452278 -0.2002682458973305 0.20369686800403766 0.19640252011285203 0.2023637038506962 0.18914592909320999 0.19797128393818858 0.19917036024187426 0.1945722674087679 0.19739684879276376 -0.2009744103599964 0.2016299708953747 -0.20180144260534055 0.19755982393807806 -0.19888489476199528 -0.1939834571078794 -0.19631605429535476 0.19283303895671572 0.19730990724121847 -0.2011206714230663 -0.19698459493774717 -0.19609078983450168 -0.19742480776053475 -0.19139109918385155 0.1994070609309227 0.19741516503263928 0.19929320197065886 0.20145669097465937 -0.19322157023855843 0.19560591230879107 0.194180802030448 0.19613098099953513 -0.19795315347005285 -0.1955174118010443 -0.1996745603216543 0.19710752907260898 -0.19838060090562648 0.20218336294306566 0.19123131906186586 0.19474630706210055 0.20131449498954937 0.19773504772706013 -0.20006045272514486 0.1845975404360176 0.1998702036523132 0.19212182862157656 -0.19987476184704725 -0.19623259326986356 -0.19868029220855982 -0.19647968719989817 -0.19639940893465938 0.18246783944508896 -0.19767297573318862 -0.19777524736540927 -0.20412874548601634 -0.19925368134117455 0.19082344944833235 0.19624635438538815 0.2013770123643213 0.19345854640454552 0.19693623481747344 -0.19055373756662017 0.19595462383549847 0.1993423390098958 -0.200289347619685 -0.2020367471631754 -0.19983612384773966 0.19426161339873363 -0.1987156004939208 -0.18976530472884423 0.19601066305075465 0.20029268468630726 0.19873861605768078 0.19626047542083427 -0.19674184616231447 0.2006085527086564 0.1981215750441098 -0.20100718169730664 0.19706489466063212 -0.20020444055680622 0.19858644272522158 -0.1990180990727831 -0.19914700392090803 0.19552444904297056 -0.19320771085796212 -0.1938422705066933 0.1983818083212859 -0.2001171723112648 0.1946302851424217 -0.19569712372790213 -0.19255977621980241 0.18324668488215867 -0.1984555034557983 -0.19499526072592607 -0.19994008457704318 0.19742217815079802 -0.20078331525316673 0.19475280433495265 -0.20065948755228957 -0.19470629752776272 0.1974387218993494 0.20084747006070622 -0.19757339972279583 0.19944249158620872 0.1943797469793824 -0.19079956047090652 0.2008745224989368 0.19527898319730078 0.1945114084029247 -0.1997831844222338 -0.19689161368077843 0.1985082960693953 -0.19129996295630514 -0.19260556411334195 -0.19887083890342072 -0.1900815040143929 0.1944481095913964 0.19388427415324314 0.19798925078803595 -0.19414851243863168 0.19632496578118613 -0.19613287426850787 0.2015172901890604 -0.19724959993702798 0.1927148244684224 0.19767501243981359 0.19594390604046613 0.1932856727390724 0.2023926724148176 -0.19589935364040315 -0.1896673911545575 -0.18729398088326932 0.19912945144193517 
CALLVALUE 0.16806283463390884 0.16760518625920773 -0.16546665999209095 0.16772974096634707 0.16455399901305653 0.1632325201894643 0.16655030399072926 0.17047409828913013 0.1687578638260588 -0.1653865687045229 0.16663379517089133 0.1684288283249922 0.16872847718693665 0.16726495615568093 -0.1636925228059919 -0.16696504658040306 0.16626852163219355 0.1526504238468391 -0.15997882975037264 -0.16510367993456526 0.16333552354266256 -0.16246792250897196 0.16581023460277763 0.16603094225884749 -0.1657010198565973 0.16872401271465903 0.16519899491112525 -0.1611894245080923 -0.16910750887064718 -0.1684967505885683 0.16542733632457834 0.16172923454846735 0.1642930446688921 0.1690163082471479 0.16319332712072995 -0.17087097331519707 -0.16783853387625286 0.16072309358591566 -0.15869005014379892 -0.16090730431335432 -0.16483137115458277 -0.16771309815459248 0.16960664314689358 -0.16558057484951483 0.16173731445804926 -0.16145770086880462 -0.1699902455518708 -0.16890705716856347 -0.17054442022556623 0.17119406183799546 0.16524993757183074 0.16899661367521554 0.15939892191323318 0.16681037086519218 0.16527368637040646 0.16189961437662298 0.1697551972335147 -0.1650883758912652 0.16692825514908424 -0.17037225123641594 0.16582280426998217 -0.16832478061041475 -0.16518631222526298 -0.16641308045835976 0.16274884177104706 0.16929859984087117 -0.16989750434042006 -0.16440374173741407 -0.16528356965039054 -0.16993972907747368 -0.15740161250376516 0.16821286434702018 0.16882597595848223 0.1669757272547909 0.16876298406308143 -0.16124809264082948 0.16465650134696092 0.16335291248461453 0.16728964756307202 -0.1676903300451779 -0.16518494302521625 -0.16937740764024156 0.16435439333891622 -0.165520000537515 0.17142816112514758 0.1612546824225631 0.16596568390393354 0.16987510323484012 0.1697250716533691 -0.16686737685895484 0.15578935867962543 0.16241394217925031 0.16374640890414108 -0.16594999140550246 -0.16554437853301043 -0.16471712258773605 -0.16700435680672546 -0.16428633687427943 0.15039920839268833 -0.16709646316473709 -0.16197281409850367 -0.1708951676094704 -0.16395360284886584 0.16186873100271817 0.16435111881117034 0.16536393082894238 0.16141084540003045 0.16529841222606595 -0.1595360853422384 0.16200815916709113 0.1638974562888458 -0.1683773028574346 -0.165575663425811 -0.1689410013521893 0.16388991083009238 -0.17020079352212927 -0.15901550087000246 0.16274134569875232 0.16485428780567898 0.16734071151008456 0.16443228734295737 -0.16565567461128106 0.1702507618650436 0.16465609860064007 -0.1693728928482615 0.1671088925467419 -0.16529308499024 0.1649324947420683 -0.1669833658646452 -0.16516399283247113 0.16529438991222892 -0.16160546556898084 -0.16060308263719486 0.16999517976524894 -0.169201760034962 0.16604385222561296 -0.1648408796837749 -0.16181317788660932 0.15572560981245553 -0.1660882618036681 -0.1606772155559266 -0.1646344449551161 0.16467347636579424 -0.16443466801552778 0.1662166222663227 -0.1668218958716568 -0.16357132831626972 0.16228421228311773 0.1687985071718175 -0.16694285127759304 0.16585741483909372 0.16316812649900395 -0.16167957644878198 0.16681324131218983 0.16285096237343813 0.16434338027874723 -0.16745373417762438 -0.16494376993124515 0.16458809997936755 -0.16180241501555004 -0.15991642143954443 -0.16991886930169386 -0.15997778818375147 0.16660496542779754 0.15931596904760822 0.16777377323293083 -0.16251103427609895 0.16549628132321081 -0.16393598873641543 0.16787799317472415 -0.1669065315137905 0.16165256239417264 0.16721002557422546 0.161136327485985 0.1595389976503867 0.17078345825008556 -0.16385115718523333 -0.16253584746122682 -0.1592865117342643 0.16597707335195439 
ISZERO 0.20752319968711838 0.20701499391974618 -0.20699239104460881 0.2051675337036038 0.2051271273749196 0.20843843478435695 0.20452020445566732 0.20918808637133832 0.20953125506864123 -0.2084336191935876 0.20686948092112553 0.20614164549239314 0.20475687920473182 0.20691896684022407 -0.20387152411137133 -0.20554942452445654 0.21018709635037258 0.19046639310991803 -0.2022300790136837 -0.20526974210384127 0.1990762395695834 -0.2035559079953597 0.20260496501604472 0.20593599331916376 -0.2041293584593378 0.20860565798753888 0.21008542793730595 -0.19737866740382773 -0.20860610157645074 -0.20552880273512705 0.20379225569029089 0.20484358401194783 0.20994056171461603 0.21106941432549195 0.2039530419984285 -0.20744491772561488 -0.20918066407348365 0.201173826853913 -0.1948800584874337 -0.1994795987847716 -0.20393653343878934 -0.20528697545663005 0.21057282886694115 -0.2043581395607017 0.20233835141579523 -0.20294905150345954 -0.20691831516268225 -0.20661401430541004 -0.20876451887711026 0.2088409534236012 0.20545456626658717 0.20993299578895863 0.19918907314935072 0.20814477710949722 0.20685238778868784 0.20309667794341896 0.20836381387591346 -0.20815020012030166 0.20578950447461744 -0.20607954907720522 0.20574652142003366 -0.20787777853708056 -0.2022227268793313 -0.2071266628278909 0.20140947666617492 0.20726148038223074 -0.2071749445851053 -0.2076423312277001 -0.2024884060430287 -0.2095941982942302 -0.1980300677413305 0.20402860420479582 0.20844531577802294 0.20262727365536787 0.20811897667139925 -0.20365346541712434 0.2031211038263627 0.20323601684511397 0.2052247200376641 -0.20732799532582608 -0.20578777560977482 -0.20835723729294536 0.2066047997603625 -0.20826022519618625 0.2094397151357542 0.19797963790219444 0.20518233985709255 0.20667237077197995 0.20891500049158868 -0.20546518664593702 0.19618560656315684 0.20648927393061084 0.2005631321478747 -0.20708973882021403 -0.20560046583279906 -0.20564737407780614 -0.20319323600323405 -0.20725641488236154 0.19162548115158393 -0.20640782649168188 -0.20549873353924392 -0.2087210615993612 -0.20623903455849824 0.19845042704079413 0.2029256937637841 0.20834318749567365 0.20262055548059096 0.20386852477924625 -0.1989985300996025 0.20284953222157698 0.20689995753542012 -0.20509361093391462 -0.20779639576138803 -0.20550297010886076 0.2014644371242927 -0.20934256907872642 -0.1981744887997823 0.20049344667421914 0.20681255970801735 0.20428743671975685 0.20490408937890223 -0.20844194172375347 0.20972620152120894 0.20347867092497807 -0.20883055099760242 0.20837098815560193 -0.20680615431831367 0.2076851547115497 -0.20679460449350726 -0.2099578047552193 0.2022203746929741 -0.19974355977294553 -0.20341399115097988 0.2106740071481797 -0.2077937148992007 0.20424447171641588 -0.2054941062808385 -0.1981920272771989 0.19355544262425595 -0.20459654486309578 -0.20077825836807373 -0.20349681658926408 0.2059874922607315 -0.2077473777253477 0.20421998916330408 -0.20555028651358612 -0.2049660034865557 0.2035658900652525 0.20816274749648123 -0.20351304819349178 0.2043084080121423 0.20289242911539246 -0.2000944961470923 0.2094135444371049 0.2064465822685911 0.2073300876673567 -0.20940610554474035 -0.20922005558933637 0.20893068526072056 -0.2009904144843726 -0.2006348944949192 -0.2074440649203486 -0.19746678559761813 0.20349130226364368 0.2001493586610458 0.2068253902689302 -0.20639679210373985 0.20457293254511513 -0.20382998679289765 0.20604471316686826 -0.2083687174485841 0.20280193584743939 0.20573299558773905 0.2030081696454113 0.19999819487295514 0.20938445823137034 -0.20151477005996768 -0.19881647531011837 -0.19891022246889978 0.2070865704806357 
PUSH2 0.2233067933485692 0.21806932807330445 -0.22213681860358211 0.2167877027912053 0.21473454613488263 0.21907855756378997 0.21884813031627198 0.22269581571937938 0.22230390130685826 -0.222071122238357 0.21726109717983716 0.2231508400348481 0.22407909565611292 0.2216579540388036 -0.21529858960117873 -0.22001326911278124 0.2245385771821524 0.20622501941423138 -0.21135616292045895 -0.22091612475268513 0.21561424852052158 -0.21378828531608515 0.21719046955931828 0.22139368143458985 -0.21794293503404086 0.22484199446369957 0.2195083169794226 -0.21367673627782544 -0.22078246473562696 -0.2188686945601022 0.21819198845009863 0.21650041065452724 0.22298062510367073 0.22034752078766723 0.21932960405670018 -0.22003546597843604 -0.2233422049492519 0.21547043345471714 -0.21132088346520347 -0.21416457668968075 -0.2157226798482555 -0.21887449318111502 0.2236544865182291 -0.22101110580717478 0.21615078381982072 -0.21844772476484975 -0.22385617373003192 -0.21845474167644913 -0.2198973101912502 0.2230161319850101 0.21833545171974963 0.21945703525574786 0.20887946729814072 0.22058621149114813 0.21986392275949795 0.21666056521370627 0.22381966820297403 -0.22289785101495727 0.22094772689160586 -0.2210544635383057 0.2179497675094291 -0.2194647834499667 -0.21966462654308538 -0.2170765760162053 0.21504781395455563 0.22138216751399542 -0.21985945386845981 -0.22015229483756368 -0.2154394476294881 -0.2195302701283013 -0.21034011140218217 0.21727342417474677 0.21989681915539872 0.22185663597171904 0.22320875961299275 -0.21514263317039342 0.21751812985738986 0.2181973377935508 0.2195047903331899 -0.22099858096832883 -0.2180282066631441 -0.22113035662700217 0.2198167540665093 -0.21980478638517267 0.22228918005593692 0.21127745679481355 0.21685742405024688 0.2202566676410642 0.22118349532163062 -0.2197251294014311 0.20738217529908856 0.2169430903654761 0.2169666229562791 -0.22156281137998002 -0.2194593203688401 -0.21987544795479094 -0.21763636521087554 -0.2186145864579861 0.2022948513171162 -0.22045857009025904 -0.21818976224034284 -0.22548106199014795 -0.22095658992025705 0.21037537415224078 0.21772480775139097 0.22236294818446575 0.2164731490648521 0.21943481290842598 -0.2105872728878479 0.22001050737540606 0.21888494718624277 -0.22091798372176652 -0.22168770275425456 -0.221856899521799 0.21507864225545212 -0.22521372154803326 -0.21610393948254408 0.21435314270285594 0.22039752889448197 0.22234122736519682 0.21866728258578672 -0.2199498655556156 0.22521869331317607 0.21493078429033835 -0.21894784633214928 0.2187990409134993 -0.22114732689287206 0.2211015081076302 -0.22179597441243618 -0.22391264094337607 0.21547256396063524 -0.21575847156082054 -0.21232420606061383 0.22466552594804717 -0.22137045580146827 0.21676175117335061 -0.22046357552060658 -0.2153788517146142 0.20521580102369366 -0.21741009699653618 -0.2131085090655224 -0.22207791978663355 0.21734855932109154 -0.21902206733539475 0.21920164049638732 -0.22234623829128272 -0.22147717225897362 0.21695254138224315 0.21943768420943777 -0.21568135377290712 0.21672105119507598 0.21469211018854567 -0.21511222665857968 0.2232860100760639 0.21979453274209942 0.22124531300018258 -0.2195077463877578 -0.2234992443971795 0.2224916278205079 -0.21196211744207222 -0.2140172413800158 -0.2226026308987262 -0.21167012444423555 0.21934802648611454 0.21241525462656935 0.22042111637615278 -0.21781479736300466 0.22081825463133134 -0.2217304801087145 0.22293245698593087 -0.22081035678670377 0.21929259816634886 0.22181006308733725 0.21815783475559655 0.21788656418181784 0.22280603912356442 -0.21419915955040933 -0.21396984639106123 -0.21176799862120224 0.21956358286542865 
JUMPI 0.20391416220008757 0.2000165126345961 -0.20425209921164303 0.19903445978788184 0.1993754682696255 0.2031757449718558 0.1996043305254108 0.20324155386543596 0.2038008676324271 -0.2005667443125702 0.20026418752682032 0.20276501146853437 0.20147951965281266 0.20025296379361973 -0.1983315123153472 -0.2016148110285654 0.20500046761174262 0.18730328313033998 -0.1952576679664124 -0.2013241657142806 0.19732139955176134 -0.20004362577269363 0.20188161255832685 0.2005047607460404 -0.19821788730339512 0.2046174205909865 0.20305103986591716 -0.19467534569470762 -0.20040034662424722 -0.20013154508327327 0.2000813953981067 0.19691250571683203 0.2037295880934777 0.20714412524269307 0.19846046866116937 -0.20273809186764585 -0.2045542276013446 0.19962548596436105 -0.19206288888735457 -0.19632953980787604 -0.19973150045986715 -0.19877992519612453 0.20484197573483098 -0.20479124270263083 0.19538469997248475 -0.2014060432689626 -0.20549467019190776 -0.20343520838122844 -0.20266677785224618 0.207240498424934 0.19882253759513932 0.20111079773876073 0.1952023022367764 0.20209567496126132 0.2031316132321395 0.19687867139905935 0.2048561453023926 -0.20108679773503307 0.20573516043633422 -0.2043754291909995 0.20169714922698234 -0.20220790791909615 -0.19889479839501095 -0.20209976530162413 0.19886807211723048 0.20618731020171197 -0.20524315182249314 -0.20298899039108684 -0.2007722920804125 -0.20405762660026058 -0.1963492144139663 0.20311478671003144 0.20388553734429912 0.1992257277799923 0.20395770801071597 -0.1957903728448464 0.20256468439359807 0.1960109010445991 0.201801298051803 -0.20398130929938482 -0.2023159105175956 -0.20618956624705326 0.2003425061066514 -0.20278813234635082 0.20561476883216884 0.19636763597081316 0.19714775608828358 0.20040673921875685 0.20318185052913945 -0.2001708378586445 0.18873815289674498 0.20100925544492956 0.19858633263435838 -0.20305101279417834 -0.2006577346821736 -0.20064363340507474 -0.2024146153624673 -0.20172154578415383 0.1880281454186525 -0.20082578961554426 -0.19933679519677502 -0.20695746521541727 -0.20154242604462413 0.19245801237180474 0.19943712565612046 0.205626104008427 0.20085418672905633 0.2022586574330547 -0.1933731316590607 0.20013042741497297 0.19989363963920206 -0.20394915787077889 -0.20589880528758447 -0.2037962833331428 0.19596266943531035 -0.2026132728782218 -0.19344904053149553 0.19887333021268375 0.20211894815824105 0.19937203621738436 0.20044451523366583 -0.20164010122379988 0.2014986824548079 0.20086003547777795 -0.20466895610599312 0.20303378748779152 -0.20375093077074327 0.20300534885380492 -0.2045459926507798 -0.20511178730022517 0.1978016602249848 -0.19568497119676673 -0.19873639091497897 0.20173027705994706 -0.20199192052834164 0.19966551167500554 -0.20324505243726732 -0.198289584199392 0.1882824274022901 -0.20255604034500194 -0.19809795256786283 -0.20050424600965536 0.1993378003081899 -0.20026624699909923 0.2021110425288366 -0.20518856854706136 -0.2014807844910162 0.19886788272753508 0.2046086760770295 -0.20099651956535286 0.2007217290187617 0.2009532811815619 -0.19712552468352673 0.20111298345131187 0.20082392188993511 0.1995633167469373 -0.20106772631133335 -0.2022953313644811 0.2034885201244142 -0.19607686797328736 -0.1937017748825812 -0.20234295875525066 -0.19296977376636323 0.2046722453076158 0.19513185392635102 0.20381744753180564 -0.19803717736370094 0.20188370595951968 -0.2009802466301497 0.20339352183521137 -0.20439861226986067 0.20073175961071613 0.2027477227128252 0.1956350335387389 0.1974492283839482 0.20397448484262826 -0.19892953596794108 -0.19547072720317674 -0.19411191897950034 0.2026188778754567 
REVERT 0.1782002028062508 0.17761241239630982 -0.17326566114256972 0.17687456593842352 0.17302527023495307 0.17465050311057193 0.17745977398298526 0.17669366734867856 0.17575183599596125 -0.17531020680206033 0.17332770295992106 0.17848503596151818 0.17892876947930184 0.1795586164497587 -0.17560675415938493 -0.1732533591579623 0.1795912566403571 0.15981834573303325 -0.16738213537989652 -0.17594319701196612 0.1685369850471471 -0.1716032594190036 0.17225193342443001 0.17619346829565657 -0.17395234115932864 0.18065663628844222 0.17995102733929957 -0.16750413250332366 -0.1752370823771211 -0.1728225877978438 0.17438732469238966 0.17491577242792045 0.17695085421408727 0.1798159666427346 0.1756752287029808 -0.1798489570328057 -0.1785994073333287 0.17166953242191776 -0.1667341035098335 -0.17128917691311685 -0.17116651581951373 -0.1757613275490081 0.1768611233296617 -0.17636222100174753 0.17149032615442553 -0.1718882004678163 -0.17785138159686717 -0.1789154085779278 -0.17867833860866708 0.18127794566514535 0.17480123078894239 0.17780877139988538 0.1639344981954345 0.17533564687948067 0.1733957400362662 0.17174963925651904 0.17821401283981847 -0.17460485022894265 0.17853932403554104 -0.17835811306601454 0.1757354126533256 -0.17459361239798624 -0.17338172103617025 -0.17441559412008675 0.1697746078497169 0.17664698476396062 -0.17710046530453707 -0.17474782743967862 -0.17526707046725917 -0.17728670722389647 -0.17034734816257097 0.1750260324123645 0.17686844847405064 0.17605880094627743 0.17820494481679677 -0.1736192477089718 0.1738475415475881 0.1701607699993734 0.17583188198974156 -0.17827879662003146 -0.17480615539106734 -0.17565860737657407 0.17521798020942436 -0.1773737031750232 0.1804557747031378 0.1703954934216171 0.17478505625655752 0.17832716674312662 0.18006549753853346 -0.17564135122407604 0.16408461008451286 0.17537936395903406 0.17115018840489754 -0.1762749671014416 -0.1732180633198136 -0.17584997469944816 -0.17675618702084284 -0.17225629864419187 0.16233556312783556 -0.17767815549265395 -0.1725228147783617 -0.17831302906751573 -0.17496245629413193 0.16948291724045508 0.1708438066126495 0.17774890053242143 0.17270356635430703 0.1754528186791415 -0.1693250507203514 0.17442563531618366 0.17518814750074582 -0.18031134937260632 -0.17715544870783745 -0.17904799404781044 0.1722862098778679 -0.1783941292586296 -0.17053632790727194 0.17216094190041983 0.17518737862231343 0.17459470349449438 0.17532561008265646 -0.1731254930437135 0.1804748542777345 0.17298008548954266 -0.17818578928503176 0.17585774973689805 -0.17726297304743807 0.17382060393457263 -0.17636907320541673 -0.17510555624608123 0.17360264287239907 -0.17382063625274727 -0.17227259030175862 0.18058062063178917 -0.17584415790249228 0.17680530969363473 -0.17297679051416093 -0.1688708642658694 0.16525674539584523 -0.17515110051131744 -0.17018154022155907 -0.17722123124551542 0.17330325316513512 -0.17583450299119457 0.17473410459339642 -0.17709669776731843 -0.17740192613682076 0.17544675317525102 0.17699863124717238 -0.17287040141417626 0.17489650413420604 0.17456537309998982 -0.1717196586476131 0.18019939712914668 0.17498674393083805 0.17226956895216458 -0.17828666674146648 -0.17927651723788524 0.17728794680497253 -0.1685711609672339 -0.17065156035442913 -0.17567494542464623 -0.1705495967269218 0.17865647182590513 0.16950244913488077 0.17548957177562588 -0.17612968035458396 0.17690985581331445 -0.1751423714919947 0.17771583874210864 -0.176258247147579 0.17292653221341148 0.17642918529510254 0.17401114720339958 0.17033474340593388 0.17855241243445116 -0.17281351012292612 -0.17203005563921156 -0.16652017817998654 0.17875910799044478 
JUMPDEST 0.21142213174805763 0.2148126916731681 -0.2136284904584643 0.21010789781326378 0.209319355241282 0.2124128287965598 0.211593278220668 0.2150738778729848 0.21382364732012085 -0.21244367591978483 0.20888677494616667 0.21435902860982914 0.21332026590048658 0.21510289758021398 -0.21113642320475348 -0.21071830933637412 0.2145179275116817 0.1955375117063495 -0.20429895688585847 -0.21334808526298774 0.20675042542939828 -0.2100683543711519 0.21210377536963895 0.21166493083890053 -0.20831335147381277 0.21658911363806685 0.2164137043518114 -0.2071326388165126 -0.2128943372796697 -0.2101018677522869 0.2103217996232126 0.21039870710125338 0.21386231056199148 0.21345483225744807 0.20977145985518114 -0.21650552395350384 -0.21273713292058263 0.20449428334105504 -0.20203330315234938 -0.20578208329621286 -0.21059402971685265 -0.21214689941212986 0.21681294537026752 -0.21048184339671216 0.2062976839132006 -0.21071288223837317 -0.21430940338826907 -0.21545396120304713 -0.21429597214208507 0.21712163967966028 0.20688064941706882 0.21509858297731746 0.20317994193180858 0.2144808200156969 0.21194390161574042 0.20981899561188055 0.21197180129450144 -0.21414022211478007 0.21528224161056655 -0.21526167094690757 0.20911464372607788 -0.212772814783969 -0.20874488528490232 -0.20800557608512113 0.20382709749285774 0.21552149541828827 -0.21386945708262414 -0.21325080498410637 -0.20980482964715588 -0.21239684663586147 -0.20264361019628488 0.21279573263474413 0.21286974669645417 0.21138130445057454 0.21631887366053373 -0.20875075413959548 0.2128921630647248 0.20773819624652845 0.21555945528512124 -0.21050532105092976 -0.21038527096787032 -0.2137359857689343 0.21495202185779363 -0.2139296057414184 0.21305016793671347 0.2065774364922484 0.209873803427026 0.21521197328136593 0.21475417110828535 -0.21041140666582894 0.20205759866670966 0.21311436907351147 0.20662529214337894 -0.2153204470163 -0.21317202994453133 -0.2109028754743821 -0.21457117005994122 -0.20882650973342337 0.19703075941712622 -0.21529551545024925 -0.2080081371232847 -0.21365377369446661 -0.21151402579251613 0.20647976674832 0.21092942365445308 0.21349079105812324 0.20897731543219447 0.21072660681655161 -0.2039873593389852 0.20781416793634225 0.2098104882926185 -0.21386606245249473 -0.2127646763115017 -0.21472932869303024 0.20640649006943892 -0.2137489899420116 -0.20700398986791213 0.20909160641506314 0.21255310433239002 0.21210720336728367 0.21370176176916555 -0.2141161219535405 0.2148103734882959 0.2073342916306869 -0.21473278171556487 0.21201603596508467 -0.21568115339700547 0.20950348240012628 -0.21217576365210522 -0.21393187981949863 0.2051887671769165 -0.2098447995360477 -0.20438938617407512 0.21390527057784928 -0.21283816119961008 0.211733874611463 -0.21073383512302715 -0.20820439480654976 0.19656982806927317 -0.21074600024125212 -0.20914646445444024 -0.21035002085396362 0.2106297690173083 -0.21438883864887956 0.2100475839072888 -0.21210144282683124 -0.20995480622787024 0.2088236717942523 0.21452998733564219 -0.20786666918448188 0.2115302397693694 0.20939216987756562 -0.20575076054413965 0.21524362596860258 0.21108545846747848 0.21079050393401472 -0.21425370082682293 -0.21492174889835372 0.2157967534561778 -0.20562915311761867 -0.20483616373062238 -0.215391636198338 -0.20515213244803382 0.21260788071307798 0.20545619587538436 0.21069720651459192 -0.20929554128886088 0.20848756837859764 -0.21193518038397552 0.2130980662560792 -0.215710792562703 0.20759105922812854 0.21142723694087326 0.20765848294550046 0.20803892123082676 0.21635539442746562 -0.20626498180734046 -0.20937121418775512 -0.20638447691050202 0.21496119971938885 
CODECOPY 0.13607039420229886 0.13499522241474107 -0.13070021507973237 0.1305380403248874 0.1319830129372935 0.1331417515250138 0.1355692927684121 0.13452859717596044 0.13436333176262533 -0.13438459341150172 0.13114824069414718 0.13509588466809583 0.13573166709160026 0.13674850297005006 -0.12982110556796778 -0.13123537944290706 0.1359695816274256 0.12381697266926722 -0.12824069305010113 -0.13368576627190223 0.12869306223874769 -0.13370754913870875 0.1338278664874357 0.1331214533712911 -0.13339499139003635 0.13555738689605054 0.13648796439099878 -0.12956961456272084 -0.1353589999210567 -0.13415365876087618 0.1334812374268115 0.1307987923784757 0.13530836997875695 0.13611593910155897 0.1310301368141708 -0.13702863796938092 -0.13531890036609812 0.12922546913634297 -0.1262389770079315 -0.12905070370721147 -0.13343471673028054 -0.1343540101529032 0.13473010547943767 -0.13214784959346457 0.1309714230053758 -0.1331071426215827 -0.13592825186264418 -0.1332951173930229 -0.13699166129197946 0.1362675592124889 0.13105404275874402 0.1371571933465941 0.12282420199438689 0.13508316507976506 0.13457531275021375 0.1337891762903334 0.13595135447758167 -0.13392542689675294 0.1348557646434292 -0.13362302519924302 0.13110136934359734 -0.13441517450906681 -0.13127776689276793 -0.13019984370231574 0.12683627746930307 0.13312604735013303 -0.13491344444503542 -0.134877682199995 -0.13068925797238473 -0.13233029436020363 -0.12715727929138676 0.1345418519332242 0.13206231011034686 0.13463926746886618 0.13726091980114866 -0.12858537500234343 0.13301021388025389 0.13015324002089051 0.13093175089155706 -0.13594278212833413 -0.13207265158019207 -0.1357419034190698 0.13379401917063025 -0.13218921950752643 0.13589320164896423 0.1306360341997196 0.13217190255755518 0.13327228129729127 0.13673435814629373 -0.13490402190610512 0.12272975902918769 0.13314032062632458 0.12967649123011094 -0.13569792057003766 -0.1307233221315001 -0.1343949492571415 -0.13409162792990373 -0.13250758000308613 0.11958605432059372 -0.13554994035384624 -0.12990449602714377 -0.1344804137276758 -0.133026438624697 0.12911045765937842 0.13092943564753132 0.13755514434136157 0.12970185279959845 0.13164357061518422 -0.12467351610916952 0.1329912743852203 0.13386803280413842 -0.13548197144213298 -0.1331836116434229 -0.1362848240623486 0.13157535118059746 -0.13720886558848436 -0.12836594934463233 0.12876408616917814 0.13515949606755265 0.13552031203065196 0.13442136619552644 -0.13212213586319232 0.13725278934620203 0.13021451956762858 -0.13455823970475028 0.13111713943891687 -0.13470599753044257 0.13377173301639647 -0.1357047757116478 -0.13705205810830154 0.12918323044739424 -0.13399758935460981 -0.12981630448014247 0.1361464409548234 -0.1337092542241874 0.1341032626536984 -0.13417727343837194 -0.13103210931120843 0.12145306503875697 -0.1334154635175192 -0.13157030159549177 -0.13556800569030755 0.12962759304499738 -0.13540009890313684 0.13324166924648465 -0.13187393907647152 -0.13016275353027193 0.12890176387139868 0.13310483017429575 -0.13480067223606776 0.13464989977810987 0.1326728736686265 -0.1316587256691804 0.13250680179944171 0.13324475124564708 0.13303829060999067 -0.13248022034753687 -0.13414956184945195 0.13564647384084424 -0.13009850178064664 -0.12915564681811298 -0.13207339546932956 -0.1289587712205369 0.13355860535143785 0.129125712880803 0.13283255244302114 -0.13348726832412525 0.1321561758143893 -0.13456141418762393 0.13477310049663255 -0.13702362172047075 0.1310630346313202 0.13332112014023134 0.13354769772724004 0.1289560543247966 0.13732295208456582 -0.130230434495747 -0.12765534357151956 -0.1271209597522182 0.13380226393912723 
RETURN 0.1488917589402717 0.14727056834174848 -0.1482237004995745 0.14793486218264984 0.14620465878248054 0.14904777851563475 0.14832928914723045 0.1506323596421128 0.14880608263896267 -0.14797003217833352 0.14831221509018608 0.15065099406457616 0.15117369188376076 0.14798714408771363 -0.14485239464287458 -0.14845449816788234 0.14773765125923205 0.137373740837575 -0.1430517939596236 -0.14986229645492194 0.14346022397825542 -0.1489178851246173 0.14952271477337695 0.14755650986423494 -0.14726012130335198 0.1527059487241125 0.14751929033441097 -0.14461805425558238 -0.1491782782465933 -0.14934777850462344 0.14971130720907372 0.14507670622362825 0.14813042927840173 0.14903286672493365 0.14544976672446003 -0.15018562867091365 -0.1491571058513934 0.1433911672581758 -0.14118934963401344 -0.14158866843012874 -0.1491061103988956 -0.14626748289845226 0.15050418734284074 -0.14766798506125772 0.14666256965619193 -0.1447619126973561 -0.15087136464887332 -0.14771477086871107 -0.14832567917720318 0.14895461316115785 0.14759637639630635 0.14758293228683064 0.14188022535048422 0.1496005646228497 0.1468112935859733 0.14481069900388996 0.15122806191313581 -0.14956436446112206 0.1480479047140135 -0.14989072399576844 0.14810445883530918 -0.15201877773062047 -0.14754603977132746 -0.14895656014071423 0.1462006063219472 0.15151973341628455 -0.14793479627121303 -0.14987896934237466 -0.14429129723989162 -0.14993816217178985 -0.1432632062731793 0.1480453878873851 0.1477241461896494 0.1507932302162503 0.15039117659166887 -0.14675976612434585 0.14905004351111054 0.14339363928612972 0.15037176569803798 -0.14924115194077572 -0.14929331201228932 -0.14748114898297926 0.1504505399365142 -0.14802017816591512 0.15221700410159875 0.14180503791418006 0.14892359310810438 0.14636336696573946 0.15051073929029826 -0.14880783879282167 0.13772298751573842 0.14518486844911896 0.14661979921222615 -0.15165373618056163 -0.14880887600490048 -0.14969738428252 -0.14877130950236395 -0.1493794428584944 0.13867665177690752 -0.14984682855395287 -0.1475953720149592 -0.15087102664168775 -0.14640875301453446 0.1432301071905128 0.14667067737906453 0.1520012764048437 0.14343892707940814 0.14661934516459796 -0.1429979735870536 0.1481050783118146 0.14768373433148402 -0.14867264913388611 -0.15210098959940918 -0.15031366212356262 0.14703470566224347 -0.15258465032620624 -0.14265163267254619 0.1443491134360612 0.14784773725995468 0.14986568345769213 0.14612996780049003 -0.15035807348645336 0.1516859226796538 0.14748117963770416 -0.14802699613964695 0.15064056578164306 -0.14871894419090703 0.150142430192154 -0.14883810015332063 -0.15178531510544796 0.14512182657805486 -0.14734204831302603 -0.14499450425036658 0.1510690911436936 -0.14736469448827075 0.14462465982949596 -0.14475376244430485 -0.14623573136656068 0.1371543631173698 -0.14533921605065048 -0.14550296835869694 -0.14928055019481037 0.14855744332998322 -0.14976276960747179 0.14618099277423727 -0.1481493856341558 -0.14835621949740405 0.14378683452097252 0.14900415459981378 -0.14644856916113 0.1461238782876036 0.14815015202171875 -0.14361551630257252 0.148454720599152 0.1450149513153848 0.14891551581793874 -0.14751157595114803 -0.14926629169817318 0.14763077462975085 -0.14485685225322864 -0.1465990523635496 -0.1476741073187684 -0.14351049777980346 0.1477716445003144 0.1459732494203378 0.14791549694929396 -0.14623646580166355 0.14721041420603212 -0.14690291532202204 0.14958432732473598 -0.15208850159443796 0.14342490948930112 0.1488279193938209 0.14462114115575658 0.14338528366168524 0.15136182735029877 -0.14431505714373388 -0.1450623376875153 -0.1442258440344455 0.14757163215361307 
STOP 0.195919121637376 0.19167558484863836 -0.1943472073891131 0.19345104837747065 0.19171200944036845 0.19559682719618005 0.19414786680644344 0.19765727602128505 0.1934929655588758 -0.1889356160879889 0.1888416654300611 0.19673756035447554 0.19115317149356167 0.19487973965857142 -0.1918606154682265 -0.19285583728630504 0.19250247374828205 0.180814346452027 -0.18767198387069814 -0.1911529153743236 0.18654595105486987 -0.1923767087851365 0.19124200870943123 0.1935848702797579 -0.1914731709586412 0.1977021831818844 0.19226982942782994 -0.18662010779110483 -0.19381630929410348 -0.190676861065362 0.1934568996627788 0.18900132486669693 0.19532010286566495 0.19757499888135124 0.18925583588460015 -0.19642880893520967 -0.19529876674622054 0.1879236472736452 -0.18188231992900558 -0.1889469404695359 -0.18811004903599302 -0.19004328654752317 0.19815659831395172 -0.19180956483322376 0.18680347795357718 -0.1912981390315643 -0.19323865535505444 -0.1952073969105114 -0.19305070579140354 0.19828495420222142 0.18848457175442535 0.19258013006579078 0.18424380560215337 0.19505646076116312 0.18897892551513618 0.18973123224204885 0.19469296904639974 -0.19394575822950208 0.19665294533190475 -0.1968942510398386 0.18884393486985684 -0.1977712535708882 -0.19041557151423877 -0.19136775305031425 0.1860958198492622 0.19537121907504817 -0.19466995883062657 -0.19206910589721324 -0.1913936373478216 -0.19460878649535848 -0.1825021779499488 0.1905693347197639 0.19522322445189946 0.19367539867130634 0.1964893617183699 -0.18831589082196853 0.1934759545953708 0.188100607250141 0.19193818360724577 -0.19325515495089116 -0.19131712770087558 -0.19627661894339668 0.19193907434423663 -0.19292022422595156 0.1946945356330728 0.18963057128739308 0.1906040451224083 0.19594202575400302 0.1963636571447035 -0.19207532615384637 0.18084507330267335 0.19032027685239458 0.1872530246280879 -0.1946851843983677 -0.1915064362019901 -0.19517917334972926 -0.19166332613287593 -0.1949071865829115 0.18054856573290165 -0.19313725267739804 -0.19069371768006382 -0.19811237092828987 -0.1901064467802452 0.19053325112463532 0.18820590591688463 0.1947869448612187 0.18930469690757679 0.1903258125969506 -0.18285691621793979 0.19031149551117346 0.19154569976075736 -0.1946046561401522 -0.19558978897483453 -0.192441253020985 0.1874284564904802 -0.19444857017399164 -0.18915992116275843 0.18696075579665888 0.19157278994817487 0.19379920401105077 0.1915234129933212 -0.19552354169540387 0.19593438428057341 0.19189852800370558 -0.19511764581752206 0.1954565333045334 -0.19507930812499868 0.19088050775591345 -0.19458886849156778 -0.19496984424902922 0.1898895791688321 -0.1890950512099186 -0.19006383689716724 0.19468883264610065 -0.19185372182226845 0.19042326452092787 -0.1896365893834144 -0.1860790559896033 0.17709250018533007 -0.19003501527707092 -0.19037951664439262 -0.19413925894192813 0.1880504377662802 -0.1914337464016582 0.19237202515014923 -0.19024964332126496 -0.19339091544788567 0.18692384164065173 0.19600851385549156 -0.19193509377451545 0.1911206974835862 0.1902459186704031 -0.18661739609957187 0.1911847067431788 0.19358220368859658 0.1916953067805945 -0.19031922047011351 -0.19352151306349685 0.19578010664273757 -0.18613569964750543 -0.1875654837853568 -0.1924966261943752 -0.18648919910511527 0.19545996365659496 0.18709036059229134 0.18845935214660037 -0.19138255570513366 0.19049267039075546 -0.19405349265291608 0.19276812245837416 -0.19660809424569403 0.19094718608352168 0.1918670514466618 0.1884515576289931 0.18758770575485156 0.19753447410219127 -0.19077299039943008 -0.1875047316316259 -0.18954330174754097 0.19555530838668797 
CALLDATASIZE 0.1259240708775368 0.13027304310104454 -0.1296638939206175 0.12569698446182787 0.12694882829132006 0.13034701476340055 0.12722148488380525 0.13263363924231922 0.12887759472913474 -0.12890006887018873 0.12788562697187336 0.12969656525631207 0.12910334766275347 0.13124627294163543 -0.12586118295298412 -0.1288394082277903 0.1328353013187173 0.11845523784334046 -0.1263166978962811 -0.1299787560566761 0.12588759549731507 -0.12405150481013848 0.1262349349981351 0.1304759143645875 -0.12820409186322085 0.13049003930342554 0.12715572252319038 -0.12225244480393808 -0.13049400641981218 -0.12635340809251802 0.12794147475470252 0.12822992931893532 0.13148380129029008 0.13273203306675052 0.12875177376036723 -0.1279407506075457 -0.1304752049830822 0.1241222495389453 -0.12356262329518804 -0.1252615956774503 -0.1254477612789634 -0.12639063003836595 0.1312766678237277 -0.13094286248284154 0.12323661646866854 -0.12621485262550453 -0.12914737407913243 -0.13160073249300164 -0.1295758562728326 0.1334218753526314 0.12633854188337054 0.12981810989364223 0.11820446311001472 0.12770621718500497 0.12817790176551108 0.12553715643281796 0.1299552002233482 -0.12858752516155256 0.1317018988788213 -0.12957486299171947 0.12939332409239113 -0.13146753507507128 -0.12548568893148365 -0.12770662968449623 0.12275976992253113 0.1298651380042561 -0.13134354956449096 -0.12819202104467414 -0.12998741811878725 -0.13145980373701338 -0.1199907649080857 0.1303309786164115 0.1311200994959993 0.12762994285832854 0.1287963549357308 -0.12595091576471057 0.12875111809884224 0.12775479950594562 0.12666873173200804 -0.13051658643395994 -0.1281115829616095 -0.1300795909671773 0.12556491809791762 -0.13019186924650888 0.13045450302951675 0.12214418018365487 0.1258376480422713 0.132361303299434 0.1319347239872173 -0.1286075216333266 0.11708961210926701 0.1275032884012106 0.12405481138916183 -0.12888529547237018 -0.12892545577230494 -0.12938846029708687 -0.1306490117195836 -0.13057302197679668 0.11538017248449049 -0.1303379594670722 -0.13002449211327188 -0.13172345256581702 -0.1298632087245622 0.1217213337553373 0.12481896024884105 0.13079789224069577 0.12600347090333686 0.12746636349300225 -0.1205732531204576 0.12883408191531795 0.12865692314606003 -0.12757667689044408 -0.12852236975518652 -0.12821294885008577 0.12376699348382295 -0.12961013509799418 -0.1241683817612776 0.1258868598673199 0.12723839244033228 0.1294890304821136 0.13059623158687286 -0.12844850624038037 0.12943991259689397 0.12713214798796546 -0.13123732246258474 0.12689719779580555 -0.12854050150172508 0.1260644901233923 -0.1308490676689022 -0.1297654888076581 0.12523807662303799 -0.12752943229340238 -0.12329427434063572 0.1328359172977638 -0.1271550940919013 0.1297364521113151 -0.12684584977463909 -0.1231072237984661 0.11791769227660982 -0.1295145841068146 -0.12361610511564738 -0.1297073572038571 0.12866179757092572 -0.13006089881850327 0.12863057811376338 -0.13153089842600252 -0.12679223980212959 0.1294362173880325 0.13286208418591514 -0.12457653795969707 0.12893546309216125 0.12869055373308658 -0.12306748045850223 0.1282494089045364 0.12654990179311815 0.12792221668298842 -0.1303442333951849 -0.13003551969897528 0.12771986094859838 -0.12384647275008402 -0.12616701939910874 -0.13046715722775085 -0.12240062655663912 0.1295813500400311 0.12349506886059902 0.13033847437681298 -0.12547772131700888 0.1278078067942558 -0.1263300924048703 0.13115704241094214 -0.12781024525460474 0.12754032542580013 0.128702898580135 0.12724353027494986 0.12492535872303043 0.12822298535706866 -0.12395831579778642 -0.1228208970322152 -0.12047384050258052 0.12992833642756296 
CALLDATALOAD 0.16376993282832908 0.16090254039625076 -0.1642928719302203 0.16275330332898733 0.16074153359760948 0.16308749033596956 0.16166989448849595 0.16408669300480985 0.16284212263211295 -0.1634162856351947 0.16253199414183966 0.1617841034462131 0.1659458763627239 0.16573577533118702 -0.15878444660246133 -0.16216346160895337 0.16567578920577417 0.15052416382576772 -0.16017257518468436 -0.16315511743871364 0.15683036246850385 -0.15781189729816777 0.15914198975082056 0.16535076328607282 -0.15951734795120362 0.16415119445863335 0.16239077352752831 -0.15580935172741364 -0.16420636681460632 -0.16409137443403485 0.16436093667635412 0.15834744539642362 0.16587247192538457 0.16265336575441786 0.16055489508158555 -0.1671547630116441 -0.16258337682218826 0.16098418118280028 -0.15369956552088296 -0.16068014996249644 -0.15736881193754157 -0.16351408596948835 0.16784329243377238 -0.16148074606205556 0.1609686835814568 -0.15945438976126097 -0.16288893294090534 -0.16357052454243298 -0.1662502803420042 0.16879749650234768 0.1622609210961428 0.1672826496830998 0.15255336701139433 0.16225391715519114 0.16190196763775008 0.1590374350874497 0.16314456098008107 -0.1645141840082536 0.16425747749207462 -0.16656255449500945 0.1597023009941729 -0.16685858903062192 -0.15975515597029638 -0.16371438365796198 0.159464766400121 0.16658575274477003 -0.16504522266944724 -0.16591506282617752 -0.16396312651722422 -0.1661589883637015 -0.15360059207849203 0.16171616628978588 0.16470208029567462 0.16103178967720458 0.16493242388256837 -0.15954551828731123 0.16180175318457013 0.16229984921057153 0.16344988661285792 -0.1622563834376402 -0.16246222015516543 -0.16255448844556825 0.16442878961620916 -0.16146186113681488 0.16776359861819554 0.15650890288818295 0.16011380817336085 0.1641386009364508 0.16300418623688423 -0.16495166972503916 0.14976180990254429 0.16268675778525743 0.16055974724676594 -0.1637342673465368 -0.16069448119469218 -0.16153777246200504 -0.16570342924916873 -0.16406476214914364 0.14480794761669244 -0.16446005705977912 -0.16429286493410025 -0.165526281297833 -0.16486298046492007 0.153292120238887 0.1582985984089618 0.16739004409517105 0.16089578432715737 0.162625513445434 -0.1574515716750856 0.15887062857931428 0.16513196142854902 -0.16688089067162257 -0.16365239268454335 -0.16494804430920437 0.1579710485921549 -0.1636552409652683 -0.15676344816551951 0.15833356935914347 0.16133773791654962 0.16263501693390817 0.1651653380657361 -0.1608688431285236 0.16747151026351811 0.15940137779581143 -0.16593986166613983 0.16100759419981123 -0.16231800969597826 0.16397823911095008 -0.16402534977056682 -0.16385555052588865 0.16055884583367155 -0.15741112272378266 -0.15624330657137508 0.16568772270436277 -0.1652451301742363 0.1640578191017268 -0.16306835839612402 -0.1554291927497146 0.14855007433763884 -0.16111240828857243 -0.15585852105256992 -0.16276422328783968 0.1601254427722437 -0.1624874322992167 0.16245732855487008 -0.16667423644326637 -0.16371363959257584 0.16224725999366055 0.16403954633420026 -0.1592430097247113 0.16214749473378345 0.158580106474456 -0.16086684680196336 0.16238291146197026 0.16135076092059017 0.1604567939274471 -0.16523060758060445 -0.1656327413411271 0.16099178565472352 -0.15915640918663218 -0.16015429067222892 -0.16150353282381136 -0.1554044650091179 0.1648700300796905 0.15949097082879674 0.160897146528847 -0.1624523676907179 0.16426502172407836 -0.16444103626860607 0.1665340111630463 -0.16525626074215083 0.15974379879582495 0.16470365108077603 0.1613507104842357 0.15848725982540934 0.16350379059786302 -0.16206090050332653 -0.1599184702962807 -0.15382943955360812 0.16519956953530673 
PUSH29 0.14112387448924948 0.14371076494087334 -0.14481129852178312 0.14084696339314057 0.14332821911392526 0.14314852612702117 0.14082436279406732 0.14374615607286395 0.14536176640777754 -0.14177689245034641 0.14362445295291737 0.14690742344195185 0.14596190516503846 0.14456035675900208 -0.14389261199015033 -0.14436636278887002 0.14518125786667369 0.13130632767036712 -0.14164333187533065 -0.14448427826265564 0.1394194728466518 -0.13808064368074333 0.14430866166339493 0.1439262835763863 -0.1403555177962437 0.14397834324348155 0.14225983875692896 -0.1380444014312458 -0.14608248923337538 -0.14472094241203765 0.14495972077170868 0.14077987079480672 0.14620879612412285 0.14761739319189085 0.14110996533136122 -0.14435403553872564 -0.14371790583504548 0.14237357110715124 -0.13869193946369116 -0.13779850707626387 -0.13785352317622054 -0.14084300546632877 0.14543989956508835 -0.14417424938367374 0.13868028882256908 -0.1431557014127574 -0.14657005432879408 -0.14516035588328724 -0.14451744534419733 0.14753694686600807 0.1384194804152751 0.14618312609506645 0.13556839762789363 0.14278468078972942 0.14081799048524674 0.13979388492401648 0.14615489318964867 -0.14608415307978626 0.1463616913547557 -0.14194971486464275 0.14148129265443887 -0.1447723323987663 -0.14176452929356467 -0.14315747479511642 0.13901569685067702 0.14545214843956222 -0.14424917909826523 -0.14306759530542945 -0.1448281967397578 -0.14205856359292332 -0.1355517745078513 0.14379183231200196 0.1451493695635697 0.14551713178616965 0.1430885939726005 -0.1397912420981591 0.1437348634730321 0.13979334059771126 0.14562027319978169 -0.14578541211347817 -0.1423163888692857 -0.14418577250567938 0.13992463872202335 -0.14433424435195627 0.14546191547278373 0.13860926735664256 0.1423315934361208 0.1449219801818239 0.14551690985667554 -0.14428171287532654 0.1316336028771272 0.14361518766177564 0.14080947963759166 -0.142845725728694 -0.14124422504009468 -0.14051316367263034 -0.1447003398580539 -0.1447891790675471 0.12819967902244547 -0.1450153788880763 -0.1444588927399863 -0.1479653410439352 -0.1457194328900175 0.13565578601474684 0.14038029702283622 0.1452632505874871 0.14023719534892837 0.14278806120708282 -0.1353335909274218 0.1434248402283162 0.1442052235282073 -0.1449851793168979 -0.14635567475934338 -0.14323470000701927 0.13861231982960465 -0.14389307055206824 -0.13705562569428004 0.14112223013892752 0.14514157754551874 0.1409128164809931 0.14511163133357846 -0.1425343132834578 0.14442302185894457 0.143853467096879 -0.14545971614720735 0.14189151193962787 -0.14383369891416498 0.14450648201734018 -0.1466566986144525 -0.14173180627915286 0.14030900724164358 -0.13765297620558162 -0.13724087946595334 0.14401620488233427 -0.14606562586902602 0.14063925578204925 -0.14210752246495972 -0.13636545685866205 0.13193208204491985 -0.14491189213641154 -0.1401327295449345 -0.14374240539311042 0.14085511504843906 -0.14256305137264985 0.14207425767589954 -0.14648201417490472 -0.1459590161118396 0.1439290148028056 0.1450314509063987 -0.14141278893083473 0.14181737472265515 0.13957370228573998 -0.13769411862149541 0.14190623436081637 0.14365074472368033 0.14060086608469127 -0.14403744672098476 -0.14508063696902232 0.14155508781587656 -0.13748472619854443 -0.1413003178824359 -0.14186583612248202 -0.13538615749192182 0.14566868640925126 0.13753324764392388 0.14302056209103173 -0.14086071923196025 0.14580953738146163 -0.14458991684121672 0.14416973676888142 -0.14338334381031256 0.13949440141822417 0.1423227353796327 0.13949663392358724 0.14221516200432752 0.14639658912866477 -0.14036978812544804 -0.1373100736888267 -0.135041325058607 0.14133944676770538 
DIV 0.18055615141476655 0.17828104978968073 -0.18094833609244332 0.17879521406485796 0.17620826917690538 0.1775471303362327 0.18088180743181162 0.1812016474383449 0.17971124301499172 -0.18108451763481762 0.17754451962182888 0.1822870863197899 0.18273190093478445 0.18329982416647786 -0.1766768743594793 -0.17865408198219965 0.18214809790924463 0.1711818563998892 -0.17743211416225502 -0.1773275591517257 0.17683619058598385 -0.17645684149341087 0.1776718545203999 0.1812609199241174 -0.17591711715676123 0.18337340998369278 0.18028098666396028 -0.1745039521137518 -0.17991769696915264 -0.18221493368734726 0.18070512023619234 0.17616618444393367 0.18078827916954526 0.18261633236969377 0.17820239580676578 -0.18411969040188841 -0.18377747699634073 0.1766206982446582 -0.17058081566730585 -0.1767298696958789 -0.17634628292839236 -0.17654002308090716 0.18462955016791824 -0.18293898483253015 0.1781847441472044 -0.1751978688383236 -0.1800723624483082 -0.1819406647483297 -0.18409329458488838 0.18542085372956307 0.17804842282200828 0.18170485397683014 0.17348839210649225 0.18193682359640012 0.17689099054005725 0.1780358702826668 0.18415989417109735 -0.17931711877383316 0.18078006508242536 -0.1835398857703286 0.1777042901816912 -0.18189354270528843 -0.17590383956578481 -0.17744181896447925 0.17384245750943175 0.1839909182248239 -0.18076156069772395 -0.18245307337316463 -0.1779188477887098 -0.18330673141851225 -0.171705825182094 0.17936098984999624 0.1841201898201911 0.18077832016040893 0.1819826025331486 -0.17851890620520988 0.1773547706298621 0.17676847894053607 0.18365787159498997 -0.18089076127191114 -0.1779713435863515 -0.18427286657518285 0.18101483410433597 -0.1800306471565601 0.1835115006748752 0.1746741170346905 0.17627549467251785 0.18180684326053195 0.18106053324563753 -0.17993844493049843 0.16909657867256953 0.18048535060743984 0.1763890031599989 -0.1791656412414566 -0.18002031782288924 -0.17759913906691996 -0.1816014159867019 -0.18124476674069867 0.16161576455402782 -0.18297817311185255 -0.18002048754751585 -0.18424564738488627 -0.17772553712134848 0.17142963801879973 0.17861270629698062 0.18398115220811512 0.17926807663604452 0.18049827502620466 -0.17316503330475463 0.17970741904249585 0.18166815977451106 -0.17969113137280987 -0.18122435616450092 -0.1823389886948172 0.1767304972467287 -0.1804376085326356 -0.17292665728960532 0.17798611305127487 0.18243338842352572 0.1816223891810869 0.17860306142916607 -0.1783924333006468 0.1827889432660773 0.17617317204612834 -0.1825515919406497 0.18024059003502146 -0.18260961503509623 0.18067780437510594 -0.183645049696738 -0.18319541771174938 0.1750359042399723 -0.17385881511664933 -0.17344248642825014 0.17974122908939227 -0.17896952345274247 0.1800708781268895 -0.18120884345572394 -0.17222552705730226 0.1657382539965745 -0.17997935706278434 -0.17503535930570005 -0.17887094935546458 0.17958525413696064 -0.17803015043392173 0.17958497213942762 -0.1819291414637172 -0.18168913961221667 0.1787475551676751 0.1839015971561297 -0.18022349510681743 0.1806390027734032 0.17439517825144857 -0.1756111329305241 0.1839811796655319 0.1783291271007858 0.17684923449607565 -0.18160162972163746 -0.18011968803349293 0.1787851736429486 -0.17311582750410265 -0.17591047977150584 -0.18249310763202903 -0.17299128552765122 0.17780112084924724 0.17277478908866417 0.18076348986620344 -0.17990002138215638 0.18189749657688295 -0.18076667557794276 0.18366286752827363 -0.18369113587810235 0.17937664571297277 0.17827580430606318 0.178492964762258 0.17585867567194816 0.18258752550097998 -0.17683228257420897 -0.1728742599600588 -0.1737485250479651 0.18170499882990251 
PUSH4 0.17260079122286276 0.17285784297937415 -0.17429030322226102 0.1747773149667972 0.17010116602291062 0.17028605161601965 0.17103372109823115 0.17614560399239795 0.1742147542710706 -0.172512857238499 0.1741511389263981 0.17720401247384604 0.17211291568199327 0.17234115337788608 -0.17254543546484757 -0.17094453526041015 0.1763073069719393 0.16185877720084044 -0.16956032722738493 -0.17022579852120745 0.16872237290463848 -0.1722100305326245 0.17218833637193431 0.17062357104534867 -0.1725025648060524 0.1755387085781391 0.1766351578996362 -0.16593996703824146 -0.17312865318997786 -0.17360204255274625 0.1702741909798713 0.1695078007420848 0.17366436412517658 0.17768552598592122 0.1703906716753247 -0.17691704431773678 -0.17597307434976658 0.1709045886969138 -0.16315339929319894 -0.16683828694106143 -0.16896999344397287 -0.17420552759236307 0.17376808254429213 -0.1753769221174463 0.16801855614024386 -0.1711330419746563 -0.1762226174976497 -0.17372956021918867 -0.1740604547485471 0.17544846840978184 0.16910291225704563 0.17641425955221546 0.16553248633108525 0.17356156019132635 0.1750596438421376 0.16931710418997467 0.17597114901513936 -0.17560586260908354 0.17373913634022567 -0.17298723802063437 0.16934901784723652 -0.17615775304953288 -0.1730522735921799 -0.17312331765769923 0.17039158548494351 0.1750449094445015 -0.1753869516293698 -0.1721125925193968 -0.17166975362488 -0.17616145589054552 -0.166764282550442 0.1713334057127711 0.17683750729516343 0.17331332269139046 0.17551190291133867 -0.17172067312676406 0.1735202334018736 0.17182494423238967 0.17397285435608273 -0.17601463043030957 -0.1723249225327173 -0.17498762208511356 0.17230360947848425 -0.17486629616962235 0.17735520679604416 0.16733042200549278 0.17014758569231941 0.17451956642751956 0.17703684177352946 -0.17188345067465532 0.162659330738498 0.17495497309953126 0.16925638156942216 -0.17468860947659348 -0.17031690962372908 -0.1709129992690274 -0.17494138998229083 -0.16989031489509357 0.1575106198175999 -0.17421889550112055 -0.17041625458343673 -0.17652429648021203 -0.17254685659209973 0.16528364241279173 0.16905517439732887 0.1727481535592483 0.1710353313663059 0.16973196220073028 -0.16788850658414942 0.17217486058943696 0.17565202498720195 -0.17567443520401332 -0.17240689692797476 -0.17367933190447066 0.1690832053975789 -0.17532785249047822 -0.16943147451570914 0.17300891072649527 0.17359906119740032 0.17102442610154586 0.17338021076519045 -0.1751223722463623 0.17258539750371232 0.1717967058729068 -0.17480063784599373 0.17167127602553356 -0.1751276838499419 0.17293964686863295 -0.17694995186365173 -0.17476006041842268 0.17109983869448744 -0.16777358113726232 -0.16645527470878715 0.17731149278642724 -0.1727368570706389 0.1725037532976507 -0.1725974944299012 -0.1669920679935679 0.16330897558413648 -0.17434587125078096 -0.16818584293337263 -0.171649817672419 0.16970189557158794 -0.1711749699242058 0.17253747334010386 -0.17630133721331018 -0.17246448074016715 0.1732855873538212 0.17542911027322164 -0.17209040785265217 0.17407428943322165 0.1693324781160048 -0.1680081978705359 0.17570887137411176 0.17024457799504272 0.16956746953573038 -0.1761938550377273 -0.17484861991603765 0.171384964840137 -0.16554573109693818 -0.1691641166927115 -0.1758874874844594 -0.1640399460224272 0.17191666019247961 0.16876176745762952 0.1709478483002068 -0.17450382234618922 0.17256308742223142 -0.17458947711230122 0.17449271543718461 -0.17344383152662754 0.16892449141278473 0.17462023028963067 0.17077791158504965 0.16968576681211947 0.17516131699903031 -0.16904028059281254 -0.16956077187651342 -0.16527854743693277 0.17571058383462493 
EQ 0.174250322535028 0.172091348384495 -0.17092052198902613 0.17249291713012976 0.1711610810267388 0.17077847122099876 0.17163070176724574 0.1759588189214086 0.17375781773983778 -0.17021838789004737 0.1720500951026479 0.1714228322724214 0.1730511927189482 0.1743137638168657 -0.16840792730953724 -0.17063141762228262 0.17287497133624655 0.15784650674015424 -0.16808943936286047 -0.17193135591004546 0.16563571152686138 -0.1677068644629483 0.1714349993349929 0.17405435155904456 -0.1715297504088367 0.1736084468825212 0.17301657130348463 -0.1635255900318215 -0.1759497852391448 -0.17518382168178095 0.17229058678101522 0.16842900797423813 0.1750502300387967 0.17274585276230453 0.1726554077584065 -0.174020586489238 -0.17455136184328918 0.1677939203162078 -0.16416532181779386 -0.16663659882961504 -0.16734236653656098 -0.16994351465644553 0.1761544833952342 -0.17462408592612716 0.16824949529925287 -0.16925920907391262 -0.17388806336725326 -0.17552341163321888 -0.1768665602320234 0.17626800515202903 0.16958983206860576 0.17509697798187876 0.16193469752624778 0.17289057357708823 0.16988092676689215 0.17241458459568498 0.17312893770511562 -0.1717344599898714 0.174843160736309 -0.1747620405826514 0.1708903613073011 -0.17374920568212612 -0.17084597233747756 -0.17240295101635306 0.16811139619248452 0.17494579448185088 -0.17542338312532926 -0.17100427848494995 -0.16858826931905335 -0.17453010298674862 -0.16747944479070428 0.1700294143763394 0.17362338773050312 0.17072063667685686 0.1711331759863092 -0.16943738331122327 0.1737887285783078 0.16924572665784246 0.17356215191574884 -0.17415769329049574 -0.17016543334387044 -0.1758806466863794 0.16932046358551797 -0.17068946697839235 0.17519723596723435 0.1677153445898269 0.17088456063211668 0.17413353641793977 0.17538585319030717 -0.1740453784643255 0.15905932324269645 0.17356720457882832 0.1677266526644198 -0.1723846998493516 -0.16895290280506778 -0.17180476549198814 -0.17304844696565463 -0.170695523801403 0.15604574467558055 -0.17512366659002962 -0.16985772333971438 -0.17420456528807687 -0.1739583401530898 0.1633011777819664 0.16732090878755837 0.17362875728685087 0.170400720181398 0.17104374539329437 -0.16514441762940385 0.16775231548041017 0.1707693060447654 -0.17579983752898257 -0.17171420076897298 -0.17150749653070715 0.16824972700381596 -0.17570129755815425 -0.1654521849984428 0.1695773657987435 0.17452035889019632 0.1712229831258839 0.1726818753526793 -0.17277167374328278 0.17205332435965848 0.16811645767637226 -0.17454842720359326 0.17487755584927822 -0.1730982912446992 0.1701563796899155 -0.1745648112782224 -0.17417458643242564 0.17105189103282842 -0.17041434141499437 -0.1675993312678756 0.1757972759268743 -0.17469577576357379 0.16855366527251178 -0.1708720418683926 -0.16403576064435033 0.1608268671054067 -0.17196272872159182 -0.16597943532495923 -0.17245562981638776 0.17306199619835957 -0.1740886789736615 0.17126020016885257 -0.17388770601630307 -0.17186895486450152 0.17033817717497263 0.1747761497842204 -0.1730427380742707 0.17093573453697117 0.16917068690761897 -0.16879461460852171 0.1759041376584526 0.1713365041755517 0.17147545852738277 -0.17526903586050568 -0.17243258085591404 0.16957423070386546 -0.1650003703360769 -0.16870777990266028 -0.1726355389603783 -0.1633694051330652 0.17266819524734436 0.16424357857474964 0.1694979936929453 -0.17176041707264833 0.1735277374600047 -0.17535975874667914 0.1762530526992394 -0.17226062812083692 0.17026452408520168 0.1725723981019562 0.1675148591271829 0.16738965509745063 0.1720422655249226 -0.17067625976301468 -0.16860383966413772 -0.16242612364236095 0.17236065355881305 
JUMP 0.20628342320371926 0.20438428826547717 -0.20208583579314118 0.20190913907586674 0.20044452323150563 0.2043092297834819 0.20100046302842625 0.20782123322456508 0.20608528834803277 -0.19961432386882508 0.20121104332712259 0.20269076274134 0.20275888439881476 0.20205684845286104 -0.20326037625425256 -0.1987219044197391 0.2067402379434984 0.1877082902710865 -0.19853824997091307 -0.20220305476724068 0.19861846184069804 -0.2024401370893496 0.20394999007051992 0.2026138177142707 -0.2014702726238149 0.20713991476189259 0.2072395685515889 -0.197577772915614 -0.2081346429047687 -0.201915532631452 0.20294230673719288 0.20106364740931065 0.20445890864371233 0.20478075674043425 0.20355190281661178 -0.20672523716870397 -0.20337501147172712 0.19647480518823174 -0.19132521965122415 -0.19947583474154684 -0.2021945807436181 -0.20186379762013706 0.20812555654573753 -0.20374083845233265 0.20020363373675562 -0.2016222322277641 -0.20347530072470696 -0.20563082363709698 -0.2073215638974393 0.20928484661310018 0.19785731103641394 0.20734458215242302 0.19269127354415627 0.20109372018353755 0.20333153511594404 0.20234818290057924 0.20475085354453418 -0.20498697099884314 0.20728742718426552 -0.20589578960983093 0.2008926191394247 -0.20432358015447286 -0.1997385192845595 -0.20226252211938053 0.19642058832494558 0.20545869167010752 -0.20594462478413272 -0.2054447026985888 -0.20156068815943906 -0.20413995435937043 -0.19348605599892668 0.20063376367964753 0.20411995806118616 0.2052372205512007 0.20817211817422301 -0.1999616705679659 0.20160607092634267 0.19728650854848295 0.20552982195055464 -0.20228152275582956 -0.2038239791131306 -0.20490337563277264 0.20533987136656318 -0.2020793542545342 0.20761700620694867 0.2001830581266467 0.1991779604276246 0.20611591990277664 0.20786539056328593 -0.20503723301444593 0.189530813737923 0.20359850188492615 0.19727718933923621 -0.2039152351485735 -0.20335286967482097 -0.203023525259843 -0.20237762815072674 -0.203701993149852 0.18680431573396822 -0.20622008323386085 -0.20161891226089027 -0.20814144170711882 -0.2005754585720586 0.19648994223051447 0.20124810712070973 0.20628390949913564 0.2010235467016302 0.2043672473309521 -0.19121571640019577 0.20180313730430313 0.20127165841167738 -0.2050846091369205 -0.2064923997265067 -0.20324748954775226 0.19986388176324416 -0.20706174842974215 -0.19509386492444708 0.19797364513120333 0.2056047869714921 0.2053512671805894 0.20257608517956183 -0.20112631309276682 0.2079753620123339 0.20139040932093674 -0.20261024499929162 0.20390071613409422 -0.20459343134999433 0.20414028416847227 -0.20430417646204727 -0.20282053325497312 0.19799899762625348 -0.20020525792238783 -0.19595756535174028 0.20343070611419473 -0.2028004978126452 0.20148280018520318 -0.19988504904942553 -0.19537516894169268 0.1893392336067656 -0.2005122202255119 -0.19621574196568922 -0.20449957126557178 0.19805969888318115 -0.2039691435578736 0.20068713182130257 -0.20165265200508053 -0.20016693404371363 0.2007563537885959 0.20527881663038422 -0.20238979563672707 0.2030826954267834 0.19940424546494326 -0.1968910454578593 0.20396728103464531 0.20429054973809738 0.1995415458254301 -0.20500221497680307 -0.20593708311830655 0.2043413911358137 -0.19588079606552114 -0.1987969252075219 -0.2065582719325755 -0.1931567144088195 0.20329215610367382 0.19762206232342205 0.20104837242914236 -0.20167483159199384 0.19965470355122125 -0.20452531821243347 0.20560878442020122 -0.20289175736826023 0.19959555914120672 0.2050334794377878 0.20232041159720368 0.1973762956643739 0.2033665472841574 -0.19873652674413708 -0.19636670812296608 -0.19432789686573923 0.20386682194264247 
MLOAD 0.20191141267090684 0.20039862510573653 -0.1982255424196321 0.1991628059817695 0.19600712672910875 0.19764152593480488 0.2002790960158274 0.2017204654761787 0.2000858892406698 -0.19792699008976844 0.2007845899986076 0.19851848482470502 0.19961301762114564 0.20166738810547194 -0.19615403543895701 -0.1992557693095012 0.20187060241309007 0.1830850729992888 -0.19191484092694613 -0.19761433677282597 0.1955310250584741 -0.19559550856352373 0.19513714076022826 0.19763940876676125 -0.19803860605229046 0.20089320672390837 0.20044827849125313 -0.1902654851099137 -0.20228620447663237 -0.1980183127795134 0.20044384791104755 0.19588918046133927 0.20054590257211882 0.20042139096890726 0.1999247486942733 -0.20312877200131446 -0.1988959359615226 0.19383083535052492 -0.18768982995680888 -0.1947948274564292 -0.19627703967439833 -0.196523846137646 0.20423115977977896 -0.20322891270297425 0.19645701082612682 -0.1952046909469009 -0.20322294661200868 -0.20235416635909095 -0.20061108941073963 0.2051105705291849 0.19775387989806287 0.20122188531098828 0.18907535479136106 0.2002215156699748 0.19816121854440627 0.19920277126736222 0.20221193831839104 -0.19885472189002443 0.20419087542323955 -0.19990359091872648 0.19602428567230662 -0.2033149845374278 -0.1967482752998411 -0.200007310345656 0.19320287404547726 0.20260305969988132 -0.20235468867371878 -0.19927523775294342 -0.1943190711423387 -0.2021680281114929 -0.1894307200885809 0.20147202050384314 0.20280157675689345 0.20069346612325556 0.2017605236896363 -0.1963554084200975 0.20048575206042996 0.19763195626417515 0.20224632073748233 -0.2014778626645874 -0.20102398985533507 -0.20383607688674218 0.1977535661586518 -0.20208233859962127 0.20172252843298655 0.1942274598309715 0.19517860783510374 0.20119412252909546 0.20245929454073558 -0.19731331703666102 0.18739811925258523 0.197018656836535 0.1950539007433416 -0.20126727155083293 -0.19831272279297898 -0.20137882500875762 -0.197984295774005 -0.19920313125941722 0.18381650868129315 -0.19945117935249676 -0.19828490232235577 -0.20479739906341535 -0.19819223404489206 0.19527017141122113 0.1968379510966752 0.20060607840281922 0.1939643135823731 0.19868369753699078 -0.1918543852709815 0.1997201750948436 0.19532170202479143 -0.20318405143718188 -0.20352363458504477 -0.20059981809660468 0.19311863150838476 -0.20266863572736663 -0.19494159626825316 0.1987462764141829 0.1973859740114172 0.1990588753307323 0.19870775397558976 -0.19859263587218695 0.2030775063544919 0.19912128712720367 -0.19801312167618157 0.1989163624807886 -0.2028500918871665 0.2015706607188849 -0.20334031853022028 -0.20272375575133925 0.1928764275575927 -0.1956208809520302 -0.19601373157928909 0.1995202552827295 -0.1993110544075487 0.19877972746829137 -0.19723310755065404 -0.19503276791676066 0.18526238739415424 -0.20064119505511324 -0.19659632595660612 -0.20235354659115293 0.19552474291176827 -0.20192466801644524 0.20055657663810683 -0.20261948069623173 -0.20018874642482615 0.19888157360975353 0.20321579053442404 -0.20039148340937307 0.19958301399601802 0.19928895375784003 -0.1969617618650322 0.20004343288850945 0.19817079481997818 0.1992223754178369 -0.20161916341775407 -0.2016224654349509 0.1995820592113269 -0.1939040465603936 -0.19381578796991664 -0.2006951794184468 -0.19269169127893873 0.19932411093835253 0.19510940171190538 0.19998543270852023 -0.20090846284429872 0.1985943438431986 -0.20190504080193153 0.20348726246516122 -0.20296122648895673 0.19397022478559633 0.20093541288809835 0.194580998576785 0.19458896764429834 0.1994492199473944 -0.19501847941756273 -0.19361512839204467 -0.19162450872939843 0.20188755242988826 
ADD 0.2061746604629299 0.20852263220536735 -0.20398624427047696 0.20603894674999443 0.20483183153831766 0.20442239094737144 0.20641635691334492 0.20873132041736212 0.20621923096658043 -0.2065567355793884 0.2052095747799232 0.2097917026287356 0.20899995505443875 0.20861366712173735 -0.20361430470324193 -0.20394973110127304 0.207786285542787 0.1938704540015301 -0.2021368086709676 -0.20786519292720831 0.20325182270266864 -0.20380031071782076 0.20381391573115626 0.20729751526703008 -0.202575125465855 0.20834979043117055 0.2077848037455092 -0.19921716499203304 -0.20576152284768762 -0.20458080970393022 0.2044745849025979 0.20350106780685956 0.20615732510250298 0.21032748927309733 0.20134724603794585 -0.2080238153946261 -0.20618541417501515 0.20379594912368362 -0.19749607846801778 -0.19720849979341668 -0.19978932777778508 -0.2044286610056681 0.2113068349911586 -0.20500323948665097 0.2021370698015504 -0.20225562276429868 -0.20896734004229453 -0.20491878798982469 -0.2102411454856048 0.20868205467645198 0.20533133003182072 0.20951835742232208 0.19398769471438024 0.2080845884113337 0.20604573501083098 0.2014068702038967 0.20829182172279262 -0.20770237870452624 0.2061867617895627 -0.20830385883405092 0.2019792058988229 -0.20698888433692172 -0.203066989826432 -0.20574670829816766 0.20031359459458917 0.21021545850937287 -0.20866164477499946 -0.2082222168718562 -0.2050549692680557 -0.20923063145810222 -0.19747163139483676 0.20832734885266324 0.2088961399884715 0.2084585146406492 0.20543468373733195 -0.20056935870536394 0.20412968531336606 0.1996284772033813 0.20834293329482004 -0.2091761317283117 -0.20628455600086423 -0.20838082547103345 0.2040904191209046 -0.20714446884889195 0.2100797846814404 0.1996163890565879 0.20163189911354765 0.20935664506228294 0.20908966858140415 -0.20769953264049418 0.1951572278382099 0.20293284972026776 0.2000463869013218 -0.20673457605986129 -0.20696392184555867 -0.20439568976874742 -0.20558441652956685 -0.2050771532665607 0.18561269292530855 -0.20798537722920987 -0.2041188047183321 -0.20815504074010618 -0.20428015942907352 0.20148457005304526 0.20293703551689954 0.20731419225973344 0.20455428756694302 0.2067796711156216 -0.19500639126448832 0.20283474856653172 0.2066556704805975 -0.20871446831004412 -0.20979241469205562 -0.20541127030124218 0.20062482497165066 -0.2106983801860296 -0.2013396856154246 0.20022181311627923 0.20823212737273672 0.20588917203668883 0.20796088048603595 -0.20747789952302184 0.20621389724043004 0.20374398183854625 -0.20742602148320158 0.20274951827016538 -0.20658408708728687 0.20503645984053262 -0.21057317631846525 -0.20594025474151548 0.2023429415140727 -0.20071455822896056 -0.20224770163231437 0.20839439224514616 -0.20774601562409403 0.20200187410221554 -0.20614071940016568 -0.1985561359107521 0.19224198890902394 -0.20578370013296937 -0.1977895942984525 -0.20604496723109272 0.20232547890495506 -0.20867841785480884 0.2061146870711945 -0.20376073993031482 -0.20491673188681075 0.20478499015239449 0.2105154256132277 -0.20353185341642677 0.2067611410068246 0.20467919396510662 -0.19769749590722488 0.2099725703488009 0.20405843343334026 0.2052103129128169 -0.20461544773373974 -0.20640881228429683 0.20768505969381856 -0.19705601423236632 -0.1980459259120935 -0.20863226294663054 -0.19770953421820592 0.203823978004806 0.20202440711217443 0.20317714427589198 -0.20707748869453244 0.20544920128900093 -0.20440220038200183 0.20733844402341903 -0.20913392047069515 0.20397270894202113 0.20537608906080748 0.20345704649636293 0.20116278141025648 0.20639607259883 -0.20026647010942153 -0.19732333041130334 -0.19562422048145173 0.20904598444902545 
SUB 0.1855443099428973 0.18699685212066608 -0.18498831291372794 0.1861258561925754 0.1847415088538808 0.1854375579868058 0.1834667173039218 0.18978946952946696 0.18448407402212608 -0.184012227414655 0.18621958835122882 0.18480079298350785 0.18715973358131244 0.1885278414923723 -0.1853827627010094 -0.18493818191606953 0.18851404544707512 0.1734434735655811 -0.18082458016529593 -0.18311835929676482 0.18341435990751573 -0.18417083203371631 0.18527766297358425 0.18545208039609282 -0.18208396842510263 0.1871155121285558 0.18635937077555528 -0.1824327264232886 -0.18835359909228175 -0.18737965010240923 0.186241142954723 0.18340782004247175 0.18629288015539652 0.18917670491260388 0.18352334306285267 -0.186772613853838 -0.18864840777038838 0.18167276792711717 -0.17819392393078665 -0.18045896016881338 -0.18298802836450032 -0.1818747818495197 0.19039276722804505 -0.18836919382796743 0.18249825738663394 -0.18144106142282151 -0.18422390095115063 -0.18597331231943118 -0.1892884803882873 0.1894840537738544 0.18250425235942908 0.186621300250481 0.17948637232186476 0.18824583482768897 0.18503247399484138 0.18572006518280937 0.18592000511751985 -0.18851577473874573 0.1886807122782719 -0.18857893783869445 0.18161011724093873 -0.18681182139068792 -0.1836273656388774 -0.18717841711833405 0.1786782718567838 0.1874474943091639 -0.18601602709246703 -0.18783015041417753 -0.18322992602171814 -0.18466445729767564 -0.18011161334216524 0.18512075548071058 0.1877510247405532 0.18624944624087622 0.18452349360104975 -0.18361510966752306 0.18351717857928074 0.18128795364990902 0.1837878810590582 -0.18555101076993602 -0.18207738838845855 -0.18812585773368593 0.18700837755810165 -0.18824633515456626 0.18862962224790605 0.18050126381527884 0.1834832537376049 0.18350773445578408 0.18618743608539293 -0.18344933394866 0.17400729324052333 0.18363197549904467 0.18262025691116568 -0.18879715520220455 -0.18412380933142738 -0.18596152610893932 -0.18372838734623126 -0.1836139730260685 0.17061409350955198 -0.18557743111968386 -0.18193189129656942 -0.18680778019567712 -0.18678323612652145 0.1783054914035262 0.1845568930343796 0.1875954997101221 0.18431976323605875 0.18635340430136207 -0.17546305063183537 0.18047588143187793 0.18331530402242435 -0.19013259238202987 -0.1886155916239258 -0.18831431382260827 0.18296217458910222 -0.18876961481364113 -0.18099773900675853 0.18378045609857033 0.18734916644795607 0.18569965602919472 0.1821683108257736 -0.1840371799828176 0.18919719348264535 0.18198364394498404 -0.18658587889176828 0.18776182240752107 -0.18639848592105435 0.18709815537465752 -0.18890938609192084 -0.1863355091696225 0.1809089412070387 -0.17984853326650874 -0.1804794275518771 0.18866148125153792 -0.18898377604006458 0.18433346120495156 -0.18751301094721576 -0.18314262620090685 0.1753148719686549 -0.1860804675689179 -0.1825479873944507 -0.1873708773417026 0.185626515246934 -0.18501552719773948 0.18326112968714495 -0.1851790349352062 -0.18578784148181485 0.18102184403222057 0.18965413322109434 -0.18687408976370176 0.18261862517546631 0.18377004698155167 -0.1802696495981304 0.18803678132265655 0.185810390149888 0.18403553306746348 -0.18737764251314215 -0.18698008888486026 0.1876290485392196 -0.17761866743710214 -0.1775327245175331 -0.1855371024378772 -0.18034748841073167 0.1860562590734703 0.17739225261824407 0.18666361392288175 -0.18332474356041936 0.18410865767574364 -0.18813839978421784 0.18852291706813798 -0.18943298484113608 0.18318593182771958 0.18409463406696733 0.17984938458100685 0.17986812296925228 0.18873455364114597 -0.1817269450473453 -0.18190348097517087 -0.18004224370950372 0.18735561337826065 
EXP 0.17357363726931016 0.17338507544873857 -0.1723892042300469 0.17095302807637522 0.16547956503338332 0.1672507644335978 0.17133081660088392 0.17513197966887545 0.1710672774269865 -0.17125517217470484 0.17062195854018986 0.17241573637457008 0.16975310888106576 0.16980801784774627 -0.16690667972651083 -0.16907161599183113 0.17052964029319434 0.16204230868068584 -0.166890777842734 -0.16759226309858238 0.16918263384345927 -0.16876536544905474 0.16705076716050352 0.17185055116436918 -0.1664933245050693 0.17478087669406933 0.1721761532350317 -0.16441676370737462 -0.1738276065126212 -0.1723508194880671 0.16920571055333303 0.16987533137190367 0.16902407120137783 0.17323214847985058 0.16842937703312194 -0.17546695198338208 -0.17087575864367152 0.16672864324716014 -0.16254777212971255 -0.16356158360353368 -0.16794495486997865 -0.1696345785395524 0.1707520297395399 -0.17392887870970977 0.16545774439239608 -0.16961740021537933 -0.17356401845998665 -0.174732910106789 -0.1746405404572957 0.17604384915126134 0.16770137522709794 0.17282732267752246 0.1650086062941711 0.16973667913173424 0.17073547141873072 0.1717739178241031 0.17278794745057666 -0.17244730104913536 0.17371291833695907 -0.17018032754577567 0.17089020900157542 -0.16963787582755446 -0.16939843842891653 -0.1695274709658408 0.16702527098548808 0.17246574651474433 -0.17303567936242598 -0.16937621935687996 -0.17031608197440334 -0.17474922597515033 -0.16465351889755547 0.16795152258169174 0.17173796138275688 0.17326619882120742 0.1728008705094076 -0.17094215377442318 0.1712541771718703 0.16790939475964725 0.1734998211940268 -0.17344437904653145 -0.17252635608362898 -0.17370252285015614 0.17052312446539564 -0.17396846184709314 0.17607278370711704 0.16673806528605178 0.16525059923283372 0.17300666356408567 0.17375566608854445 -0.16915012302374355 0.16069990382156463 0.17307620355981973 0.16363513018930598 -0.1681698880071045 -0.16861613296524786 -0.17203075800851356 -0.1728877493571148 -0.1690820476803366 0.15840472914404674 -0.1720743541375875 -0.16990386763765475 -0.17448085580364395 -0.1713003415029888 0.16615033379091307 0.1673699821614411 0.1731220527126056 0.16761047862991554 0.16823072740326944 -0.1624637066754827 0.16897362694357726 0.16812908678523536 -0.1743267771576737 -0.1726969120818217 -0.17159059449449374 0.16614082967701935 -0.17487528092421595 -0.1653536958177531 0.16856627098514662 0.16991001293086336 0.17168891240861553 0.17156406699899504 -0.17088377996078305 0.17417035581886048 0.1684688092577279 -0.17367514381972354 0.17404371012972183 -0.1732863026756502 0.17266736403449917 -0.17023614578861515 -0.17377947795367463 0.16877788232919755 -0.1675830405180421 -0.16466562589127343 0.1700856433422258 -0.17223349289208134 0.16751007083640163 -0.1708041358180575 -0.16523536927923024 0.1597390571533609 -0.1692978201093874 -0.1669001302315813 -0.1680949424823632 0.17110562679887012 -0.17299730319524032 0.1701338489213284 -0.16908851104002362 -0.1717182960875412 0.16704145136656082 0.175445378712011 -0.1715426260003939 0.16821869812229076 0.16659299015832799 -0.16644521565603196 0.17309697947984634 0.17111739801327153 0.1684844722983988 -0.17433793423710614 -0.1738495550548996 0.17024088636016 -0.1623965068831147 -0.16386347476671895 -0.17356071722446503 -0.16247968062704682 0.17259734442528568 0.16400416226962033 0.1724014566456303 -0.16998875720281087 0.17209925259057438 -0.1708882453677565 0.1706668674727242 -0.16912025844191106 0.16580161559019863 0.1691634736452521 0.16661144402956798 0.1680553458645548 0.17409677222846945 -0.16895095895767367 -0.16300917057237474 -0.16518614293644657 0.17358224799301916 
NOT 0.17114052930413887 0.16852456120883466 -0.17188928272379247 0.16990710209757046 0.1681716465596971 0.17131179020261791 0.1686740901382266 0.17248782129989454 0.17257115345790303 -0.17013420497149892 0.17017362288197255 0.1712870433901621 0.16799611225004496 0.1731955596207725 -0.168188552504679 -0.16890697798284235 0.17405343484397262 0.15869731257098993 -0.16755680129817407 -0.17197377794040086 0.1648551538805806 -0.16722825598181412 0.16777548274101745 0.16701178681072198 -0.16968926997675113 0.17108104294595394 0.17171036375433973 -0.16510302194946527 -0.17012751463282194 -0.17230196016331184 0.16898590670220495 0.16584184313626577 0.17168630258452305 0.17325123498160258 0.1686159938144602 -0.17253203021498986 -0.16978595331509763 0.16613263681517434 -0.16258091643232747 -0.16709427462474744 -0.16806346346089393 -0.16940165117503045 0.17400416095979435 -0.17329347298419376 0.168286442738688 -0.1671141236197301 -0.17398945455580464 -0.17020553952645776 -0.17349872312447173 0.17321378702406534 0.16637141304829434 0.17100103268894085 0.16236151466783516 0.17021427661561273 0.16665478622069332 0.16646095451507403 0.1703049978025858 -0.1709088072367445 0.170482853262589 -0.17226009172604517 0.1692073934580802 -0.17188493724721324 -0.16880331831645604 -0.16915923917132364 0.1648476886800907 0.17025064924897265 -0.17035511554043017 -0.1690589502708486 -0.1694138563613534 -0.17194019638386582 -0.16458118335292987 0.17118521278949134 0.16917533166857043 0.1674139742710497 0.17390587642414532 -0.16995079003954502 0.1716392157758084 0.16690228008654814 0.16889889714527126 -0.17372384203819852 -0.1671420762620969 -0.17200863892963714 0.1685402061828126 -0.17307277458405404 0.173903826032426 0.16552227389874916 0.16502404817829008 0.17332511836328646 0.17368287471133728 -0.17147395880347302 0.1604174683882653 0.1698811393670495 0.16551932865561275 -0.1697860480798044 -0.16930590204879428 -0.1688077318750342 -0.17006500793524967 -0.17086131784846853 0.15551578116494957 -0.17040749427565766 -0.16810453517242577 -0.17525823084457445 -0.17231414942370635 0.1639438646464882 0.1678156324290159 0.16906917516746367 0.16619303565132426 0.16775820950853254 -0.16512443164463905 0.16795324971008857 0.16883255130607538 -0.17327033743713685 -0.1705917621657277 -0.17130873343541672 0.16664862360302082 -0.1721675089875802 -0.16663023891163778 0.16582550629272858 0.17067747124426472 0.16925828124889228 0.1714278358976922 -0.16975046933085994 0.16964603606326703 0.16764246025451907 -0.17084086480993999 0.17211682402784212 -0.1739188541043996 0.1672920560977384 -0.17399954311811397 -0.17149226503130915 0.1649655708360535 -0.16630616840889526 -0.16523711391563836 0.17258801170298746 -0.17258939299235548 0.1652445141252546 -0.1704261730543639 -0.16582186466542942 0.15477499510023654 -0.16742974858925086 -0.1660289024848879 -0.16972452169168128 0.16947637506209534 -0.16997223111634474 0.17014968393333965 -0.1706484150634259 -0.16904266489570297 0.1656149348871128 0.17107975622442087 -0.16895057618232956 0.17205639103799059 0.16865121329626176 -0.16467891794738254 0.17108573887718073 0.16916992472258152 0.16952977520202758 -0.17287055433365467 -0.1722389155451859 0.168550770232705 -0.16491055873800592 -0.1635434800505581 -0.16922201064420833 -0.16349982910110603 0.16728070490048316 0.16605924911947512 0.17201831008961035 -0.170149901512453 0.1710790871556747 -0.17153522555988499 0.1703992559507871 -0.16852996812536952 0.16847288278061967 0.1730947172397018 0.16814733968531484 0.16409117729052794 0.1736885378695744 -0.1667972051740062 -0.16631912377397642 -0.16159536018721338 0.1689110014193233 
PUSH20 0.19758619700486707 0.19514981737847995 -0.19415005207508343 0.19707367693539632 0.19242302037661946 0.1944282834878048 0.19768776169116042 0.19758334595757326 0.19660497870346647 -0.19824702391337223 0.1953076708894374 0.2003566909913347 0.19907317932625834 0.19542733935695422 -0.1959288288993248 -0.19424949502685923 0.20023693317045552 0.18197094502550973 -0.19059610846660832 -0.19579394877997144 0.18987102204463038 -0.1916835590966364 0.1971072003096839 0.19377224263463316 -0.19223333154519534 0.20071093915115373 0.19924534728402382 -0.19191452842582543 -0.1995679127340503 -0.19661767513600106 0.1959953392954139 0.19219349023470544 0.19631462397181593 0.19945070010060525 0.19605850224988997 -0.1984627415641174 -0.20062827725202545 0.19481192589191704 -0.18920535861303253 -0.19015406145078953 -0.19551913928110204 -0.19384885479767683 0.19831943896153284 -0.1984392768870203 0.1954327758503233 -0.19244117035428296 -0.19677589189101824 -0.1963491147649301 -0.2003894186030087 0.19978534990021404 0.19284948321037174 0.19617336627483564 0.1878626698820756 0.19463740120799458 0.19525708441794934 0.19485485577637593 0.19990755327231685 -0.19685487741855798 0.1983508836831979 -0.1967006288471324 0.1912183574383695 -0.19666918144370085 -0.1961378260130915 -0.19237923491590836 0.1896046380218085 0.20028294298547072 -0.19881997856053 -0.1959122936452496 -0.1964968893078675 -0.19644680620734703 -0.1910853413106538 0.19669551759007348 0.19692090395709455 0.19527797507089598 0.19624443998248628 -0.19414106494584918 0.19732601483892304 0.19296533226305823 0.1998881929760409 -0.1974823675678651 -0.1967816032734028 -0.19601803934676215 0.1965128365930993 -0.19852259587132293 0.20038262739665427 0.19379943429126942 0.19513899957983166 0.198843470020151 0.19820371131169362 -0.19695848694306295 0.18407699137395467 0.19536122419920804 0.19447578516682093 -0.19732141859481403 -0.19629222266540336 -0.19746192792243833 -0.19918626178298135 -0.19432621707631526 0.17801571860964463 -0.1964481242073335 -0.19309749395279135 -0.2002533933617027 -0.1962160169474882 0.18652924450122485 0.1948080307963853 0.19788879503696005 0.19371038724520911 0.19574031509667264 -0.18652882632512294 0.19124888748758276 0.19552491639333835 -0.19976711278635317 -0.20017949191475246 -0.19666047615168086 0.19428680999640183 -0.19945686470471138 -0.1901505657697358 0.19490721041086898 0.19665904350486269 0.1976734837265979 0.19749530077507227 -0.19665072842213147 0.1969787575009769 0.19250770875799517 -0.20059504074357487 0.1984431895941348 -0.19973661508370902 0.19424324171583715 -0.1987077161556284 -0.19563156532710882 0.19398050083165203 -0.18961981315679768 -0.19102793234520846 0.20015403457575012 -0.19664226802596096 0.19314886009157667 -0.1955637915734354 -0.1881513832946343 0.18223903495134477 -0.19580235686156905 -0.19121832312111497 -0.19709281016035332 0.1961655187868079 -0.1974889563601855 0.19805310176856925 -0.19490738633883034 -0.1981956180340741 0.1960477293402415 0.2016509138807831 -0.19185283734482692 0.1937970862574637 0.19321223607940455 -0.19321833861758594 0.19633055747274836 0.19426731915302684 0.19631986047561456 -0.19668249377888405 -0.19746135642187373 0.1964203752888578 -0.18821270185085182 -0.19024897999383358 -0.1965523250720525 -0.19028380113772503 0.19480179423506563 0.19038398381559044 0.1939513048160932 -0.19528009031444796 0.19727358115141172 -0.19542942005706262 0.19703273970512025 -0.19750067595875845 0.19114453256506256 0.1960792144560342 0.19153695044704658 0.19317740745314704 0.20131636466785574 -0.1927483364843954 -0.19001848208498273 -0.18856088988782277 0.19502700278380666 
PUSH32 0.159906151756989 0.16182628928765844 -0.16296713443803965 0.1589350103156815 0.1581829673726027 0.15859934951533444 0.15747558322558924 0.16195807468795514 0.16035347685868298 -0.1607562614407808 0.15884243668047768 0.1610603142372124 0.15987141826437884 0.16427286391177404 -0.16108982244720937 -0.15994628169795838 0.16249842061384345 0.15113684899533178 -0.15484999124733373 -0.15968214839772238 0.1555911933132114 -0.15844735419418773 0.1594374579258027 0.1619324827124867 -0.16113648142594567 0.16565302661843365 0.1644284834667889 -0.1538100480846051 -0.16071100686295423 -0.15940735596997224 0.15964188196168844 0.15934148934671455 0.16144061370326895 0.16164449650213517 0.15824664464594765 -0.16046420329842273 -0.16167188296329585 0.1579399252673956 -0.15381416956105015 -0.1548089407626625 -0.1607400461100954 -0.16294870103575812 0.1624045170148551 -0.15999507417310976 0.16007656232295425 -0.16029164837013657 -0.1645915895274021 -0.16229344249399852 -0.16556634375443585 0.1631229851948565 0.1584057827380089 0.1611518044526636 0.15376596506371176 0.16242135321221762 0.15991472248215816 0.1607104401192954 0.16359838070032115 -0.16421146336600512 0.16497292754159743 -0.16317538684568306 0.158602733131178 -0.159594519188092 -0.15823033790850421 -0.16015377862863586 0.15744803772710927 0.16536328991445354 -0.16432732920921908 -0.16175731824638967 -0.16116734263613536 -0.16332985901293717 -0.1533796146510016 0.16069929827704074 0.15992696979058532 0.16149359687746842 0.16081855821799326 -0.15980811731610092 0.15909855311544369 0.1555784523750858 0.16270266041986292 -0.1635408773240334 -0.1605558423949472 -0.1627949807996646 0.16089688979394093 -0.16039145506012098 0.16621592974678104 0.15864060685977516 0.16084727528623302 0.16220822456173498 0.1639470837620778 -0.16049934238497962 0.1535667948938198 0.15844175380921188 0.1578049816408887 -0.15903571387313972 -0.16161261916753314 -0.1617450542779493 -0.16359312884535782 -0.15868658749437414 0.14834995497677456 -0.16291560950800657 -0.16051615831152938 -0.16292944020120934 -0.16261583206490818 0.1563392234971819 0.15861780592764224 0.16069247978243997 0.16029378174857792 0.15986840970066407 -0.153644306060747 0.15807366689692914 0.15929103972254205 -0.16450342487219702 -0.16138373048541685 -0.16460672245081379 0.15871630239273918 -0.16286869522559502 -0.15443110890447234 0.15805463806854614 0.16249872267991816 0.1601686761326713 0.1607247119596988 -0.1619189199569339 0.16169097288721523 0.15829123804918127 -0.1617747655731056 0.1637517071789578 -0.16306364882804286 0.16218963222443947 -0.1652776138166854 -0.16203525655502743 0.15594025047301435 -0.15778047709466986 -0.15652078911192663 0.16264287127628937 -0.16111149024929028 0.15668727927844106 -0.15953780042091548 -0.15889615835495874 0.14764510893275917 -0.16054890012462483 -0.15523674854736874 -0.16205062640883963 0.16034809655399931 -0.16067498341289882 0.16343348016532616 -0.15950595236552162 -0.16206016694098938 0.15888741816757068 0.16455064168826222 -0.16142150873294947 0.1614214300789047 0.156312751816121 -0.15946306028738866 0.16432835215042868 0.1601644594830782 0.15997632717098878 -0.1617567007561634 -0.16043908279169375 0.1632981900534153 -0.15215629540621126 -0.15455714127865794 -0.16396920493357792 -0.1542060219903961 0.16129658840118696 0.1546427809182296 0.1619061663319477 -0.16115690998061236 0.162229404053874 -0.15987783163597252 0.1614954133637257 -0.1624881132223766 0.15939141077229974 0.15890070371818502 0.1567036266334143 0.15835160224581823 0.16321152236811315 -0.15928795927069206 -0.1546988502746329 -0.1552487894852948 0.16392402899010652 
CALLER 0.1729000688069962 0.1756982917463869 -0.17437819393854825 0.1712391640539739 0.1688682745934299 0.17304384451762395 0.17143053567837738 0.17639089069785954 0.17597253660340842 -0.17342184049752657 0.17160702758075774 0.1752195473690591 0.1732332279442822 0.1725346609978688 -0.17079033498373342 -0.17312865208069375 0.17600012297684206 0.16110136324970306 -0.16897434258353733 -0.17158705198167423 0.1708986202204625 -0.1695423957324315 0.1726110230773515 0.1745804910755071 -0.1715764687808206 0.1772831640346447 0.17473611878528678 -0.16924197450117454 -0.1728834846729391 -0.17551738143047124 0.17414721993200366 0.17300362904410665 0.17264859470666005 0.17691926916600126 0.1718449794777909 -0.1777635944025833 -0.17515902253940968 0.1724056629787844 -0.16817962585745982 -0.170230571066593 -0.16902127184725887 -0.17351237102782374 0.17703955363058912 -0.174371680459611 0.17027417308605716 -0.16851244219871328 -0.17803092310928859 -0.17697309595607386 -0.17607898537252387 0.17959952056212108 0.1692034403940079 0.1744406230381504 0.16629248444045286 0.17350586322614403 0.17245443444098987 0.1720464131303705 0.17487483982435362 -0.17326936554715816 0.17635574310889426 -0.1746639251911117 0.17345042970079536 -0.1770757538354318 -0.1728473583683989 -0.17086005196889023 0.16943990597124484 0.17523043163844396 -0.17683603628938274 -0.17503879318943685 -0.17113309109842634 -0.1766914371504552 -0.16790655294823512 0.17430386928471975 0.17266495025587458 0.1743190803976598 0.17487940989936004 -0.1710342200257355 0.17047494929129944 0.17244439983553825 0.1771274823213289 -0.1756019091000368 -0.17275216785902983 -0.17707108592556023 0.17289176626617922 -0.17616614365619304 0.17511851276728319 0.16867809409423903 0.16999370591453947 0.17651289029241246 0.17346388127675244 -0.1730355511774514 0.16343836098620862 0.17502619072191183 0.16984096584836617 -0.1756679357707233 -0.1703840430482643 -0.17375924382832028 -0.1745392542077054 -0.16995123297748574 0.1565614454998389 -0.17405860121757594 -0.1732705382038153 -0.1742746823679301 -0.17163961158516414 0.16565186825883432 0.171057535362588 0.17460650875429462 0.16830293906710472 0.1731007961260798 -0.16865433619868458 0.17386275298251694 0.17465916197517428 -0.17606785530424646 -0.17508092570209077 -0.17435685149957594 0.17158652101453445 -0.17526600086528618 -0.16646463379585708 0.17241731841508914 0.17281837474251868 0.17375008311001952 0.17500138703113588 -0.17289940635661502 0.17554205476419832 0.1727569723784456 -0.17383099340557054 0.1739364642584196 -0.17256791273221198 0.17240669282938634 -0.17483718755872688 -0.17321629231653848 0.16813509731758441 -0.1695476022761365 -0.17069094355650685 0.1753464886939218 -0.1759895260422672 0.17354925921031603 -0.17426993131493052 -0.16601945339652927 0.16387516479510778 -0.17024143511728795 -0.1677469061920187 -0.1734905122441401 0.16956648882191278 -0.17290426514647259 0.17524389247124508 -0.17711552549588866 -0.17469674414557623 0.17324481787602794 0.1782390868001663 -0.17506090518057743 0.1736939107459887 0.1702434494209185 -0.1701564029793737 0.17753012094729578 0.1735362234704946 0.1711428301903001 -0.1726876819942839 -0.17601410582261487 0.17374213756897813 -0.16535082932947287 -0.16747909359739194 -0.17571016269469986 -0.16765935607738552 0.1741974880034649 0.168066469553989 0.17562004412661608 -0.1728243116784593 0.17398130383806987 -0.1764400954048852 0.17742249582129868 -0.17692326872413425 0.17095211962093382 0.174018777032241 0.16762135603870565 0.1709948793006008 0.17729220725580083 -0.17108476964466868 -0.1663351778532536 -0.16494505727342454 0.1720492175980366 
SLOAD 0.19104841556361898 0.18730231289047478 -0.18648516042899424 0.18680863931152045 0.18237805271396287 0.18525673047738545 0.189494052736847 0.19036061869186804 0.18796200311404 -0.18796013498226236 0.18953115723594735 0.1895436101283878 0.1886659566732364 0.191674305896571 -0.18655443022710605 -0.18705095836529262 0.1874767843196536 0.17808957570337414 -0.18362214129103918 -0.18686894779359856 0.18578869815103757 -0.18633712661280152 0.1874773927032184 0.18652295276009667 -0.1850735190421438 0.1930116468824479 0.19088591145194372 -0.18242945517737114 -0.1877953718428396 -0.18746492338911563 0.18529153594350337 0.1844804081844108 0.18724521149712942 0.1921729069267421 0.1868941383820387 -0.1923033640341397 -0.19173071697199548 0.1842462037874047 -0.17853909144644717 -0.1804602767235074 -0.18484347166693424 -0.18910747350645643 0.1930319653016462 -0.18902096659406592 0.18190446818125222 -0.18361197982800484 -0.1916919610149172 -0.1914166551492198 -0.19272792322224322 0.19222604486688366 0.18753545764701524 0.19123801052660178 0.18131112591166265 0.19109527614190228 0.1852344260002964 0.18550586232347213 0.18814519059844165 -0.18890807357290237 0.18997814307639138 -0.19218044698661288 0.18411207332495452 -0.19192434352455465 -0.18496436662765045 -0.18844017494028065 0.18607012674486367 0.1920549460280204 -0.1920177993567949 -0.18581133253252452 -0.1865955468514074 -0.18789647243098934 -0.18127478303422986 0.19038279312643683 0.1913792113687233 0.18955412333443747 0.18912678398359364 -0.18490785354134542 0.18674213581065197 0.18696375990623412 0.19170186023373736 -0.18875589186951633 -0.1882704581177227 -0.19247947840487312 0.18619538470304783 -0.18768931134708167 0.19005263000967293 0.18178987249458764 0.18517565474008552 0.18713980359456772 0.18987030194524035 -0.18858277667339937 0.17700486839076118 0.18605655890278658 0.1831231831189358 -0.1892479358753148 -0.18733254915453082 -0.1877856699741489 -0.1873282916466906 -0.18574785814730727 0.17410234811573483 -0.18776148527018854 -0.18433313936840665 -0.19413826906970721 -0.18815949416008038 0.18185173344989153 0.18750267016133632 0.18813894654250382 0.18633945167363783 0.18539717753873325 -0.17899348025693362 0.18492271373931723 0.1885281025103728 -0.18999375832511187 -0.19141740940770677 -0.18924653977742809 0.1837824554918456 -0.1913101830941643 -0.18302508192569136 0.18675240572009077 0.18780796503548405 0.18858307465661048 0.18861210011908353 -0.1870268299910502 0.19224309318068022 0.18562138948392726 -0.19215744532890486 0.19099882114845676 -0.18984812889589206 0.18825790112838098 -0.18905244703398705 -0.19180861513252137 0.1862104313194512 -0.18219620692747368 -0.1843681731314434 0.19227531064715547 -0.1891584100015659 0.18359302652086307 -0.18548711200354545 -0.1854939190811124 0.17502413456297128 -0.18670057911481774 -0.18627976387739298 -0.18860272264717978 0.1874097926499383 -0.1906608782113673 0.189467197876139 -0.18995676724475372 -0.18940646126347416 0.18529506969716533 0.19228297474707287 -0.1884296948141783 0.18756536603700225 0.1858804166400555 -0.18364470955638734 0.19009743723269737 0.18630896756792484 0.18777604980411247 -0.18663756989141667 -0.18905525610454416 0.18930754449838819 -0.17941663581246572 -0.18008292348240965 -0.19211211449446097 -0.18021313807395023 0.18521926252047088 0.1795052967806888 0.1874958393125122 -0.18866697934003532 0.1889530334840674 -0.19072545652330355 0.19214317308078904 -0.18838648652855006 0.18398922668176265 0.1895006628160343 0.1835839819796958 0.1810316727647409 0.1915191283422024 -0.18227178921559573 -0.1840235281347086 -0.1828588973897375 0.1904678987489571 
