MSTORE -0.19008350617885275 0.19244138073863257 -0.19034804210029888 -0.19067849786653732 -0.195132568419535 0.19517915415598877 -0.1871389534886262 -0.19441491392235788 0.1909179361990378 -0.1972119896894427 0.19465918754379608 0.1953824180568306 0.19424967904278492 0.18871860922986722 0.19073356798446942 -0.1857994403105376 -0.19262858893727325 -0.19386459814729126 0.19032864814459313 0.19707456532387316 0.19618342330026084 0.19341277942218987 0.19290509653049506 -0.1902495114483387 0.18958575429229796 -0.1864908622829026 -0.19008261661504636 0.1885700391051619 -0.19901783798403064 -0.19399318930906606 -0.19105141179514198 -0.18831391528587196 -0.19394242769423004 -0.19476206109223307 -0.1937657687446326 -0.19173669888596448 -0.1951084689850595 0.19127173575820527 -0.19444288604202667 0.194105502662031 0.19781580938289528 -0.19161131592620217 0.19408536911974916 -0.19193475527932005 -0.19278103402277302 0.1955340397720067 0.19490919643549476 0.19296908472628996 0.1872161794542284 -0.19059841059737995 -0.18526563825409723 -0.1973273404725569 0.18507176436064765 0.19377047664099845 -0.1903712957408775 -0.19510228143488514 -0.19193194182167708 -0.19009787610571532 -0.19533104095721515 -0.1937942310955095 -0.1959180960902731 0.19574034986865677 0.19469798248322495 -0.1904349274798185 -0.19009013569432504 -0.19471093341032208 0.18838877663144696 0.19427971181079168 0.18741641329873457 0.19195164153076913 0.18972150532696777 0.1930373315518365 0.18593869195272691 -0.1904312182956421 0.19291831985543334 0.18452011782139846 0.18407049637694115 -0.1965124472342376 0.1830430732608869 0.19691257968575573 -0.19742891169778554 -0.19591330424048173 0.19222699853298778 -0.1953222504738861 -0.18438007281663107 0.19039123461257623 -0.1823826643721357 -0.1942593638215027 -0.19386172792059178 0.1922841947291244 0.19747773695400275 -0.1856924080287883 0.1892514913669963 0.18521056842061712 -0.18568210157581283 0.19628488516439152 0.1845693428323192 0.19664701371931712 -0.19597018937744562 0.19046234717464797 -0.18958422711556502 -0.1937663152331986 0.18917098168226218 0.19177580052263532 -0.1968534775726101 -0.1951835309304794 -0.1887085093403761 -0.19656796870681476 -0.18743762966406677 0.19292891131484907 0.19458468942138857 -0.1927581470120683 -0.19016037976880046 0.192878151253439 0.1893292370798733 -0.18806400352640046 0.19618679392092184 0.1935964443757424 0.18193351332221716 -0.18768818987487063 0.18872340330770176 0.19164880992218855 0.18830059813689468 -0.19003228445499712 -0.19428096558995894 -0.1966415366083952 0.19170955036588058 0.19852371388512288 -0.1921124549848999 -0.19261663116862326 0.19292772682385675 0.1949962062969028 -0.1911615086287454 -0.19654057712815054 0.1949933860151425 0.1918155258749003 0.19427458031821343 0.19351139525238892 0.19231420501478924 0.19155628329239255 0.19429966753406352 -0.1920606563736129 -0.1951765530974979 0.19349177319097643 -0.19648009056727228 0.19016102871490576 -0.18925519144478523 0.19254550725347028 -0.19437471174057017 0.19324817929976099 -0.19018795096770136 -0.19320187825133975 0.18180341446262963 -0.19331456950500703 0.19669110161413944 0.19124242104727393 -0.19371636576705142 0.19159156250435597 -0.1860300311728317 -0.18899303652586663 0.1914190244733807 0.19701796320046625 -0.19151677136797565 -0.19410209422553723 0.19444742959521155 -0.19354487719207786 0.18993126288113563 -0.18941356035061996 -0.1926270199225244 0.19235086796867684 -0.1865829753136662 -0.19248856417392407 0.19345222881924146 -0.19673346517177498 0.1953793715442356 -0.19057917995418983 -0.19236279639164722 -0.1912669747154004 0.19697114839331376 -0.18824622288927947 
CALLVALUE -0.16096008155575833 0.16150049090837323 -0.16397763973539373 -0.1585630992600747 -0.16542378584858464 0.16516612335933498 -0.15691067094147668 -0.1620063761140002 0.16479288041146956 -0.1623873556603549 0.1641025056271463 0.16458171373161598 0.16365002015226562 0.159811838358653 0.15942411477696442 -0.15899663642328538 -0.16243742357132815 -0.16090081567627396 0.16103648738287 0.16648625247817844 0.16786951909406544 0.15978345157947105 0.1639527698427012 -0.16157509761414804 0.15864188184788747 -0.15629873326745497 -0.1636374869186057 0.15767394015983285 -0.1683930421158247 -0.16065470330267698 -0.1630639401470546 -0.15895669379864383 -0.1643657900023163 -0.16431816259655102 -0.16191137693198357 -0.16178954228576056 -0.16507597482074302 0.16342723659419486 -0.16112333400185153 0.1649579668116335 0.16642234258328908 -0.16254308785977958 0.1596028699150004 -0.16081122247226054 -0.1623325173314156 0.1628250816431369 0.16199755824691775 0.16450700347384406 0.15944190701814204 -0.16135590350491355 -0.157569553350852 -0.16639449296690403 0.15781268220012484 0.16211398827312676 -0.1630800091201755 -0.16084052031847026 -0.16134722623578354 -0.16063539946307384 -0.16500957457077142 -0.16184095918234956 -0.1661919107572655 0.1662192433426617 0.16413467473476953 -0.15941559721258416 -0.163446182389489 -0.1631256232714626 0.15773011223765154 0.1629028655093377 0.1578233111831433 0.16386925726674503 0.1609046750478505 0.15883841031409368 0.15687492886336005 -0.16119965949223203 0.1644473872795996 0.1580423031039364 0.15713517169009406 -0.16630056301701596 0.1558532746997999 0.16601547316112886 -0.16337625567818595 -0.1654461460760115 0.1607652695802748 -0.16263327438784145 -0.1527902956164708 0.15891238513130537 -0.15789673067399587 -0.16136896272082413 -0.16299464104680086 0.16050608421658985 0.16725288821800538 -0.15955208918630143 0.16043437529593307 0.1566932305304789 -0.15805630966466724 0.16379772508715962 0.15706995933093096 0.16264429534930788 -0.16592022397905984 0.16213099352135962 -0.15703960389635646 -0.16032721377269077 0.1600169753467291 0.16275007087682242 -0.1632107452278279 -0.1629206956042489 -0.15832417826802672 -0.16311426477711158 -0.16049319372340284 0.16548658567965305 0.16398971249035524 -0.1587157810272286 -0.16206275963869518 0.16366259029934066 0.15889278902940898 -0.1619796301077509 0.16219461021364137 0.1599194042981674 0.15305041180576698 -0.16071643018788112 0.16173269677688218 0.16511532906926932 0.16167927689412478 -0.15925892239775474 -0.16307495260373397 -0.16326345605829257 0.16281911022354068 0.16762218776693164 -0.16358665349806686 -0.16122318543111214 0.1622128996624348 0.16540681469057594 -0.1629376372672058 -0.16514112396381317 0.16426460787052535 0.1611206140381647 0.1646127069965274 0.16290957097805547 0.16183834396512498 0.15784664566577022 0.1624239234090445 -0.16230582038934654 -0.164452754404552 0.1627863722317577 -0.1627062705853361 0.1617295389454561 -0.16203634974038045 0.16157464029820925 -0.1643790297495386 0.16109727396170528 -0.16097370610627784 -0.16462313921461177 0.15651799131045355 -0.16630391247014262 0.16496278794450486 0.16035194298392255 -0.16162898987924426 0.16431376851969573 -0.15779387282928192 -0.16059987425317007 0.1639156490993413 0.1655196568536779 -0.16664177062144234 -0.16112194963318133 0.1611022373069248 -0.161858444117453 0.16007382168168796 -0.1609901207928991 -0.1613225347188053 0.15907364717342853 -0.15688949610458794 -0.1611659721645759 0.16403776156734362 -0.16421636594480352 0.16224029779959379 -0.15992342684280939 -0.16193135667909683 -0.1609298900406229 0.16638151472065546 -0.1629343943381878 
ISZERO -0.1962045726676367 0.19703068399553203 -0.19858145634352567 -0.1955038066943838 -0.19986794371050756 0.1981292978857684 -0.19385469950627823 -0.1978786109794771 0.19584239993355415 -0.19640063305014324 0.19788532369013762 0.2006899526139336 0.19853154101889425 0.19571650218215475 0.19488550419105377 -0.19213667000300297 -0.19897002274336503 -0.193698111669847 0.1950453835351565 0.20127676082753349 0.2023965984248833 0.19818604898174863 0.19958059267995537 -0.19702906640129364 0.1918262014378729 -0.19318912620601184 -0.19787655977597948 0.1898549961871515 -0.20362728654626952 -0.19598403332855713 -0.19935173135140913 -0.1980258423315007 -0.19741990859410571 -0.19875205105216193 -0.19951274238705544 -0.20048213057777356 -0.198829500270746 0.196840486012922 -0.19717591889619332 0.1967247550704814 0.2003742117638583 -0.2000874939671004 0.19413279164390607 -0.19383102422796716 -0.1961417441750429 0.20097407822536864 0.19551341065216632 0.20122695168564653 0.19155551919114625 -0.194687424955263 -0.18911566369645655 -0.2018868787812636 0.19146718281626215 0.196103264867015 -0.19574921819285948 -0.19843425289418729 -0.19996810504658752 -0.19203806716057598 -0.2016170394723954 -0.19691823241080672 -0.19605432570186998 0.19911331440486904 0.1952903764158827 -0.19504476734715046 -0.19625140258005633 -0.197413551152278 0.194330603588004 0.19761285298518916 0.19234390732095263 0.1983236994315571 0.19640925896269762 0.19440919087662467 0.19237163511318203 -0.19829510113815021 0.19826785663269939 0.18800031251377208 0.1891961933761867 -0.19686580260281378 0.18754714753414392 0.20097086951234513 -0.19893307995630016 -0.20010497222994328 0.2000119764437016 -0.19906140214880513 -0.1861997255977613 0.19704555984605926 -0.18829409573812825 -0.2003537302214919 -0.20041643290959205 0.19694615445994473 0.20133565352049523 -0.19139676856735632 0.1945349159430124 0.19059674450876585 -0.19009395692747602 0.1989711958921395 0.18873570166773285 0.19970271815156126 -0.20198008696535777 0.19381112097954253 -0.1973282559423146 -0.19986591633394554 0.19524763573202852 0.20094414508330713 -0.19878864152898026 -0.20074442585320407 -0.19521627327547267 -0.20250003506231662 -0.19123580867222095 0.19589197147955997 0.19832128570395116 -0.1935183312902318 -0.19474120278749973 0.19489364872864176 0.198537714558767 -0.1968331226890617 0.19964159914687749 0.1972121498739672 0.18894872044510785 -0.19070825579606687 0.1936689581586574 0.20079377169645327 0.19376548889337503 -0.1932564056584454 -0.20163097304912042 -0.1991790842469588 0.19591791771071324 0.20222337957081163 -0.1993408340429387 -0.19347850969706926 0.1976428259892742 0.20270311908157373 -0.19714815802869626 -0.19924470367421063 0.19727648297130884 0.19601066480313073 0.19710621582415344 0.2006027105092959 0.1970289308676981 0.19793090762460686 0.20024966046638795 -0.19926291013727418 -0.2005446712132888 0.19876537423200072 -0.20007001365514435 0.19817395058357756 -0.19804653411046916 0.1943555836033046 -0.20011411133719287 0.19572077677479782 -0.19644890199380574 -0.19709023777253748 0.1907699332180418 -0.2006039388261825 0.20016723707806783 0.19263676656493595 -0.1968235752975296 0.20063554429553393 -0.1930087409811486 -0.19179102626106104 0.19598225207504313 0.20124107472877928 -0.19672684591526246 -0.1943699836269087 0.20071757848281338 -0.19502917024778615 0.1956456190820336 -0.198059027211493 -0.19746473876558698 0.1997373282595392 -0.19160076103787982 -0.1937430483547376 0.19642919017075805 -0.2012887097299419 0.20073778618251328 -0.19647239373708889 -0.19672086089668883 -0.19574240784069905 0.20162176555968053 -0.1974703625222552 
JUMPI -0.1869061915394595 0.18688231938522873 -0.18808615811191276 -0.18487213632440577 -0.19141006845594774 0.1895800428811117 -0.1835054328117226 -0.1904459113479618 0.1865425350901416 -0.19153489012009906 0.18925062248153068 0.19085646368334783 0.1892218839606566 0.18375108261393858 0.18464197842630878 -0.1831584872319147 -0.18718745150142688 -0.18756610056746512 0.18656800805139306 0.19247291071711986 0.19325752725728 0.18375218631771464 0.188286555214854 -0.18838536744664808 0.18286311215568074 -0.18218142443590266 -0.18839197886882028 0.1795297078474588 -0.18985563952260787 -0.18906319126847332 -0.18787833219461594 -0.1833868695828632 -0.18622322599212843 -0.18729100959179154 -0.18854541629309376 -0.1903717441604 -0.18595076428572377 0.18514645370417843 -0.1858726549593109 0.18518895630854965 0.19216972224319856 -0.18784458317537517 0.1859023543621058 -0.18570870186344582 -0.18573268643356605 0.1870024800451458 0.18862185380642488 0.19059324828129687 0.18392994292783454 -0.18763118251019226 -0.17964470028714505 -0.1881040190359301 0.1840448259580777 0.1854647844742787 -0.18923866823299296 -0.18758884078644492 -0.18716940377411878 -0.181717046947995 -0.1907249468369777 -0.1868649538597783 -0.19027575235587718 0.18953893894815416 0.19046962150453037 -0.18601250584070145 -0.18706151659470333 -0.18648497462807548 0.18559887684239734 0.18908016821791487 0.18384407329090088 0.19030521027450611 0.18616942965351022 0.1876838414441863 0.1836432874426652 -0.185424891640427 0.1882322286012536 0.1778732006848942 0.18272231610454231 -0.18922058056750507 0.1782068162000602 0.19067917441458584 -0.19127283081295351 -0.1868491531768358 0.18513152420495224 -0.1882621842088081 -0.17897528616923733 0.1856739922553071 -0.18112826205355542 -0.18750943255139368 -0.18982430098900743 0.18308564172128994 0.1905063771977098 -0.18166995740663652 0.18359082619431322 0.17763303069323425 -0.18171162516218017 0.1882690720488081 0.17864038521012163 0.18665580696663833 -0.1914417048813535 0.18435409645934353 -0.18497009607168607 -0.18805620893556296 0.18301361275865394 0.18979597582554164 -0.190523282909879 -0.1881402104779903 -0.1847661811931702 -0.18862689499306712 -0.18182113817182874 0.1853935931116985 0.18477726630432031 -0.18649895651168796 -0.1868963867120287 0.1866013896067673 0.18397877216640987 -0.18314865214022172 0.1907881529567023 0.18795919581446907 0.1790988640169374 -0.17936129344372823 0.18634017109117526 0.1869992281666069 0.1857608601444299 -0.18349586975097953 -0.18907776962441072 -0.1900030880353485 0.18294138071063348 0.19012720606612787 -0.19078691365335035 -0.18525926453155656 0.18744679501918615 0.188266152327164 -0.1878509068990038 -0.19185793418749947 0.18942072136485222 0.18797331206443016 0.188976286207187 0.18796926083630033 0.18582549622251038 0.1830792313930148 0.18891758430431713 -0.18642563264206743 -0.19095241708309807 0.18831629456865598 -0.1908816654810961 0.18614533101913547 -0.18721218004490406 0.18856578346212707 -0.18846887197329057 0.18907323965334863 -0.18876976955692223 -0.18997774742218645 0.17997915458673222 -0.19072486428596128 0.19182366735125206 0.18570408176291683 -0.18901517329741524 0.18917501136120898 -0.18103237619149487 -0.1823745609681683 0.18853882426045573 0.19011430558030543 -0.18991213173376756 -0.18453798572778257 0.19010665093707257 -0.18812021705409215 0.18436143663287755 -0.1879264120932033 -0.18601580236758974 0.1845653043842026 -0.18491541095093864 -0.18367334524909212 0.18917390215496388 -0.18961421429649908 0.1862047821899962 -0.1881900025980921 -0.18605801925701182 -0.18667429298476945 0.188612218804109 -0.18704547782744946 
REVERT -0.1840822032518902 0.18389599242090784 -0.1852102416886433 -0.17843430655457576 -0.18349318841312556 0.18581565280323634 -0.17930557861538085 -0.1853230078998449 0.18522112285132528 -0.18802975257792198 0.18622211645819176 0.18415432322385156 0.1818895383995263 0.17919752915712717 0.18318392253012172 -0.17920461896566237 -0.18571739050598401 -0.18145173298608308 0.1819361681270937 0.18420612066096648 0.18924821379378698 0.18296891090959888 0.1872911622629647 -0.18670692407429632 0.1815377196558391 -0.1802153548373322 -0.1809175551102774 0.1775354675513772 -0.18925713931432936 -0.18206119377123917 -0.18031825930843742 -0.18121890177824845 -0.18614841207549998 -0.18809832505922397 -0.18288492669011716 -0.1833999964025903 -0.18304670996268266 0.18430293980126072 -0.18382511566872 0.184833678464379 0.1863945403594329 -0.1841252566853412 0.18148175124050742 -0.1817610385757437 -0.1841044801058352 0.18699595353493362 0.18352525924430682 0.18354546368215122 0.18081746506427607 -0.18442165290531362 -0.17857322169026132 -0.18880900738283313 0.1785205432677119 0.18485304397202412 -0.1825244657453833 -0.1851210070255273 -0.18681011105132234 -0.18133844962539436 -0.187828207677017 -0.18175737174685283 -0.18326450840406824 0.18733723613037417 0.18652393495293115 -0.183237082655982 -0.1855305573964755 -0.1845793382014411 0.18060663013664496 0.1825266405999531 0.18061541751659863 0.1842792011845666 0.18473004808777496 0.1801214725341439 0.17806127080652756 -0.18325906676918632 0.18735610271465875 0.17425750155485492 0.17555691347436045 -0.1850463319935735 0.17428328893343062 0.18737600175635444 -0.18928649912619852 -0.1854447735332219 0.18686666908928298 -0.18163209043746892 -0.17534468060624542 0.18307153600128226 -0.17716668915733935 -0.18500229230603896 -0.18306469527666017 0.18080790473797592 0.1856095794769473 -0.17967121771979122 0.18396549210507843 0.17870452633624018 -0.17486859495989676 0.18653793124251927 0.17882384427521328 0.18494840498252899 -0.18493005424647335 0.17984961607504824 -0.18299142394408754 -0.18612267920220227 0.18010782448151064 0.1823379793008288 -0.1857467188264838 -0.18414428033367272 -0.1812397376582716 -0.18861687388063464 -0.18262175016570617 0.18579412874339754 0.18468618255704347 -0.18093586083767124 -0.17899918984852506 0.18100042645001949 0.183122085097606 -0.18222402205888122 0.1851329357391345 0.18248723040615641 0.17858819156748434 -0.18049587568524006 0.18214805847036855 0.18501121602899387 0.1830575561748822 -0.1817924698806484 -0.18831863450535125 -0.18282751799417454 0.18209506258715494 0.18855983740633925 -0.18605340811536722 -0.1823292006973036 0.1850742174896703 0.1886329898681778 -0.18098421023566344 -0.18557792044778706 0.18831831280082498 0.18157798301598158 0.18640369381080918 0.1857972648794892 0.18398365245593457 0.1826117538711721 0.18403850957119824 -0.18598844533949288 -0.18269092953122407 0.1822124923612076 -0.18721707815151753 0.18158541505904982 -0.1824190709960686 0.18370728139262688 -0.1835540421427728 0.1853929728210575 -0.18571472189154903 -0.18525066491307102 0.17389540043126303 -0.18831404298718207 0.18891495771965114 0.1826272727965028 -0.18406621059189004 0.18647984199407175 -0.18048770425992983 -0.18269047441855657 0.18471323662785794 0.1834829357456611 -0.18643317246843172 -0.1849274741554955 0.18387047220637298 -0.1854308033951667 0.18224874922724937 -0.18328992105712877 -0.18329543268031634 0.1832344797295079 -0.17924674249403236 -0.18217421331923322 0.18443334213657903 -0.1829329726397003 0.185141786807956 -0.1856128708089312 -0.18352228840497598 -0.18208808042072605 0.1862467284581861 -0.1821682899580571 
JUMPDEST -0.19539573385637446 0.19866973948354336 -0.1954743358783464 -0.19659271851285806 -0.19928122352265307 0.20202912226548425 -0.1942897335172288 -0.19904054496415816 0.19592370060007164 -0.2013411503954643 0.19889437498257706 0.20167594395722085 0.19966145344080638 0.1961005349820171 0.19804498672072285 -0.19537204092643654 -0.19791118025528293 -0.19741940197092084 0.199954098495587 0.2018115527477536 0.20400523635224405 0.19794018044241957 0.19798501762940493 -0.19874755631620677 0.1956916155246923 -0.19589074528812989 -0.20051204966860503 0.19351066053209773 -0.20312852810214554 -0.20180536799483087 -0.19689922372835067 -0.19894645395987787 -0.20069636164932642 -0.2018704070278583 -0.1979250333182707 -0.20172563537183721 -0.20095915145925458 0.19764511111156693 -0.19908951216676343 0.19777606303232473 0.20143909261571877 -0.19708072674556315 0.1996732036875964 -0.19794951079549303 -0.19977490406506732 0.2024460497252624 0.20167061749138132 0.19883838685663574 0.19288591738526525 -0.1965484078434488 -0.19175611634443884 -0.20071036968699527 0.19182337704311822 0.19731706445669397 -0.19711934253262448 -0.20003088515319514 -0.20190767632901868 -0.1971112178652387 -0.20266261686634318 -0.2006540431660444 -0.19966355989655926 0.20247598074773346 0.20062128659312853 -0.19454832268828423 -0.1972896686656057 -0.19826120239737685 0.1973038534711931 0.19907481635305366 0.1932734758511337 0.2010132734888882 0.19862830650101526 0.1971804637557546 0.19130741299706264 -0.19852972300757044 0.20220253985218936 0.18982573839203865 0.19025955944069048 -0.20242147754004494 0.18938106324759052 0.20311711515498743 -0.201494528429263 -0.19995580631410464 0.1989214146807909 -0.19780485801542697 -0.19039368953645644 0.19766201280295487 -0.1900530293648882 -0.20191943955065308 -0.19901059250220218 0.19868233759587345 0.20188314510020872 -0.19205939800423688 0.1967928453048896 0.18773555527352295 -0.1896374333769404 0.2006379549992335 0.19117446725450657 0.20174421955565336 -0.20397121183996322 0.1956811398348201 -0.19687037114602998 -0.1987584198824936 0.1937353166549829 0.20000100896866435 -0.20004402599025217 -0.19830468066959003 -0.19643612116909145 -0.20418996910597975 -0.19570626550913017 0.19937040130301936 0.19803336131964308 -0.19457846627334763 -0.19665547434228756 0.19722610316252742 0.19911960513435353 -0.1965671493740885 0.20243331656052685 0.19937242934943644 0.19131598664119573 -0.19169166451786782 0.19740541167163952 0.20077692368480804 0.19773842306214004 -0.19568885900416624 -0.20135467636259993 -0.20166507749122406 0.19785664205717915 0.2054940273438195 -0.20138437978275056 -0.19709845167605974 0.19903129478010098 0.20206634643421867 -0.19595324829094662 -0.2035759126794824 0.19945712611178457 0.19710028100813434 0.20233020444250133 0.20231740584919483 0.19870519427634575 0.1971442643949313 0.20073795755416982 -0.199470812587222 -0.20212111298225174 0.20057942669152534 -0.19890015749495293 0.1990785035437093 -0.1960991232769032 0.198038475846803 -0.19958092248772125 0.19664450790146676 -0.1973034209140306 -0.20176546230300227 0.1892431289597432 -0.2027907163143347 0.2035338799355463 0.19467995979212782 -0.19754335971779288 0.19787006679306393 -0.19690567741108655 -0.19435002016393269 0.20189017273454007 0.2035517523422544 -0.20262116494856972 -0.1994336348866956 0.20190089532975475 -0.20037344317416214 0.1938062756189898 -0.19792056186544427 -0.1986103289434107 0.20090104239720757 -0.1970189492266469 -0.1955344876654501 0.19817139132341077 -0.19910053162743102 0.19905561002590896 -0.2000470074856336 -0.1965851769423765 -0.19588333938474775 0.20343333804408711 -0.19508391382640064 
CODECOPY -0.14792279331336086 0.14756535805335963 -0.1483258664068092 -0.14606591214827244 -0.14917537463752864 0.147175293288223 -0.14448613999976923 -0.1475484692288284 0.14535859433011267 -0.15100463533416575 0.14913773516608458 0.14692676656195264 0.1451363658378201 0.14415661721595469 0.1423946459537067 -0.14549038155887303 -0.1448064515545115 -0.14415644079803144 0.14576482367840893 0.14863666921805355 0.14957550699193647 0.1452057279709171 0.15050966383025477 -0.14658906105972386 0.1417480952004772 -0.14349811367076235 -0.14874971139379065 0.1401609219459216 -0.15025871204453445 -0.1497751963046809 -0.14460742304007335 -0.14617590729713664 -0.14649461540741668 -0.14824124435430913 -0.1450129519828285 -0.1489769081879159 -0.14667348667842525 0.14776834760712806 -0.1465924606288567 0.14521191059677815 0.14704989261892742 -0.14463234620479615 0.1447036667489586 -0.14580120029691332 -0.14677304769958466 0.1493090763780994 0.1470232925303297 0.14567152014114257 0.14052214885189923 -0.14790795967362613 -0.13991450016452034 -0.1484442797815366 0.1431772574104446 0.14622628809376914 -0.14696263161578396 -0.14607858730537204 -0.14892013598117707 -0.142972530725157 -0.1497614951576063 -0.14692619049602623 -0.1501115342718397 0.1481211397397342 0.1490932815450949 -0.14408372347972292 -0.1471396453621505 -0.14836956320965994 0.14302020153534237 0.14881520801592035 0.14353158180441886 0.14540693853463105 0.14837714202119193 0.14380242829494894 0.1418534737236888 -0.14339800461747773 0.1456091609564041 0.14160936834697022 0.13801999628860168 -0.14902895326588558 0.1409188748060723 0.14941267620189858 -0.14907487314778956 -0.14970484933191786 0.1449795102167876 -0.1467521900421276 -0.14009688454698724 0.14744343029794968 -0.1409659229339383 -0.14642766012253108 -0.14822896670279662 0.1464286767312419 0.1506744124580328 -0.1441912790417025 0.14698593883156238 0.1423060179961788 -0.1438995675220135 0.14900504738982864 0.14043698033940508 0.15012067403203133 -0.1470449477213845 0.14685812306796034 -0.14326026293633445 -0.1462514741846991 0.14391729623263036 0.14771440290154783 -0.15018827298963275 -0.14877032951191949 -0.1454357742817175 -0.1503503831217024 -0.1455121764775917 0.14820160967931098 0.14755125363721963 -0.14447380012592118 -0.1423962512009638 0.1468649286698647 0.14538004185398617 -0.145738574846552 0.150089723152086 0.14444931956454976 0.1371904482041916 -0.14512546076706156 0.1452446620128622 0.14711725587180052 0.14654398934066107 -0.1457856777059132 -0.15028126443662385 -0.1484726805227229 0.14476830750122022 0.1487029209389424 -0.14795965324780766 -0.14462746520390204 0.14636242496725466 0.15065531957131725 -0.14418312790137386 -0.14894665763344864 0.14670947976958418 0.1440588566190743 0.14965321931015368 0.14677702318490193 0.14440054103299632 0.1467729680275677 0.14865192287167456 -0.14743401636625536 -0.14546457540606242 0.14452159411306953 -0.15098070350161188 0.14422785001419586 -0.14773232634781075 0.14538698487042565 -0.14827122636024212 0.14341288319313664 -0.14438634718009025 -0.1461511539935819 0.1413964235119881 -0.1475146230290799 0.14657703673145692 0.14301897021581975 -0.14728373702577244 0.14471295185932917 -0.14304773395103443 -0.14492192331932102 0.1478739605911816 0.15124946500965197 -0.1503810316603205 -0.14695791470443353 0.14770130815793367 -0.14815816641477647 0.14431208468269408 -0.14334783023122596 -0.14773455192384388 0.14407693349411804 -0.14441450242379167 -0.14695541862872902 0.14860881891143232 -0.14992040467436055 0.14758513009825727 -0.14647196984047892 -0.14677148353836866 -0.1465458138336235 0.15034879467601658 -0.14376675193675958 
RETURN -0.1611087175207742 0.15745994556392953 -0.1601315011906237 -0.1566073386733074 -0.16274462066353199 0.15907875129822632 -0.15577335730464167 -0.1607953555006518 0.15836325393641307 -0.1590845614787991 0.1603413131311831 0.16103333751897478 0.16019789895233486 0.15794964766838457 0.1581702472082442 -0.15610661505591875 -0.15790618538449422 -0.1585556635502753 0.15767970956738625 0.16314852179469014 0.16005734327916568 0.1576981504160925 0.16313837361849537 -0.1613239932736897 0.15690751161632355 -0.15565047680449462 -0.158460639196095 0.15295879365911758 -0.16237925863751218 -0.16136607100643593 -0.15840529319050253 -0.1556132424084769 -0.15993817688170744 -0.1628299850119217 -0.1615685014588834 -0.15870377832720675 -0.16194563132199127 0.16102606671371833 -0.1574805626466316 0.15977090754507897 0.16056604368904737 -0.16106357342761699 0.15855103067787044 -0.15895825652943277 -0.15740430922887996 0.15916301982369915 0.15871261547485563 0.1599258864227377 0.153335653693372 -0.15593680994470424 -0.15109978958236647 -0.1635387150392273 0.15606911651974223 0.1590313628234346 -0.15828091247220807 -0.1579186299137258 -0.1617925157586747 -0.1575155002086161 -0.16290912081381606 -0.15927649248934514 -0.16393197156499367 0.16290892637722953 0.15767031185322836 -0.15724320939912 -0.16210257126588193 -0.161736870645632 0.15489887345909237 0.15991295273959188 0.15618363891336842 0.16016226984293647 0.16009158734052087 0.1558018787515954 0.15422912639347133 -0.15817073604524173 0.1613340827037069 0.15329726360976814 0.15227180415753183 -0.16255698226616552 0.14892340601278928 0.16277734101885183 -0.15965021381229433 -0.15958322469543582 0.1598484785023196 -0.15982883195823955 -0.15020949136755088 0.15775529806587504 -0.15293242586205602 -0.16058317152446194 -0.15853030666462792 0.15510196343191673 0.1623811221997368 -0.15642010345784646 0.15794204004701318 0.15160080322596478 -0.15321514731451774 0.15833363655782878 0.1539591774193506 0.16150235238241262 -0.15927845116431721 0.1573554194201909 -0.15596029673356507 -0.15752848890407145 0.15775109073748103 0.16208375792131938 -0.1618425782695412 -0.16045791279780464 -0.15594590786442247 -0.1627228334881544 -0.15658577041775157 0.1622034752765043 0.16085683848474924 -0.1595271604773573 -0.15624240658131672 0.15768632975231403 0.15724313867928663 -0.15870122142836207 0.1614149605054634 0.1565537079436317 0.14906642687548735 -0.15706675295715233 0.15907661293806002 0.16007998212235364 0.15899827195243904 -0.15957749623608392 -0.1606284242365145 -0.16137490459936332 0.15603661985693296 0.1639587446259732 -0.16284404019962312 -0.15806427156345823 0.1570520862327891 0.16305909837549476 -0.16133071278410233 -0.1633698909932355 0.1624830473919036 0.1566325356385983 0.15838266460218173 0.16218062948269138 0.15617912148262825 0.1550730173678303 0.1585372289822043 -0.1603080583084276 -0.16257356426506045 0.1613932431633562 -0.16275595797009462 0.1566792177214152 -0.15777009586255597 0.15946068548600223 -0.1628232299390538 0.1567439713371137 -0.1613907868097638 -0.15773464806374546 0.15076785278194277 -0.1612126175767673 0.16058906916445717 0.1577789033582755 -0.15922895239772744 0.16193228858403325 -0.1558411375678572 -0.15607690894730386 0.15859228153132515 0.16371594476697274 -0.16313249904073493 -0.15967823954848118 0.1601243870085154 -0.16213361093861056 0.15544960725088666 -0.16037318432433334 -0.15561432077451484 0.1591864331455552 -0.1554136200264697 -0.1598278169024296 0.16298592411311344 -0.1631217254460059 0.16164057977510513 -0.15750194447988974 -0.1606204414986679 -0.1593145616463514 0.16337188397205582 -0.15932648940855776 
STOP -0.1771161452218446 0.1808718948720127 -0.17673255555656991 -0.17475230926790164 -0.18047132786875777 0.1767750692712698 -0.1768005670429399 -0.178763285808886 0.18021772623941024 -0.18238981834693627 0.18062452538881196 0.18157775613560206 0.18024650297118358 0.1727421810823295 0.17411250822647384 -0.17682296460813626 -0.17869857388526023 -0.17457292543536237 0.17519605609506653 0.1842303573387248 0.18424594887807882 0.1794394101057567 0.17793805827516118 -0.1759102525160864 0.1740647651994976 -0.17379506872668773 -0.17777798844211212 0.17034967669588494 -0.18164645537620766 -0.18093567416618653 -0.17631276559391465 -0.17558456093841715 -0.18155782818428365 -0.1831093714169244 -0.17889848225419627 -0.177076979677665 -0.17820765364475397 0.17899455452356092 -0.17644493039683268 0.17553963414212845 0.18251725943517025 -0.17831641398945344 0.17975671260028064 -0.17644751514661086 -0.17997102589032798 0.1815448367024618 0.17682418008172837 0.1773968555906628 0.17040462059728545 -0.1770880245660059 -0.17184605062650976 -0.17993503409652672 0.17549615015182884 0.17853225053708927 -0.17809112150036205 -0.1763657141197557 -0.1810310981391519 -0.1746947035571086 -0.17873078667806733 -0.1791011296809331 -0.18039323172690597 0.1812208964282029 0.18113047483797476 -0.17701483560893908 -0.17807556883967837 -0.18056442410427648 0.17308997611002352 0.17541929550813556 0.17416111847638452 0.17706825853829586 0.17614478102258693 0.17701139322683995 0.172197967992886 -0.1758101538191242 0.17816607265591042 0.16922228832811792 0.17209632209318773 -0.18179569560596393 0.16874617848404275 0.17836435530297004 -0.17840194645600194 -0.18134879515305757 0.17907963777948824 -0.17752681627416747 -0.1664119340381678 0.1756530173748688 -0.16930161463694032 -0.1825293362853956 -0.1770095857770988 0.1762159674671426 0.1829501302252648 -0.17235851882992143 0.17448989558811764 0.16778517865474 -0.1717058787369177 0.1818584712821281 0.16926902016103326 0.1789103829626402 -0.1784558920828093 0.17430880189040332 -0.17708058568466434 -0.17565795090664071 0.17377360351343393 0.17810818725711763 -0.17972250013002786 -0.17871048775633416 -0.17499652977809818 -0.18090225243853986 -0.1725700474551347 0.17801037930361377 0.1772121623917159 -0.17820554876478462 -0.1767413906581378 0.1759691517109582 0.17515624055203874 -0.17411603418902327 0.17976160575622752 0.17662387429514353 0.16798040724461147 -0.1750562142323682 0.17580472700696553 0.17752749330391404 0.17388755319686275 -0.1773100539900198 -0.17924622109807922 -0.1769018037651775 0.17446316867768574 0.18183892384071304 -0.17764582417483318 -0.1783687894439465 0.17506561308279806 0.18341806466226074 -0.17535448575640125 -0.18222830909375648 0.18257509448618506 0.1754287791684788 0.17996595827670372 0.17990525597324913 0.17573833250571105 0.17799687296785455 0.18138664771273905 -0.1811241262010607 -0.18145564037224685 0.17653791174985486 -0.1801011882034482 0.17896204243160144 -0.17702694071178787 0.1743888670372134 -0.17815792198716596 0.17721824897512656 -0.17838090441298368 -0.18181735845880462 0.17055229999949084 -0.17960707328627948 0.179350202960424 0.17597155595115363 -0.17680714899455607 0.18012495741479662 -0.17336473975084382 -0.1772718394426703 0.18115696795029546 0.1826729251032532 -0.18079295645232848 -0.1790073912313213 0.17791724374895293 -0.17914288993105418 0.17415326196613268 -0.17904618563492852 -0.17691691631964307 0.17658468118052245 -0.1761543304359901 -0.17493468977420426 0.18030779085023152 -0.17812317018306917 0.17845027446358358 -0.17504810828764072 -0.18001423113978554 -0.17576914735196422 0.18216003611494933 -0.175003748617159 
CALLDATASIZE -0.14148377105473844 0.14285220005909122 -0.14150067676488254 -0.1355961807243322 -0.14166209564825943 0.14256007588685143 -0.13523723356357362 -0.14191744892506017 0.13991471330485994 -0.14327153244441693 0.14187366149850905 0.1432171650829482 0.1388290717745287 0.13607716087636224 0.13729550632635884 -0.13611555391611882 -0.14303389128493624 -0.138177174854381 0.13755695077207056 0.14098198278431523 0.1454254693618909 0.13770200961075332 0.14119002338473774 -0.1392496900344957 0.1360323252538765 -0.13867019324289587 -0.14232150854335976 0.13637767936647166 -0.14286351976740969 -0.1422470110584417 -0.13942325164385755 -0.14122992855035268 -0.14366434313466683 -0.1427801204239118 -0.1411446381058453 -0.14300197582560265 -0.1423870790711479 0.13847574453689904 -0.14153267025361058 0.14155616499916204 0.14459242680391152 -0.13806284817318126 0.14058234812471684 -0.14073753671965544 -0.13993537316364407 0.14370622920882742 0.1408761910955631 0.142771337111524 0.13695485909410052 -0.13820092593708813 -0.13250277479584793 -0.14418931333366927 0.13502661132570806 0.13758568121073175 -0.14089119002448647 -0.14182890449409413 -0.14090242681231635 -0.13748630418933916 -0.14155591686099792 -0.1422829589874759 -0.1433865824685429 0.1418610408773137 0.1400009906070457 -0.13720352869253055 -0.1420545212282649 -0.14175706705199181 0.13688828988647878 0.14146479976517293 0.13569374116645344 0.14226292863659065 0.14240176456585252 0.13805069536169068 0.1382001635683083 -0.13992695501965724 0.14405149384517155 0.13415334446522895 0.1340298715524137 -0.14433093966638885 0.12997850370525904 0.14123603047868222 -0.14127014223223106 -0.14343122189713045 0.14099909555609533 -0.14288128345117931 -0.133047094582975 0.13864972461486633 -0.13326894685188925 -0.14072746206395395 -0.14082475757044394 0.1385463418232568 0.1440776058331763 -0.1349760506705991 0.13716112455897048 0.1340864376648789 -0.13621817712089915 0.14367820267360074 0.13607213068367235 0.14395927974331846 -0.14286080414270988 0.1365027953751139 -0.13767555211531024 -0.14256208081094285 0.13667675632784607 0.14230021142487156 -0.1434987335759587 -0.1405313872151531 -0.13654789519094454 -0.14399338280773247 -0.13990492557099518 0.1392902605773023 0.14099251608247002 -0.13816079587666338 -0.1401984182603477 0.14031507473642826 0.13745300830082513 -0.13658708697610256 0.14030075680363296 0.1399241517382723 0.13199309772817808 -0.13686527605485937 0.13980194749812433 0.14219648823748218 0.14016850829256192 -0.13849045656657996 -0.14309506369449723 -0.14174012439194061 0.13846299785395857 0.14342922420570578 -0.14343092160307153 -0.14023142721428106 0.14097600251189168 0.14444540573969222 -0.1420597125469355 -0.1427043192036319 0.14105185220324437 0.13809408932123005 0.14257802914540663 0.14253263947657488 0.138834538352505 0.13591060600436008 0.14165666104254665 -0.13967284826115817 -0.14279433134603978 0.14010736833933632 -0.14301810157775313 0.13963912621346958 -0.140593195291514 0.13946215864487085 -0.14281753618164805 0.13720698168527123 -0.13958968855108325 -0.1430439286255181 0.13264435371996386 -0.14148397515574224 0.14230458176211125 0.13691280367782874 -0.14225243870785645 0.14134137151460743 -0.13893519886033173 -0.13646475103929537 0.1405421764811141 0.14356082828211253 -0.14415162529005074 -0.1411625403143114 0.14092156988706708 -0.14192553241157221 0.1363137582909786 -0.14067580927288256 -0.14081447472528635 0.13862984612194015 -0.13617683501009809 -0.1406335948553443 0.13982193199218704 -0.14507816945050797 0.13930246170141522 -0.13973663858124957 -0.1407325325991339 -0.13884759868690477 0.1449872464698438 -0.13966054858536142 
CALLDATALOAD -0.1551332297854521 0.15570540351619427 -0.15865197605930378 -0.15169539235445154 -0.15684553695328843 0.159284536073198 -0.152830940539487 -0.15645924074299966 0.1564082444133535 -0.15819352853045743 0.156856817919696 0.15925088416247118 0.1556670778300528 0.15423149911236864 0.15518813034148837 -0.1530580350287692 -0.15697296641321676 -0.15792182598924598 0.15744941200126894 0.16087958938096014 0.15841062077619772 0.1538737793034205 0.1574846095568693 -0.15918543820965886 0.15191578825741747 -0.15278221420484753 -0.1548060791977856 0.15368446986540296 -0.16141068114082832 -0.15806490902840406 -0.1560485773437192 -0.15397212574259853 -0.1556893713545291 -0.15991332981617162 -0.15579616705694266 -0.15920572280052595 -0.15802929304900945 0.15456840122435125 -0.15611593715505517 0.15885610821852178 0.16146685191307222 -0.15882588732959718 0.15411805845726115 -0.15623079854815736 -0.15432625625308968 0.15960214965358782 0.15575068667148795 0.159532450151214 0.15160654319007122 -0.15360802645984092 -0.1509652460976832 -0.15834847448385553 0.14948207891264642 0.15607097659234662 -0.15518745062254635 -0.15820757199591276 -0.15705968845576776 -0.15297756141199334 -0.16016443998712873 -0.15618110219576078 -0.1579519612502838 0.15695967182784465 0.16021943431914573 -0.15491993813637348 -0.15924752054538366 -0.15959100979799834 0.15349006729961126 0.1556831755823693 0.150364064655425 0.15809778680236256 0.1561379091416688 0.15528385450470056 0.15462343936975081 -0.15397510201595754 0.1605394571345197 0.15182668317780584 0.14931902003100045 -0.16047131121724992 0.14680417501720927 0.1584462328877895 -0.15873619520922852 -0.15639933466072306 0.1586701889980842 -0.15910368517358517 -0.14795685034729666 0.15396249753098676 -0.15050211761717464 -0.15643550949187637 -0.1585464098140172 0.15238532436750032 0.16157408235622542 -0.15371868185397997 0.15767799820633088 0.15258049088586004 -0.14965926216671382 0.1563760561370453 0.1490608402688131 0.15801088223299353 -0.15844677946191074 0.1527093570163792 -0.1534164096434219 -0.15447533432779195 0.15298052845174057 0.15811853652596253 -0.15660545926957825 -0.16045719170361633 -0.15382639717734273 -0.1573986177497515 -0.1513680898134913 0.155742400713949 0.15495411078259064 -0.15649778688052887 -0.15520397569488834 0.15950490318289995 0.15590663485541714 -0.1545787370110891 0.15917849470773893 0.15481741544217825 0.1479261655804353 -0.15151077864939927 0.1538667177212482 0.15836833008399903 0.15467816314802077 -0.15279204338049834 -0.16037117387655972 -0.15956788817444637 0.15778774098853934 0.16057822797366325 -0.15673132119925387 -0.15711603648416184 0.1548894741210282 0.15898058405305468 -0.15895712449991792 -0.15888572160034745 0.15824228149874217 0.15408652184853916 0.1566163237279629 0.15802488353706945 0.15775466698544735 0.1536671044940569 0.15637801553592648 -0.1597623154430347 -0.16032929692908468 0.1587103325601783 -0.15991184200302044 0.15880379216684742 -0.15407618455597133 0.15707249741522378 -0.15948841202572098 0.1581127457969818 -0.155244039984052 -0.15626735658609384 0.15043607928105018 -0.15969748423146732 0.15686026639714845 0.15606857531677623 -0.15860327127824544 0.15686016423379176 -0.15414817021263663 -0.15515504242584133 0.15829993818689908 0.16005565027624705 -0.16022263582604374 -0.156267298343903 0.1567744035293429 -0.15822838609538153 0.15535123710582735 -0.1569061644644456 -0.15304163066289325 0.15743570362587372 -0.15268357473588584 -0.15889341570826387 0.1603653006153062 -0.1611453604085874 0.15669354593796234 -0.155583858447999 -0.15790536429832572 -0.15433887859873022 0.15957211373706273 -0.15764646539312427 
DIV -0.17251762004180202 0.17027275143422324 -0.17056588534769168 -0.1680507601135237 -0.17025911220757378 0.17032079390210156 -0.16583536503885563 -0.17332877812219952 0.16973771743489502 -0.1727728441677832 0.17189328087260763 0.17501344322257706 0.17100277933441482 0.1675725365284578 0.1666739719634379 -0.16451424077098298 -0.17030443385913396 -0.1719434087725969 0.17259374282228923 0.17389676753175962 0.17602948839859608 0.17173518067646482 0.17504878471197885 -0.16957774373413725 0.16611423513135196 -0.1666651956720602 -0.1730863354726815 0.16780951433789615 -0.1747694189364294 -0.1724691964391872 -0.16821437896789732 -0.16965300787631007 -0.17064850235193416 -0.17603106269397265 -0.16900331180018507 -0.1716642686668121 -0.17108224323439936 0.17056944446402938 -0.17096580503349582 0.16904651893831113 0.17290371405722454 -0.16821796618969473 0.17210618820375959 -0.1707883615789734 -0.17296189682269164 0.1740823964173881 0.17035727007911883 0.1707859709729095 0.16924629478178405 -0.17293933635192166 -0.16238183322536603 -0.17320048602222937 0.163935042079029 0.16839350917533416 -0.16963743071615695 -0.1688018472825584 -0.17076557332917805 -0.17064757204186495 -0.17504534253652212 -0.17133052933381904 -0.16967253754466008 0.17256830492949352 0.1727021630041509 -0.16942433966089257 -0.1688653499665199 -0.17191772679569126 0.1694696636074619 0.17091181222748184 0.16708728968253925 0.17188289174423496 0.16820741543098888 0.17140833771976777 0.16823643445176129 -0.1706378794161174 0.1750374678229358 0.16344927610705914 0.1662029942227578 -0.1741086362812412 0.16100742690603725 0.17130362947561745 -0.17660050603312671 -0.1714519419758199 0.17256439087810313 -0.16928549124458558 -0.16540901977196754 0.17037140107310839 -0.16357790037636946 -0.1710860041459827 -0.1716675140927095 0.1677817515996494 0.17600253120576717 -0.16876220254358318 0.17020980271124128 0.16352525528589146 -0.16656152601485885 0.1707220286052439 0.1674748163699471 0.17144734255793836 -0.17430663726629972 0.1707487581689771 -0.166827369426159 -0.16970443352613176 0.16513126019766705 0.17401157449571203 -0.17154327362675958 -0.1727939980810042 -0.17053437440528257 -0.1762285197015336 -0.16705768550498754 0.17002548470510948 0.17210497683035647 -0.16895925186086191 -0.16996253188071603 0.17023328194984827 0.170248480785176 -0.16984603365260104 0.17062265325693313 0.16808238086036964 0.16409415302182423 -0.16460065077281513 0.16769211116939406 0.17262573728727143 0.17047514782809634 -0.1700890550816236 -0.1712242771528754 -0.17027489189031766 0.16767183637828748 0.1763319554856499 -0.17319934335976442 -0.1685582127354229 0.17226134394148096 0.17557167811438287 -0.16908437632402196 -0.17239157514239856 0.1717199944664568 0.17340229425567594 0.1745332563532185 0.17107076681416625 0.17188385827797606 0.16675989948822517 0.17384626012305854 -0.17126341163024852 -0.17211421216842035 0.17075791616660704 -0.1700752077249098 0.17295397217191957 -0.17064090358053643 0.1713973512994983 -0.17406831471517284 0.16956857924469085 -0.17243810738959334 -0.17074319735294344 0.16255723899534327 -0.1746553819511968 0.1744756831881067 0.16700039209598205 -0.17097491359867417 0.17206194427866722 -0.16790180057528273 -0.16750061707377242 0.17207636119528114 0.1713137092283251 -0.17358880047806083 -0.17129597848122033 0.1704357800775595 -0.16970758836848723 0.16667309167250136 -0.16901775008164843 -0.17017937718747894 0.1722088661017837 -0.16864046607485783 -0.1715169617870164 0.17322698558292118 -0.17267735356208866 0.1720534788053334 -0.17058570624179376 -0.16975860530537537 -0.1714564562793382 0.17635354007504195 -0.17103219541625556 
EQ -0.16591765364556368 0.16594344201849137 -0.16598028656440336 -0.16033768296205642 -0.16553714808210215 0.16712643682824246 -0.16156263896283787 -0.16661355104848768 0.16729992626562712 -0.1665054750896656 0.16544785446755628 0.16748661910603965 0.1652730985735091 0.15942713551349827 0.16319256204921856 -0.1615397273009485 -0.16403707968592146 -0.16602745250656473 0.16640193766745087 0.1671549191303086 0.1684630981149362 0.1628962232957505 0.16623587822809902 -0.16780942379313868 0.16374037771665675 -0.1589156347118745 -0.1660297209833616 0.15925375644891188 -0.17079334931347795 -0.1673834009052364 -0.1663862614241214 -0.16441036405713563 -0.1678970714861193 -0.16569480377681264 -0.16383126462920025 -0.1678928500800497 -0.164265003446541 0.16270654564247347 -0.1637724936280447 0.16842160896283512 0.16727371414466272 -0.1629558347050409 0.1625884030328404 -0.16548912831452675 -0.16555739363418848 0.16658584625094672 0.1660695982043279 0.1632304808043913 0.15915951028062258 -0.1659102975407608 -0.15857769548004103 -0.16533672545324973 0.15889202941882818 0.16649262096639145 -0.16686722534855292 -0.16561778248760348 -0.1646436272047097 -0.16210320566132003 -0.16987924433361215 -0.16617911076699032 -0.1644894294530016 0.16879615319090566 0.16835190820116894 -0.1626804797452321 -0.16501192427680417 -0.16643388876581733 0.16243968263904165 0.16464992553290356 0.15960075400354332 0.1650287725406321 0.16636729811672057 0.1621335967474453 0.16316561265529478 -0.16311386110252388 0.16753357235067012 0.15860424824583552 0.1598033058476296 -0.16942828920983155 0.1576443809328574 0.1700550197061527 -0.1703035391522242 -0.16494508963031965 0.16807949023728344 -0.16803727393251472 -0.15657213068543582 0.16358754537839518 -0.1574753438300484 -0.16885761880945308 -0.16425140379306918 0.1641007468448502 0.16847368998442694 -0.1614304827341761 0.16263476308366637 0.15992811104854104 -0.15881654274842988 0.16498908133446724 0.15731141024979764 0.16910108406447985 -0.16712128381802013 0.16279595441172648 -0.16119096816181247 -0.16781764417307235 0.16113956711292116 0.1673991891192272 -0.16823189349913345 -0.16645737861759713 -0.16000881258127544 -0.17038595220701927 -0.16414304202257257 0.1651747081928983 0.16460657203900417 -0.1655169657909855 -0.16065275189789088 0.1660679103988122 0.16249412926360046 -0.1635710066056045 0.16571661034553484 0.1638790535396295 0.15776081718909626 -0.16105941989262854 0.16245865637916593 0.16564731037790514 0.16299301548533687 -0.1648444472924501 -0.1686360691939681 -0.16483502960747795 0.16383979770226145 0.17038535308804847 -0.1656309091559583 -0.1634826794707237 0.16486174743269458 0.16806248088781078 -0.16584026732471469 -0.16653989078514395 0.16745974496935828 0.16581304312529474 0.1643256998330324 0.16805901211443897 0.16582482119480027 0.16314512431280115 0.16712332654399958 -0.16711942496170457 -0.16812986430794058 0.1637484685242233 -0.16788341072028293 0.16489942519231465 -0.16181500590405687 0.16348234595080077 -0.1652540460356167 0.16624171078138408 -0.16241503557966183 -0.16548246767418942 0.15584993836320868 -0.16645736452953683 0.1695315411484829 0.1631965844116442 -0.16613089179403753 0.1668937924368757 -0.1630024055648883 -0.1652585520202384 0.16812211125110194 0.16592970545698627 -0.16454025714360693 -0.16548704465086972 0.1680529842138233 -0.16452742565687875 0.16100988977939001 -0.1618424713097558 -0.16440974667029332 0.16323784303284591 -0.16268052475870357 -0.16693994519202296 0.1685734157592042 -0.16742496649386096 0.1679283911606695 -0.16649688406129662 -0.16412002168482104 -0.1652547063301118 0.17063453156894492 -0.16261592488012566 
JUMP -0.18480839041933916 0.1910497378168763 -0.18523833796666175 -0.18235997967034198 -0.1925581804080085 0.1893857307919785 -0.18503737181912444 -0.19076744965896436 0.1890378502997799 -0.1923577283837188 0.19013272218795618 0.18814174533667674 0.18740894955810786 0.1839679690547469 0.18602168697631713 -0.18608172531874878 -0.18526460416949303 -0.18722200015514878 0.18802625676453041 0.19075291827041388 0.19351612129130025 0.1867290888871648 0.19075233096466954 -0.1866315215842506 0.1835592353341399 -0.1830276951393369 -0.18570124944975056 0.18126809862455426 -0.19316276832384166 -0.19221086290625833 -0.18406938478000687 -0.18552240686487217 -0.19142787448459636 -0.19104972382936455 -0.18857500146958472 -0.18998547616351372 -0.1871245626901363 0.18722446254913816 -0.18587283263484092 0.19061066333997018 0.18853105460269773 -0.18800657437883 0.1857892855837031 -0.1846760769423807 -0.18896919007479243 0.1905401996868408 0.18685958511463024 0.19096398917116442 0.18043947834373145 -0.18744905982445023 -0.18077351683716353 -0.19184718208301688 0.18291317082264774 0.184649933963367 -0.18763643255626195 -0.18825309635280624 -0.1906014340146574 -0.18257616403102017 -0.1899896438655458 -0.18647788640286653 -0.1906121523127908 0.19156538967219552 0.18990222014232339 -0.18556688284030226 -0.18871238070710014 -0.18884030279003242 0.18654474321869327 0.18757786000345464 0.18315033215143445 0.1894087770462447 0.18789364230308192 0.1863222370086794 0.18146071475813627 -0.188833354705519 0.18947271975446017 0.17940298996457152 0.17927490883820746 -0.1909282608346463 0.17965032515879512 0.18965006273854404 -0.19200672014065856 -0.19146912061172897 0.19082447169037606 -0.1867221674647403 -0.17630694599815075 0.18735642378035705 -0.178481887867834 -0.187773383596841 -0.18892594642363894 0.18701691351232574 0.19314549072973342 -0.18159582367147908 0.18539801492585778 0.18068317272851833 -0.1835301649154897 0.1902325466079658 0.18145226122750585 0.18895947803211974 -0.1922309231706171 0.18763515440324266 -0.18745775601533035 -0.1879027025818108 0.18282107777126536 0.18897379687271257 -0.19218355885767274 -0.192258127340582 -0.18352193883454498 -0.19329073404797711 -0.18382790179431885 0.19034173297171988 0.18578666389103363 -0.18672772446034464 -0.18340120289513773 0.1899950930377912 0.18808672537098142 -0.1862686130318152 0.19223203249631501 0.1840855769640469 0.17950639000995497 -0.1847348424077442 0.1842104801998443 0.1900964231931922 0.1884406328588468 -0.18504191354557037 -0.18978383869959853 -0.19028653376810192 0.18542522341656476 0.1936947683686614 -0.1907104411860841 -0.18495080646773626 0.18890939837482548 0.19288741497116324 -0.1878487109671687 -0.1914263273779583 0.18746776381491437 0.1860826441312967 0.18930254526333218 0.19106871154521957 0.186231615514561 0.18576459249624475 0.18742014807637705 -0.18883040557060451 -0.18858158944322947 0.18950779423881856 -0.1900717534348509 0.18721845920751584 -0.18558495409233836 0.18509933614770419 -0.18838695260121893 0.18712232204880747 -0.1882728191984289 -0.18850369219495253 0.1777165997253403 -0.1905735882405749 0.1897179062033673 0.18440513204987963 -0.18531314572108473 0.1859783295355075 -0.18295561294592863 -0.18580588045750182 0.191402239310317 0.19175822007692161 -0.19043719717160051 -0.18625399995102698 0.18813474826183382 -0.18581770076570553 0.18613268364455524 -0.18863899945614399 -0.18389086833463664 0.18563675126154391 -0.1830562408062301 -0.18500705793302735 0.19121115008521095 -0.192106085252427 0.18957310593712937 -0.18770797002697104 -0.1883982844618616 -0.18492087409477845 0.1903813248420727 -0.18730929567250615 
MLOAD -0.18562401979644821 0.18925686102605774 -0.18598514725453774 -0.1858787339405378 -0.1877092072860354 0.1893741163765477 -0.18300987483302014 -0.18655577780794994 0.18638822261431362 -0.1905816855596021 0.18654151169968838 0.1900316798892775 0.18747177037427307 0.18531374171493709 0.18575189322208366 -0.1813382948744786 -0.18686427949113726 -0.18540074784015134 0.18806467201641922 0.19295514769863803 0.1935085625106293 0.1848645727408294 0.19008906943648787 -0.18908634695166943 0.1852733171088685 -0.18389655541168673 -0.18525455275898922 0.1792246462278321 -0.18890152498461676 -0.1884673024417905 -0.18891334239500007 -0.1849500570341096 -0.18809383872508956 -0.1925789249257462 -0.18986555057182952 -0.19160984569394116 -0.18970460866815195 0.18961291704740246 -0.18630394847890802 0.18840097254779015 0.19082127081995848 -0.18768911027730226 0.18444820682227486 -0.18683655616486297 -0.18667068192779593 0.18947583143172517 0.18834369696642994 0.19061863751711344 0.18416532178349976 -0.18809505855968375 -0.1801008170669376 -0.18842694469121973 0.18453484236336504 0.1861907922941001 -0.1882503208979816 -0.1856457453225734 -0.1889504440476652 -0.18463458221924292 -0.19054886260276477 -0.1890856809118834 -0.18724122888032346 0.1866219325744855 0.18812962217135967 -0.18307789939245267 -0.18978062573416332 -0.18489874161759542 0.18574003121235208 0.18837468495142579 0.180787582173242 0.190014209826652 0.18797303324114045 0.18341333211549896 0.18324008261018168 -0.18665866887186874 0.18981189130430542 0.17953476491074213 0.17941262219548385 -0.1874494383246348 0.18045782062414692 0.1898260373916037 -0.1914576035339561 -0.18980318483104244 0.18837253558773584 -0.18623767795945076 -0.17972976414415487 0.18906891946216353 -0.18025781582703648 -0.1874586105283633 -0.18589543112465326 0.18699565595450685 0.19218706247121237 -0.18410801956258452 0.18826299048369843 0.18035888690136753 -0.1828363485072196 0.18750690631281414 0.18298388782059152 0.19031061529122373 -0.19102752092705397 0.18719699748341595 -0.18365769899773005 -0.18904658448994238 0.1861701270188897 0.189582199656981 -0.1908519306334469 -0.19113424743264149 -0.18155494886318208 -0.1928139190974987 -0.18485526013314957 0.18734802713170598 0.1888417271638897 -0.1840305420007496 -0.1845498974908955 0.1869484029245059 0.1854050405832606 -0.18711476626782314 0.18955906331229372 0.18488929458504952 0.18036417925921877 -0.18484384609390106 0.18495621240098492 0.18972284182718263 0.18779655450562455 -0.18831676593769123 -0.18845078508339538 -0.18999189397895716 0.1878076942734123 0.19311330791139455 -0.18954366862244804 -0.18411529956864356 0.1875690670465657 0.1888939279124703 -0.1858757765874115 -0.1888622797991194 0.18762271383074938 0.18864754878687076 0.1908021695844044 0.19061860509790304 0.1842774442304816 0.18382299144966485 0.18596581688489233 -0.18595118355046647 -0.18696968319317456 0.18915469644053323 -0.18959679509452243 0.18628536473843066 -0.1851370571887051 0.18762940475631415 -0.19108749496736915 0.18913642564588587 -0.18758880252649487 -0.18804434555779798 0.18156316239165937 -0.1884750078276885 0.19123829892963687 0.1851773749134532 -0.1862922128715836 0.18604315546325662 -0.18096667243730455 -0.18338959114049241 0.18957866237648274 0.19226424261461528 -0.19007966539736593 -0.18813571107978522 0.1866207216173062 -0.1871921285874404 0.1846089607441019 -0.1846710723351528 -0.18676354644028587 0.18785928228383927 -0.18249754034193405 -0.18848135274705546 0.18574306178124916 -0.18998777980507475 0.18938448294774438 -0.18804925588582208 -0.18952720025642716 -0.1877660761758335 0.1922452140186622 -0.18682579243412828 
ADD -0.19005884869048786 0.18960152665362093 -0.19050695782342073 -0.18637515399055424 -0.1899402828830297 0.18871370012853086 -0.1860227822476127 -0.1907675816571421 0.18969883172524682 -0.19209745235359393 0.18969520316376393 0.19344319958516498 0.18736778286847347 0.18638502420671332 0.18697390883269607 -0.18662970201679255 -0.19157419361548708 -0.1902698724195766 0.19018638629082074 0.19053513090187513 0.19200991207788123 0.1884636347066088 0.18954379946839595 -0.1904615869823902 0.18483872437780471 -0.1868904257562421 -0.18618706975060917 0.1850950172788335 -0.19104598474009163 -0.1911619357265581 -0.18967757908300195 -0.1868134258308619 -0.19262984413927509 -0.19122958027181805 -0.19037437860316267 -0.18922633049118573 -0.191746026401203 0.18746946787391353 -0.1863821274680998 0.19053789949487304 0.19376129499776956 -0.18940231953789208 0.18969675954010692 -0.18654822324837542 -0.1881100602185086 0.1888822742497718 0.18760683492947886 0.18833986415286894 0.1853150989413254 -0.1878829422393583 -0.1817476873770506 -0.19478446356230583 0.18270965497334352 0.189603643969593 -0.1892516188112437 -0.1884760512587178 -0.190259067091801 -0.18508714985130653 -0.1897561505633299 -0.19038323139021307 -0.19073399181219725 0.19124525139447957 0.18914540623991885 -0.1886019185410251 -0.19051769533735535 -0.18753307533861846 0.186847698306708 0.18711859633275796 0.18224601206036736 0.1914688551726579 0.18893903481869176 0.18643612975060142 0.18564375756331708 -0.18703587969078805 0.18966253954324194 0.18341969829572602 0.18006296685791603 -0.19094326503485679 0.1792235824931381 0.19369120084553554 -0.1945498962269766 -0.19263304344659027 0.18727202737003235 -0.18848206532691228 -0.18303322797770452 0.18864907505882092 -0.18140185633190886 -0.19374602132173208 -0.1898492242779122 0.18613966889602107 0.189780420323278 -0.18497963819278682 0.18707641869384034 0.18285219571614558 -0.18441415094837005 0.1927919084702368 0.1849555316518961 0.18991525469362738 -0.19212584800648433 0.18789584703835954 -0.18489880023114297 -0.18943206990939096 0.18536134243409355 0.19097919219327905 -0.1925482549679594 -0.19094816442025178 -0.18804669852398737 -0.1901707209302075 -0.18735398295961173 0.19201786083143835 0.1913851921269481 -0.18839489008834476 -0.18874893108541 0.18811252695583003 0.19071335177293852 -0.18547931194974845 0.1929354646938637 0.18961354705783232 0.18179113020594992 -0.18450389829179722 0.18541924572773671 0.19079272192266689 0.18659531773395652 -0.18864271622967232 -0.18923752042395728 -0.19080799591860284 0.18589181911859048 0.19126397014780397 -0.18839329223875004 -0.19052304127368458 0.19031546747770434 0.19064180598661942 -0.18697585192815183 -0.1908974776669454 0.19115915800309538 0.18940107400353887 0.1935349960783077 0.18981420260172216 0.18813781510933486 0.18538716532348792 0.18913539149118294 -0.19213998140735422 -0.18995486020079924 0.19055378287709934 -0.19185868294014524 0.187620671832918 -0.18751792235623566 0.19021375003026528 -0.19017369435757925 0.1873457012027367 -0.1877314697498782 -0.19145869551270334 0.18216432120516793 -0.19421515580025847 0.19156779421656414 0.188474099528128 -0.18811344736678734 0.18930352430753594 -0.1858751484275964 -0.1877022130449402 0.1914167398159813 0.1942058111728543 -0.19284468127197457 -0.18722217826848558 0.191888394068703 -0.18722705822091412 0.18659438948511292 -0.18893651172145196 -0.18622383688136254 0.18657931190612445 -0.1860604143666774 -0.1886323383165134 0.1888132736827837 -0.19027940166464868 0.19155407202140518 -0.1891853828715641 -0.18852645945079308 -0.18802448782306988 0.19377909143747554 -0.19014450748552633 
SUB -0.17558258791528497 0.1790673206091058 -0.1797163137224396 -0.17659399263695288 -0.1797748476158051 0.1798453296050278 -0.1749324241628103 -0.18120146766163964 0.17745901825163182 -0.18071382987051418 0.17861186991321323 0.17714765117608886 0.17544496354073982 0.17337336998065728 0.1735123944163837 -0.17195295328740118 -0.17796157872712176 -0.1743972829417862 0.17581136890968618 0.17965646156770246 0.17979908061970318 0.1780521854334649 0.1811262314251585 -0.18040927688834288 0.17575818591047712 -0.1730841506266532 -0.17785964081164804 0.1689651005283688 -0.1807134320707203 -0.17708433670955773 -0.17830876804996357 -0.17693646200007085 -0.17617386524933437 -0.17865513861187685 -0.17927128417479019 -0.1811464617103495 -0.17849305312502184 0.17637240564467233 -0.178705476589084 0.1766254562312466 0.1789396956224873 -0.17596908698839772 0.17921172713174152 -0.17609638913670883 -0.17678208621730554 0.179165902495026 0.17869945360874379 0.1772554853117842 0.17276898339597266 -0.17748194325808925 -0.16983209959419818 -0.1792422711998992 0.17479235812682145 0.17983870196281346 -0.17665870307273546 -0.1784174270553905 -0.17747375653497313 -0.176651773065814 -0.18135590062091475 -0.1754123324618735 -0.17713665929685934 0.1802803800547606 0.17954994423521323 -0.17683540805417164 -0.17821371836685254 -0.17524273749984456 0.1751920775581499 0.1799608064508668 0.17131394391509025 0.1775092697277424 0.17863898753066873 0.17723733876892722 0.17252638319436103 -0.17897774086710735 0.1785034604598574 0.17163004595183573 0.17135213711972794 -0.17872736297476297 0.1690636750371818 0.1784085254687829 -0.18118101679292647 -0.17640928877918602 0.17974020638845536 -0.17551006597193647 -0.16801030162344338 0.17603712389499634 -0.16837857414539067 -0.1773794382569495 -0.1784827181493764 0.17541224073387704 0.17960653322205802 -0.17369729189361982 0.17484398853877564 0.1701711284611906 -0.17250231571227567 0.18155588823509886 0.17268140062926693 0.178741779424941 -0.17739991486142395 0.17452083747106528 -0.17596356293393034 -0.17629513792674914 0.17317930249824226 0.17876032375947365 -0.17775793679024823 -0.17710404696034557 -0.17683705545110445 -0.18290812661368688 -0.17605320348124404 0.18030837849430625 0.17958895592460947 -0.1755680174640799 -0.17476085054303073 0.17945870857620133 0.1781989084506082 -0.17400375355851966 0.17978715227726572 0.1772359487468927 0.16838990899769224 -0.17129730509870966 0.17347776519791272 0.17961973489369512 0.17643806470027815 -0.17538335862650833 -0.17950392445841806 -0.17857930803971017 0.17674892922650615 0.18371559025243503 -0.17960291434401013 -0.17708729469235324 0.17638274747952762 0.17883996030951038 -0.17642605845974355 -0.1787617579097351 0.18115259038425727 0.17744717642049515 0.17928759491195914 0.17966019613337691 0.1738195278222721 0.17806009158045857 0.1800514692195268 -0.17718577808005753 -0.17879969867216935 0.17676612482144163 -0.17963266255906338 0.17693797800085623 -0.1778233724513923 0.17970606948486678 -0.17719407759877837 0.178375418799766 -0.17983025083220758 -0.17974329476079917 0.1702144568319949 -0.1802973610614325 0.18267345628573842 0.17372390035872387 -0.17496263349323765 0.17683359441409635 -0.17103744061515386 -0.1738351990207842 0.18024093849181563 0.18132912901476705 -0.18042654830168936 -0.17790725233470725 0.17657302298511823 -0.1764142012201658 0.1727229778077448 -0.1762358775769417 -0.17477686874206022 0.17729096775241843 -0.1718559293069661 -0.17651656672153393 0.17620139045466493 -0.1788688152336237 0.18097860295642276 -0.17566662011601264 -0.1772268765271982 -0.17922106986234773 0.1790423659883137 -0.17657370321581545 
EXP -0.16365875148316802 0.1672917267169669 -0.16602290977883397 -0.1648412472741931 -0.16879255573226398 0.1647308274347951 -0.15877316553164336 -0.16815184331628288 0.16346781828682663 -0.168562603784854 0.1667836345503011 0.16776217971716229 0.16362284254513854 0.16162280565135678 0.16482557790891583 -0.15912292854658983 -0.16416876462589802 -0.16439720018510753 0.16488405424512656 0.16789759030702658 0.1699560898272042 0.16323153435422386 0.16842836873175332 -0.16484161701432778 0.16060179512364292 -0.16052867816941518 -0.16404756710404486 0.16195111321650704 -0.17037015835511407 -0.16598097467298387 -0.16386121732207845 -0.16274011483357356 -0.1650032357496416 -0.16809327779256783 -0.16572530640863373 -0.1687805177971732 -0.16627827710769863 0.16656807183532957 -0.16164529656900925 0.1637687919977104 0.16588895504411422 -0.16524329434849694 0.16639524344399104 -0.16249807906093877 -0.16296350107559915 0.1640217676803761 0.16455570393442193 0.16371362943298953 0.1614568923480313 -0.16621703764623527 -0.15945498597706578 -0.16966681354634575 0.15741658445603782 0.1640316011365413 -0.1629291203773886 -0.16582978915804095 -0.16664517137237067 -0.1652797358205416 -0.1666118700578018 -0.16375997516446084 -0.16363431924799698 0.16688063866143577 0.1663410444974437 -0.16437270587928843 -0.16726888976526544 -0.16590881747448044 0.163468898153083 0.16265842837151043 0.1622150298194169 0.16468252572032915 0.16172454918629547 0.1647277994463884 0.1603637593197222 -0.16488583313390628 0.16704311885105846 0.16102483939783888 0.16025296626319288 -0.16510039443558952 0.15785418187698402 0.16932641613964566 -0.16695178407522937 -0.16841164673049627 0.16625598352322069 -0.1667185983125814 -0.15783634671486563 0.1628100498098732 -0.16155080610398947 -0.16845175382074062 -0.16451696255581652 0.16236150514922407 0.16652005565275552 -0.16254378917186968 0.16612125181370832 0.15870113657498494 -0.15668681767751896 0.16717824949102117 0.1615608981138722 0.16843695752576768 -0.16735130220791958 0.16610540682746866 -0.16080401018462648 -0.168000024457985 0.16140186690457725 0.16848829222971465 -0.1656372100476374 -0.1669887819195949 -0.16323266937658862 -0.16588356273418725 -0.16432263109379167 0.16825268637657917 0.16781529298627548 -0.1609430486126335 -0.16305414742292323 0.16641319723650255 0.16595377329385377 -0.16360290135861114 0.16496618608579927 0.1642755984754932 0.16087316268850763 -0.15962612622282848 0.16603222865773595 0.16810692200094418 0.16321481852021244 -0.16398203932882618 -0.16559349825105535 -0.16641609166887764 0.16578165538313835 0.1709124410067952 -0.16389192827275423 -0.16232393641719772 0.16550917395490367 0.16747239653895218 -0.16223649472374524 -0.16486559239120077 0.16805111714025714 0.16388837608550239 0.1677837676169038 0.16776790374872302 0.16256126476788743 0.16589482222142374 0.1681678739384899 -0.16812218408581414 -0.16545245532107145 0.16719738824936625 -0.16832293165243348 0.16627521956682392 -0.1639874068924978 0.16307493159829467 -0.16738524181563297 0.1671124553331174 -0.16434054740037632 -0.16578896666932033 0.15890010838810406 -0.16837846409082655 0.16663743128714756 0.1625540665235137 -0.16351713476021676 0.16617768914859135 -0.16208648752579505 -0.16251146618696768 0.1658615615659096 0.16891723979730763 -0.16928300418595627 -0.16178888378676823 0.16417085972090878 -0.1627607566470678 0.16144649309525025 -0.16391537497066974 -0.1629586721112768 0.16407178211601608 -0.16327018120668796 -0.1667328287421672 0.16736138752727028 -0.16785857395942605 0.16667505411730207 -0.16665579816033477 -0.16671982592659754 -0.163565020476498 0.1679786402413192 -0.16200706186373684 
NOT -0.16291256586624936 0.16215810959362362 -0.16392645489899307 -0.16004976553418396 -0.1637775343605699 0.16475042206457116 -0.15662904615113402 -0.16249509244934898 0.16258813689093912 -0.16318098555956162 0.16353599138498043 0.16534297661212902 0.16236341981216734 0.15606057670651632 0.16142620932854326 -0.15643534518445754 -0.15985164998830306 -0.15854722512235597 0.16203566297471395 0.1664741566733574 0.16484391748518892 0.1593575817773773 0.1619306305152705 -0.1631238405655721 0.15607635645235796 -0.15730808820167816 -0.15975001722685864 0.15558293598913617 -0.16737331509022604 -0.15967715542820562 -0.1601020857915617 -0.15704733384445932 -0.16355393414664016 -0.16559908387769665 -0.16241958056268999 -0.16300774496834344 -0.16142182584748824 0.1611274245705628 -0.1592808714561394 0.1630427494364207 0.1636061538568899 -0.16003945864200542 0.1629129974477125 -0.16207416675080658 -0.160701734952806 0.162062712094596 0.15993349716363273 0.16410369685129808 0.15878164642314294 -0.16008435858845704 -0.15303670331937047 -0.1639075847127823 0.15409724633845553 0.16161284675645346 -0.16089392135741604 -0.15984378175904143 -0.16191846289357345 -0.16212887957245894 -0.16507929518222847 -0.16368233083203867 -0.163217632694036 0.1650995601171719 0.16291368396335823 -0.15684851984467418 -0.1629682478102918 -0.16035672324181247 0.15997307988055334 0.1619527745532132 0.15525160646510025 0.16157404495441027 0.15989592506259423 0.16055217005954503 0.15627940404392743 -0.15928566610290695 0.1634449459225488 0.15677359191143983 0.15430852677984175 -0.1636216308372182 0.15128394986961935 0.16235864608666264 -0.16635789084423158 -0.164617909444519 0.1630504088445822 -0.1624332829906546 -0.15522738068416445 0.16041884402857332 -0.15650897196453978 -0.16333444495708185 -0.16199433661421922 0.15686245790996084 0.1629108983929409 -0.15634039758052068 0.16024831011464993 0.15575754359290148 -0.15427256653830193 0.16309622120816253 0.15809006455758767 0.1611739929545029 -0.16528788965718452 0.15990434624311492 -0.16042442803583135 -0.1621286858576139 0.15934305179281322 0.16191141051771515 -0.16090162467918148 -0.1608496956267776 -0.15952236390568864 -0.16555072032469947 -0.1565271484029683 0.16399300036784323 0.16259626348738584 -0.1595357698711257 -0.1593814613631734 0.16046261034053638 0.15943313466403947 -0.15937711830834647 0.16050420606807264 0.16152616942755232 0.15574336451071252 -0.15564812434812586 0.16160662357526348 0.16105772552803224 0.1628376126305285 -0.1607933376561153 -0.16542368459865894 -0.1631389332635324 0.16163818918366768 0.16712605526810925 -0.16056851973990538 -0.16256649837031528 0.16060412132729646 0.16477259286630477 -0.1599549112024399 -0.16216696037525594 0.16511922173108642 0.16336686634385375 0.1617588933842688 0.1624730667504765 0.1614899317268216 0.16125078455715136 0.16072727730713815 -0.16062043802026751 -0.16148619515006504 0.1599779280299154 -0.16536520972866448 0.16162426441879496 -0.16017024303644778 0.16296611831979063 -0.16344905298164777 0.16201649954323022 -0.15974273434687639 -0.15909642472676153 0.156802370353495 -0.16473903062383236 0.16347902398498004 0.15858303626749998 -0.16302314850516228 0.16205007785456893 -0.15910962870082454 -0.15861185260762078 0.16159793523881455 0.16324529812075153 -0.1636983693599204 -0.16250270933618766 0.16050532439781479 -0.16169985252188965 0.15642365916963155 -0.1601927110804076 -0.15769107454559933 0.16070260661367317 -0.15641029173016593 -0.1633624321762396 0.1644998957910126 -0.16555800323256967 0.16457864458794996 -0.1615862925529164 -0.16235729592486495 -0.16152063380711276 0.16670313172456208 -0.15930711316667132 
CALLER -0.16555789806865367 0.16467957094958782 -0.16533297269895175 -0.16366216682377205 -0.16824215068450657 0.1679235862668156 -0.15955618463711158 -0.168270156084482 0.16678985281600445 -0.1686042377888515 0.16556846175640785 0.16544697588498025 0.1665726895389642 0.16043313917673505 0.16213657584182856 -0.16236924171610795 -0.16559770760996864 -0.16464996312188532 0.16429937830702068 0.17022174192568906 0.17006085524150596 0.16598781733238924 0.16828129204541212 -0.16668037771220845 0.1610622616123545 -0.1598670995661549 -0.16403870224573922 0.15942939700601566 -0.16839394445907646 -0.1630970022309703 -0.16550508343825834 -0.16350910011023548 -0.16664864113936115 -0.16497546194200005 -0.16510702352551068 -0.16808507771657466 -0.1667323149386576 0.16363065666319315 -0.16454397536352341 0.16523001488960723 0.16886136322970305 -0.16286850493803542 0.16421063885480533 -0.1612685638615149 -0.16720868566816433 0.16894520380453507 0.16393531566316522 0.16405703413618514 0.16078393523724982 -0.16514566888674084 -0.1603587298485866 -0.16496443977169603 0.16106555760749422 0.1640657016654831 -0.16692936634326971 -0.16419210906330928 -0.16485504104292462 -0.16466433493470956 -0.1700810871655191 -0.16436545124130236 -0.16827342387375716 0.16985249054117718 0.16520859343276353 -0.16005278258426206 -0.16677566583145345 -0.1667425198515225 0.16246277093595443 0.16625822980614519 0.15945627466370085 0.16323190804203858 0.16551444983504882 0.16131638543504326 0.15841171442730834 -0.1629548881893621 0.16476893632207334 0.1608733577047564 0.15912626719241582 -0.1685060885105243 0.15924792466768445 0.16887749295571342 -0.16724937765777415 -0.16438521607580664 0.166716000316944 -0.1627692525415846 -0.1594611301564334 0.16613336728317563 -0.1589439320583578 -0.1671076393346401 -0.16732039382099057 0.1613105264050163 0.16867437878141361 -0.16301169563841128 0.1656157591300835 0.15849667679136842 -0.15723288144576358 0.16617457366814634 0.1620006091439568 0.16776879922241775 -0.16799093696135525 0.16574580052714097 -0.16175358122488243 -0.16615535884468444 0.16208681450309248 0.16430503175215191 -0.1659458789324102 -0.16825409215315631 -0.16063461159612744 -0.17020283295586955 -0.1631759121638608 0.16762611719001017 0.1634558390560946 -0.16432635528923867 -0.16395608318249616 0.16632149558350093 0.162193303667838 -0.16070221465115553 0.16695202629054787 0.1649360997390134 0.15906659865471556 -0.16031565343317167 0.16349463393052108 0.164598881741195 0.16578074517452404 -0.1639106424371235 -0.16427410693901884 -0.16644982947265588 0.16420547910475827 0.16816476830119953 -0.16619224831724022 -0.16530743348174992 0.16425763093340023 0.16856043536286058 -0.16622227775418613 -0.1655977226822838 0.16765253712934752 0.16429454692329382 0.16756486733665396 0.16638773315612107 0.16364102296592703 0.16333577652622985 0.16592813992037175 -0.16406082521260731 -0.16887223219252945 0.16419477307492386 -0.16476015474844832 0.16648609068733233 -0.1661392415882101 0.16378641227197746 -0.16855582256039411 0.16194651099938628 -0.16721480157214633 -0.164009355691769 0.15547428284064416 -0.16676760677027405 0.16819823251160618 0.16371383315194574 -0.16705695159313697 0.16561963140937205 -0.16020152154232384 -0.1653204682216824 0.16825022011144458 0.16802535349367745 -0.16900517195371023 -0.16530750189844845 0.16324460015722905 -0.16686199012186964 0.16005197510744132 -0.16310858111609222 -0.16280570913522122 0.16341888870345633 -0.1628484268637957 -0.16392683619636714 0.1654356919979679 -0.16801164002238894 0.16478930628200994 -0.1649046261559415 -0.1627258149127475 -0.1642090572447593 0.16613063593271696 -0.16143049586506897 
SLOAD -0.17498760709215344 0.175011297570494 -0.17395600643767387 -0.1747681458365824 -0.18120688432013793 0.1799124134573204 -0.17189984067930214 -0.17832068588560132 0.1753271282516868 -0.1800340535042601 0.1777164865251946 0.1774435280220671 0.17709337222036345 0.1753100254495756 0.17681393724557004 -0.17365698307526659 -0.17787662021287295 -0.17625362021063265 0.17550982928402398 0.17888513446210155 0.1813269473547419 0.17622936766176717 0.18156351266922538 -0.17819582158576128 0.17324688345914716 -0.17228116281601655 -0.1760874132116755 0.16959454271425375 -0.18269863596865554 -0.17551756942133187 -0.175156032153721 -0.17494738526810677 -0.17792069093494922 -0.1820720449600234 -0.17558651249648105 -0.18106291618985743 -0.1783610303917737 0.17824767498754407 -0.17517743900713614 0.17996913617275756 0.18054449282204102 -0.1753766385328381 0.17865063713641294 -0.1751541296521339 -0.1774789173068446 0.17590330126047604 0.1787301962616818 0.17873884556110048 0.17209728470026794 -0.17760885507610932 -0.17125025319136516 -0.18188586112913632 0.16901500107776762 0.17634383673261878 -0.17951411858207578 -0.17477115624636247 -0.17892166897405884 -0.17353625376583054 -0.18041186826209013 -0.17937154818822187 -0.1797989572068305 0.18206783422112566 0.17599832704851606 -0.17545396906839686 -0.1752306761826591 -0.17912661273499175 0.17422935759271282 0.17652457549547182 0.17192204565539038 0.17846302888122262 0.17821237483385038 0.1748572483951058 0.17227819299394517 -0.17596881587399593 0.1779393551086287 0.1694083748434105 0.1705532657359511 -0.17619157151743764 0.16994286828485675 0.18061469363974986 -0.18248737002779264 -0.18021053173296162 0.17851359118416593 -0.17465769950975063 -0.17072011300995418 0.17768449426861216 -0.17038398224087253 -0.1803946144957183 -0.17793446866292187 0.17401781078224324 0.17989073483286208 -0.1733884693181238 0.1770357193171539 0.16900386282358806 -0.16980684510890237 0.17735994520028808 0.1723787101666823 0.17587762355577005 -0.18174369394210638 0.17556723472325986 -0.17336425020620966 -0.17874898158893346 0.17260661855661666 0.17717701738074937 -0.18123436793632008 -0.1769168141002562 -0.17186665187751748 -0.17856969352568414 -0.17587523615589118 0.1765420491840139 0.17486768262095775 -0.17351584083067031 -0.17248152645683962 0.17602316632240372 0.1774554633466964 -0.17279864710193737 0.17959729590329976 0.1762313067099576 0.17008963875611624 -0.1740215242608293 0.17628030812665382 0.17764825328983214 0.17699741254519671 -0.17743850642550932 -0.18003147935220545 -0.1785726813416808 0.1731053025605685 0.1811227494326929 -0.17820683836566328 -0.17819314561580796 0.17876851988576808 0.17976221811384027 -0.17482540293873602 -0.1815863913939232 0.18155824164548218 0.17580065785732235 0.1791642918181701 0.17776782331317154 0.17667781224044388 0.17626078701425274 0.17566693711472303 -0.18041004205079847 -0.17861355344699972 0.1756541081908098 -0.18045010874788428 0.17422140203691666 -0.17598983406518104 0.1783944951251157 -0.17744558908352848 0.17532440700844446 -0.17815476776128197 -0.17609988395754947 0.16956478559230542 -0.18203199793222724 0.1788023914776674 0.1761584221597829 -0.17624940603589684 0.1753354736224878 -0.1714340573705943 -0.17436451368700137 0.17764747039505852 0.178356803006144 -0.17837039507986815 -0.17334080907409302 0.17908664752548145 -0.17740690935834766 0.17350186836512838 -0.17395757399001174 -0.1757191077934368 0.1777886184017722 -0.1755747742785914 -0.17832399284874997 0.17901934193080543 -0.17816090434774542 0.17956857174353139 -0.17582245162192156 -0.17857584246164476 -0.17455817270187665 0.1789448905632471 -0.17623502366430258 
DUP10 -0.13048922319664064 0.12864548153865224 -0.12925487761379936 -0.130102025658551 -0.1292416339937146 0.1309912494979428 -0.12663264554249756 -0.13022443551681312 0.13057167398306022 -0.13372226512030974 0.12804906271880903 0.13288586930929377 0.13041649189651922 0.12573997419619687 0.1301226510976428 -0.1259965231036306 -0.12798472019335663 -0.1297668990847215 0.13035387480065685 0.1333759988636876 0.13514737488030806 0.12776970453416456 0.13351896947853634 -0.12847725585486175 0.12831225950612388 -0.12404975793132687 -0.1274095049221357 0.12517905947183236 -0.13322637128553544 -0.12847086283713677 -0.13026341327847749 -0.1267538046233886 -0.12876028349135246 -0.13394397280242165 -0.12860125698899846 -0.12914596733129602 -0.1302740924177135 0.1298100190121273 -0.13001891347763284 0.13160874262875952 0.1332185567921937 -0.13088201754632156 0.12902129043721777 -0.12933664554676028 -0.1272784785717896 0.13173465887830502 0.1277404873349334 0.13133620553876954 0.12812845757157593 -0.12749260564021156 -0.12412632848315634 -0.1326780506317785 0.12402187770673673 0.1319362718108164 -0.1275552316518453 -0.12784641834321378 -0.13175030915198546 -0.12886473056079267 -0.12981588216391476 -0.12939344676632702 -0.13039810947447064 0.13224593067494358 0.12931983709039346 -0.12549238880140517 -0.12771181631111345 -0.13076005097390267 0.13018442759305943 0.13186934240090706 0.12491339976083192 0.13130356078230018 0.1268918720758126 0.12904012199329803 0.128300571121998 -0.13043547966153968 0.12904041042815748 0.12506723865883035 0.12508436959818708 -0.1291102083992081 0.1253200455912704 0.13236225030401183 -0.13366456315445296 -0.1282540384375471 0.13197358243011179 -0.13045699082654136 -0.12337479243885688 0.1304591984160506 -0.12371250796177304 -0.131136472559499 -0.13227305263650183 0.12889072897377396 0.12951192096198186 -0.1241536308154916 0.1315444253212843 0.1232647572365618 -0.12572431362710534 0.12926826790966273 0.12599676283900954 0.12985055269726425 -0.13227612518064316 0.12960042592433996 -0.12506857464352136 -0.13148919658082542 0.12822819471333924 0.13046817706747058 -0.12934218298654068 -0.1318732076204193 -0.12570180999792563 -0.13281867184432983 -0.12628484432600567 0.13190858261524976 0.13207371579072566 -0.12754842308351974 -0.12788148940968927 0.13108337429990424 0.1269288194820164 -0.12900582994782547 0.1301926252818053 0.1273569076846636 0.12489661128767449 -0.12560320303961267 0.13025345181646503 0.12870288678393427 0.1277922834255254 -0.1259042953998376 -0.12928140352561143 -0.13032097701600165 0.13112180767756335 0.1350843300799352 -0.12868450890324845 -0.12945094777204572 0.12839668764794748 0.13081830337868 -0.13130372147264008 -0.1322321598695636 0.1304877333645677 0.13067119894425056 0.1334685043039724 0.13329291465212478 0.1310560380919593 0.1271553712601046 0.12785861337345195 -0.13067442438533292 -0.133526719006352 0.13103496825306957 -0.12890627112853534 0.12809794566493862 -0.1281359877544181 0.13209924185580266 -0.1325078707261754 0.1301529906397967 -0.1293592393469774 -0.12913634970251767 0.12177501632548188 -0.1332361998680452 0.1330629324888673 0.13014216164077544 -0.1274017445746291 0.12783973257932388 -0.12511845908127409 -0.1286353051370707 0.1302046850192035 0.12916001407786024 -0.1318931308563904 -0.12899483842885642 0.1316946996612274 -0.13133892183871895 0.12644432661211472 -0.1297899228521383 -0.1291758285789347 0.1302244398114701 -0.12927784111693483 -0.12870760602373854 0.13186792626635194 -0.13237232329524926 0.13345741205625614 -0.13223921148190815 -0.1286110848209678 -0.12700453979876644 0.13426392466093556 -0.12738365544624794 
SSTORE -0.1707497686698846 0.16819896577134677 -0.1704841908411816 -0.16492350704556635 -0.16952997378444742 0.1708214749138256 -0.16488693771277174 -0.172381851632636 0.1717196015196678 -0.1730205749294967 0.16867447900039229 0.17253780544641995 0.1696200398050046 0.1641742285581995 0.1687781825900909 -0.16329667649748555 -0.16759425843626824 -0.16940874393673927 0.16963604891690412 0.17148070492163175 0.17482822062920744 0.16680770061039982 0.17381505999216879 -0.16896981076433323 0.16613316551532842 -0.16479823756173634 -0.1685741841778897 0.16276068141272013 -0.17344226078913297 -0.1679743712855065 -0.16975098795715451 -0.1681850672545607 -0.17251229237092036 -0.17111902001269944 -0.17177185297384487 -0.17142992266106966 -0.1710978688607718 0.1712870777627902 -0.16847950907090176 0.16941790043018684 0.17284871915723385 -0.16781851219381377 0.16623836831591415 -0.16789252895752696 -0.1711061246923113 0.1730691634695874 0.1689052493419275 0.1693388004277342 0.16741540792010914 -0.16835166321853726 -0.16093192891011926 -0.17127989717674702 0.16437658026406085 0.16802998561464583 -0.17148578039905074 -0.1698586801646393 -0.1688805640090396 -0.16753074266917847 -0.17223904629962775 -0.1717616123886227 -0.17010082323404074 0.17412251029727943 0.1703892837452717 -0.16500227142978785 -0.1702953160557913 -0.17061115029710303 0.1664238449950757 0.16840875608524192 0.16367335604736222 0.1687239988665576 0.16674338126289784 0.16576969393895652 0.16689829910089427 -0.16624196655529266 0.16925179681068966 0.16281165371124892 0.1626390781351091 -0.17184517032229898 0.1595010415390119 0.17307246063036189 -0.17368189250960192 -0.17011901107282457 0.16953978960488583 -0.17196134539985128 -0.16021075688006822 0.16734618056882894 -0.1637847584409729 -0.1697191062141117 -0.1724305467495934 0.16594622375200882 0.17258028551068647 -0.16568712231263485 0.16972037649556962 0.1605195512170541 -0.16593065363994117 0.1686120783330941 0.16337711014818765 0.1717667148667272 -0.17156544492566997 0.17017440115257754 -0.1656596686871336 -0.1704146587099072 0.16662226029586708 0.1706212009138624 -0.169041576152992 -0.17257318367867722 -0.16610020096808223 -0.17354602285661253 -0.16488834918679063 0.1716049413536927 0.17175172774624792 -0.16572330010736253 -0.16819219878923325 0.16690794329402406 0.1676972852404789 -0.1663551636608674 0.17003826952462608 0.16782080366739144 0.16075958971598994 -0.1634380258456711 0.16879133053179887 0.17106534341564159 0.1670457854507698 -0.16774903662086002 -0.17242936929411576 -0.17097776970271567 0.16989522892943348 0.174745255298433 -0.17188935422179222 -0.1694277164337068 0.17050202754477423 0.1723466636403035 -0.17021619163069177 -0.17291354600486872 0.1692903975513225 0.16708436674785307 0.17112559593733706 0.16908741565293975 0.1687272988669271 0.16710814035118243 0.16812801567142552 -0.16944373780809283 -0.16967342481282155 0.16843856996975978 -0.17162848910262968 0.16849176108736294 -0.17037966019498926 0.17076851291242393 -0.17314979292158358 0.1705095598121003 -0.16687248077138428 -0.16966617294540048 0.16190531667239402 -0.17272486726203765 0.1704600325052584 0.16843802604546051 -0.17061339417716279 0.17189194681053324 -0.16741347858001496 -0.16811675196734527 0.1724127115339083 0.171364296449969 -0.17176598679841423 -0.16620598320158997 0.16976011166348823 -0.16964750106909868 0.16431125344409156 -0.1701909576504972 -0.16950733763475942 0.16797727060844864 -0.1686731500343191 -0.17009512902731136 0.17029064953781578 -0.1730351805309375 0.17191526327533077 -0.17042955009159322 -0.17084359823699868 -0.16749375237480404 0.1749899141681875 -0.16724485648438445 
ADDRESS -0.1531904961143488 0.14949684814940462 -0.15283642973290334 -0.14904920048382334 -0.15332857602260064 0.15375575514780776 -0.14870719147043523 -0.15337807410789978 0.15361115501753508 -0.15343863569768307 0.15144442395049063 0.15085289405715505 0.14953746945579002 0.14620139164269372 0.14702258303735202 -0.1458972832143319 -0.1526191532784477 -0.1493252789597664 0.15074668692945134 0.1519613408625645 0.15801957043610937 0.15161760005662503 0.151750499831314 -0.15455804684299174 0.14631563222499788 -0.14851518159508145 -0.15364345494655435 0.1454961495838128 -0.15654771659983874 -0.1519757360563993 -0.15003200074418555 -0.15140659622667677 -0.15191572534718398 -0.15432240590097165 -0.1522254585680734 -0.1545311602691549 -0.15505736363543168 0.15358783822652425 -0.15156050459698453 0.15293684372530447 0.15344187768536255 -0.1530343622340241 0.1522787083322489 -0.14919224025052563 -0.15385682656948563 0.15593645383418747 0.1511144818910848 0.15306697688121343 0.1495208851884271 -0.14974351024187352 -0.14338468935950893 -0.15631209991797732 0.14567140738952622 0.1515796482056767 -0.15126801320004238 -0.15124178886886713 -0.1546185730178172 -0.15149344387607547 -0.15660431496585128 -0.15390715846591263 -0.15324344321988834 0.15564214972917242 0.1530050379224798 -0.14924305057859336 -0.15126833488299504 -0.15151939004418677 0.15158795277032922 0.15321759359385306 0.14525474034877664 0.15191034224220074 0.1517789258638495 0.1501144597307388 0.1450910882024278 -0.1506676961834278 0.15585925857046154 0.14386116597856455 0.14538413834137623 -0.15452457019527863 0.14265614535784496 0.1563052982830244 -0.1563776748488996 -0.15355921078944207 0.15272277007776125 -0.1524603750668163 -0.144931896203264 0.14840551485466233 -0.14572978349735324 -0.15319501668489527 -0.15391500292424243 0.1498046596060324 0.15180105601870497 -0.1464861168803475 0.14857382807785072 0.1418185447120986 -0.14544837985578285 0.1521084124634403 0.1458930011456612 0.15513251876105252 -0.15591177926700853 0.15014686810210479 -0.1468467689569915 -0.15459359303862266 0.14866826193654142 0.15312222350360033 -0.1535420087272047 -0.15533705657005958 -0.14822613811130017 -0.15662570848804777 -0.1492687206977851 0.15359124719728154 0.15351776974008138 -0.15017374757370353 -0.14675991742326452 0.15046989499255498 0.15090764375401935 -0.15174196891562056 0.15100889978222368 0.14990973314944306 0.144836860161075 -0.14682057348373448 0.1523785551993967 0.15217331842330287 0.1507926521863429 -0.15138949741608057 -0.15275325777699655 -0.15477703178366312 0.14799507099660045 0.15540996428788384 -0.15476294906723012 -0.15034308100298244 0.1516232906000461 0.15252963612962755 -0.15034293709274676 -0.1515476626454412 0.15536985242598217 0.15345180165455727 0.15355648569606598 0.1547934962409509 0.1501898739944062 0.1512018127427532 0.15333050215425076 -0.1546766702188152 -0.15180323489421688 0.15257110789639472 -0.15258882303381244 0.14991959561177395 -0.1510191354394583 0.1519836092340351 -0.15206520475171464 0.15156318959913787 -0.15418857840496328 -0.1531226224266471 0.14216457153145395 -0.1517994869880544 0.1535659815213822 0.15042843754176705 -0.14974954576297367 0.15152761492735925 -0.148554281863247 -0.15088938139708025 0.15165367099765262 0.15457531390776397 -0.15199801807151234 -0.1494875020411396 0.15275404978045445 -0.15225208088622114 0.1467327916031909 -0.14968965592859074 -0.14957639015803378 0.15048477949139946 -0.1496745435324465 -0.14991570872073523 0.15110282215102971 -0.15368007165900274 0.15266174577119285 -0.15078351609729307 -0.15088555380014593 -0.15135687349949906 0.15318790703782417 -0.1497313535030129 
GAS -0.11434614059810076 0.11621533225253355 -0.11471303715245015 -0.11085723572126653 -0.11677261535702338 0.11808168751565723 -0.11348238350625056 -0.11665919578375201 0.11528103767396884 -0.11735853930727108 0.11621789639468579 0.1176783051392424 0.11614510645453757 0.11434753597514713 0.11493746523649302 -0.11217966178844839 -0.11504574323736093 -0.11494549239909695 0.11465997801171125 0.1154141626879342 0.11714158965275097 0.11669896294455319 0.11599964639024314 -0.11776838517739269 0.11143536765214443 -0.11096106371143019 -0.11729305384289247 0.1111275922664994 -0.11935676288411327 -0.11418345381847184 -0.11242047806549958 -0.11423115805124284 -0.11826187532483505 -0.11442873756452553 -0.11374316436243877 -0.11601094253471732 -0.11385468794573715 0.11440662162399004 -0.11668886120443579 0.11486412809290163 0.11812121550529718 -0.1162612334786125 0.11294976815140943 -0.11373881387263088 -0.11359214657547853 0.1176350682197876 0.11715001146587498 0.1167042064224863 0.11280815635925727 -0.11578133914440178 -0.11260346268843628 -0.12017609891807488 0.11443367707735855 0.11416171538420425 -0.11283720668396845 -0.1149170111951012 -0.11827263299153665 -0.11104551930699541 -0.11944440799633459 -0.11560416234808121 -0.11392868776465483 0.11485678174359712 0.1158933557249885 -0.11306206072798161 -0.11467831737948227 -0.11480758721668484 0.11478113162762206 0.11517758888720135 0.11198059312292567 0.11558026581626873 0.11558378271879642 0.11542162534163508 0.1112369270062598 -0.11598477329385763 0.11833241409879147 0.10835424623817154 0.11226142746712647 -0.11849977085452984 0.11119245385821648 0.11436319766392655 -0.12073530190331223 -0.11554213710874299 0.11554001784955929 -0.11471389598979014 -0.11188483206073123 0.11687670961637964 -0.10931038981248417 -0.11574040928490191 -0.1166228365866525 0.11495395846777058 0.11633893562047469 -0.11356457389238524 0.11485162618932081 0.11079086117772916 -0.11069410430480389 0.11709147224491322 0.10816959635772637 0.11858043598984767 -0.11651844643788468 0.1145575427067827 -0.1159754055498639 -0.11701390353353158 0.1151309997338955 0.11581989880861393 -0.11894288703010569 -0.11668232974599974 -0.11151248542395505 -0.11857715797057879 -0.11473461275755673 0.11787923715664488 0.1136307235254214 -0.113904516300862 -0.11584913848900365 0.11451059184390036 0.11369888932501113 -0.11369580706686115 0.11842354997842212 0.11735124145858984 0.11293779665082307 -0.10918365765344963 0.11147251030092048 0.11712729601540073 0.1144608840562234 -0.11281846277798561 -0.1192611170136208 -0.11372114021053183 0.11262526664619915 0.11663315482353649 -0.11883617287732427 -0.11222412793857231 0.1175357486909989 0.11758403752062246 -0.11552609868190768 -0.11921350852819625 0.11850242300758526 0.1138852046217892 0.11689196449825866 0.11740303656310758 0.11395853339982169 0.11619828851600564 0.11593079494530148 -0.11365388148944645 -0.11473628161255572 0.11822280078534933 -0.11685596390374317 0.1158594948452668 -0.11637393260904731 0.11511115959328223 -0.11797216631941262 0.11806813470000602 -0.11323818562435173 -0.11815931754389321 0.11068642268766307 -0.11511228771753776 0.11960394094900903 0.11070350319352736 -0.11643871907219451 0.11686576265269247 -0.11421646374414003 -0.11220942660604398 0.11665796901998887 0.11652284328547667 -0.11651291566517483 -0.11707917419117993 0.1179222268479122 -0.11582084811446808 0.11274040908242494 -0.11493847507561034 -0.11313786344595149 0.11437562211110097 -0.11512589838655672 -0.11484270719374542 0.1149914440288114 -0.11384348426248 0.1187683840692392 -0.11431362225771344 -0.11275919784457324 -0.11725807494050318 0.11556369181506032 -0.11584601832345551 
CALL -0.12131428161260237 0.12125393195964221 -0.11739679112960985 -0.11615092756831234 -0.11957053246863393 0.12259307438377627 -0.11569834885013648 -0.12210693227001337 0.12200390918877911 -0.12124760523696095 0.12170812027659435 0.12058356597855419 0.12137799756651661 0.11918942182065265 0.1204388140589493 -0.11915336720887831 -0.118140083505238 -0.11833317109891289 0.12148452440240348 0.12200497054068331 0.12035855855863764 0.1177636027765415 0.12249222665215802 -0.11881222316655854 0.11903590275864599 -0.11622036830581552 -0.11953260285745254 0.11674039139364627 -0.12381400720683348 -0.11979297345829984 -0.12001373138702787 -0.11858069514229312 -0.11959141166446549 -0.12276941779907334 -0.1211836523494969 -0.12364210947398269 -0.11771036267210779 0.12199954402449537 -0.1208869500167732 0.12214163837440438 0.12385965166961377 -0.11919707336685975 0.11816050419109149 -0.11909841526870302 -0.12192969924373478 0.11928223796832284 0.12231366084493223 0.12289249977069484 0.11892052387522685 -0.1178162810062595 -0.11324528872718018 -0.12279303922739054 0.11843695033376027 0.1196120333488635 -0.11873621065461165 -0.11871418934104909 -0.1227521779065753 -0.11558738662265335 -0.12438006010316469 -0.11833486285711918 -0.12022686922412809 0.1190982998664785 0.11948144243136104 -0.11630709957297798 -0.12145275301376829 -0.12147642609005997 0.12020765717996826 0.1221488282458844 0.11888457266782038 0.12183095220470164 0.1186209280653904 0.11789477261656281 0.11538783832483693 -0.11889070793674406 0.11999373322966074 0.11263757110322273 0.11294631774282411 -0.1229021311870288 0.11657918563844946 0.1186627443710253 -0.1245048734906429 -0.12027936177984024 0.12238667714429988 -0.11821267256227122 -0.11536901903914946 0.11775991295756545 -0.11274564537248395 -0.12300066494228504 -0.11942555064066458 0.11702273746641392 0.12050648772687232 -0.11676825417024467 0.11804936223476027 0.11589448334630098 -0.11494914530323928 0.12128592728280956 0.11658462793960395 0.12306098705339122 -0.12047527185672377 0.11757288647167044 -0.1208435016099651 -0.12178620522755043 0.11881767637242964 0.1217936832977038 -0.12431406074443295 -0.11935663434914812 -0.11599972157015716 -0.1237010677943777 -0.12043481865433547 0.11899696882007026 0.12091841743321353 -0.11937869584278561 -0.11655874746375314 0.11895896680244726 0.12019975582504304 -0.11937138535282824 0.12183213205197588 0.11934802477351021 0.11699468378594785 -0.11392321030634871 0.11608498932731288 0.12173173877672179 0.11669578221325934 -0.11799045085003032 -0.12251011076865667 -0.11799614571861357 0.12065811131830417 0.12499667326753806 -0.12257678609686685 -0.1201912883511752 0.11901591481447428 0.12436682728191324 -0.11864650692602996 -0.1225296189851735 0.1234006576436041 0.11812492149684652 0.12354333141299631 0.12385177547115304 0.1200590324121282 0.12127130557763727 0.12153118008352708 -0.11910603842277107 -0.11987447557405828 0.12278459135497503 -0.1206205825295284 0.1183592973420742 -0.12090437096869903 0.11968643280203425 -0.11957122546720093 0.12198858472575219 -0.12224802774776518 -0.12358508515458369 0.11555106926987922 -0.12280003020965928 0.123785737630837 0.11788479782460558 -0.12104163244740938 0.12192113075901163 -0.11491891971531318 -0.11649971933373712 0.1189368236672852 0.11960568434729064 -0.1233231586450829 -0.12018603584264174 0.11944084250620562 -0.11885695055487648 0.11764948854530116 -0.11868522687627367 -0.1197555364866343 0.12175257581337504 -0.11845062239483488 -0.11706388275758174 0.1193063358306209 -0.11860784225534653 0.12061330613177082 -0.12035369626167274 -0.11871304956671072 -0.11928049235178038 0.11982864048712835 -0.12079490617544437 
CREATE -0.1031686730167561 0.1036457180474511 -0.10124581823645232 -0.10345167238270536 -0.10233247811353338 0.10416178733543797 -0.09756712684477865 -0.10605931624502447 0.10139670437182476 -0.1054122487571203 0.10280136152435956 0.10705167191321743 0.10102321696856185 0.10127477152283385 0.10041302016112581 -0.10155239066646346 -0.10155050469565821 -0.1020532413229804 0.10235598062841901 0.10828491071340535 0.10845801908135506 0.10409033615685351 0.10274470134748492 -0.1018554858645952 0.10094298496115597 -0.09896305216541439 -0.10125577575905233 0.09791117940426373 -0.10554498127992036 -0.10413498432259842 -0.10243510948959153 -0.09973549070246276 -0.1021139927243908 -0.10666495190381324 -0.10146761407720693 -0.105436167522285 -0.10300401675524475 0.10363889500468898 -0.10301778164478126 0.10266874281833688 0.1048375369057666 -0.1012397871958253 0.10187147796536518 -0.10250666389227721 -0.10442378565667482 0.1027078053794523 0.102357707948923 0.10406395315642027 0.09856892162349301 -0.10224740380238871 -0.09998422870913162 -0.10754338159394075 0.1009439466424447 0.10030122043214076 -0.10537331704464974 -0.10079639916124512 -0.10628442673887192 -0.09949042841168258 -0.10406630346830315 -0.10090181701151373 -0.10481759734338833 0.10306985865819775 0.10172729726406864 -0.10408062717477524 -0.10390281873911233 -0.10077791167777715 0.10158553002725355 0.10183143556066603 0.09853559159267875 0.10403545811478937 0.10335099138794568 0.10005035289626396 0.09864422631006683 -0.10354619864675708 0.10231989244548068 0.09734547846503644 0.10042522414043485 -0.10329719629527431 0.09896982356093852 0.10617872153603868 -0.10462256420193852 -0.10358700411104112 0.10264621796292363 -0.10055541451723783 -0.09618910376321606 0.10231793597222906 -0.0979679717483364 -0.10557820744012164 -0.1059113769814258 0.10144329959169128 0.1031172068833413 -0.10012097050688516 0.10370944656923249 0.0958404134272288 -0.10072899947135631 0.10177706139705026 0.09991669378134405 0.10491684930518747 -0.10405293314040531 0.10257315760919211 -0.10374612981441979 -0.10160685241552952 0.09882533876119205 0.10574745344925626 -0.10545173577773193 -0.10520898036170134 -0.10225999142952319 -0.10379858380157102 -0.10177560626188396 0.10175363243762707 0.10427244940960614 -0.1033405295305835 -0.10113563883440783 0.10267307848401386 0.10369206653359066 -0.10032808778924834 0.10472079914070055 0.10112202658551765 0.09806444131379015 -0.09940225520808169 0.10238034013641827 0.10575883541745074 0.10095218405052442 -0.10283840237686297 -0.10253659222270688 -0.10534160934866688 0.10222653700072669 0.10706883642403164 -0.10294732427254312 -0.1053005387644026 0.10041007675881082 0.10595152909357203 -0.10463495455731843 -0.10371096666148254 0.10319564159595557 0.10542058977696331 0.105666523735513 0.10593718981186104 0.09994970287629831 0.10239224372163933 0.10335662592966484 -0.1020255201772694 -0.10689361787257678 0.10141736721382255 -0.106971775430127 0.10225662831213837 -0.10124308492212851 0.1041536511345622 -0.10183037150270124 0.10482464211333278 -0.10537771249845951 -0.10615062761306956 0.09539230948283718 -0.10634858769714302 0.10319636013115448 0.09980016618641184 -0.1010810514268815 0.10625442534177074 -0.10189921944228224 -0.09923697179907506 0.10463248611438063 0.10388992756877437 -0.10533975934755341 -0.10035200275321238 0.10427842180594196 -0.10361406273772043 0.09967393107332642 -0.10000632820504084 -0.10365105035554337 0.10430217277616464 -0.09806494428726302 -0.10029073772175427 0.10366948504835034 -0.10569740369891781 0.10290915505296938 -0.10121727460801616 -0.10465439582434474 -0.10094229082818588 0.10628709737869985 -0.10249265706658149 
